6913 50
Harry -0.317086 -0.279740 0.383964 -0.047193 -0.894866 -0.102452 -0.366153 0.433107 0.103380 -0.159413 0.135579 0.182227 -0.068095 0.111026 -0.692060 -0.368571 0.680640 0.016575 -0.154305 -0.317085 -0.412497 0.680946 -0.675435 0.065122 0.791356 0.656281 -0.143097 0.326632 -0.851586 0.311685 0.070098 0.500789 -0.444517 -0.175722 -0.913654 -0.054759 0.144497 0.039054 0.107638 0.099019 -0.653231 -0.440476 -0.083860 -0.271933 -0.133863 0.388043 0.162211 -0.047544 -0.536016 0.006052
Potter -0.458550 -0.375135 0.690384 0.500844 -0.887041 0.121548 -0.989347 0.769390 -0.075200 0.042669 -0.422984 0.056935 0.081793 0.188806 -0.612577 -0.027418 0.083282 -0.395215 -0.203356 -0.266081 -0.084264 0.812851 -0.917080 0.456038 -0.132603 0.141576 -0.268705 0.321796 -0.579593 0.607100 -0.019908 0.170431 -0.766492 0.558937 -1.103628 -0.176390 0.009769 0.544695 0.587684 -0.126689 0.305562 -1.138048 0.393203 -0.297608 -0.608258 0.436163 -0.220012 -0.474542 -0.406457 -0.254538
and -0.342031 0.038426 0.154609 0.302431 -0.307318 -0.313169 -0.246585 -0.243771 -0.301226 -0.305310 -0.006198 -0.316678 -0.528887 -0.036645 -0.478195 0.096340 0.278023 0.174128 0.130074 0.057340 -0.464395 0.381615 -0.697059 0.589454 0.382469 0.106416 0.027140 0.439924 -0.001975 -0.131829 0.368784 0.767155 -0.272469 -0.224564 -0.492273 0.309540 -0.097296 0.024468 -0.324211 0.130218 -0.073019 -0.913917 -0.025730 0.232783 -0.838147 0.510893 -0.175924 -0.468030 -0.428410 0.148988
the -0.860801 0.033300 -0.059835 0.792690 -0.867012 -0.198360 -0.035683 0.490949 0.309372 -0.302751 0.727645 0.504835 -0.322887 0.655190 0.236653 0.376776 0.610247 -0.065999 0.311155 -0.024961 -0.155044 0.660301 -0.795581 -0.310369 0.158781 -0.189622 0.310611 0.828271 -0.015606 -0.203750 0.108139 0.060614 -0.161656 0.366233 -0.204937 0.605102 -0.312938 0.286643 -0.705061 0.280163 0.064180 -0.353526 0.178611 0.004728 -0.413353 0.415941 0.026240 0.039519 -0.406429 -0.094028
Sorcerers -1.113789 -0.562770 0.261073 0.557543 -0.253859 0.537483 -0.455740 0.101507 -0.347792 -0.039906 0.563206 -0.393118 -0.349249 0.505181 -0.278496 -0.086468 -0.118752 -0.012458 -0.170333 0.180657 -0.601637 -0.235356 -0.527939 -0.089229 0.456653 0.657786 0.130343 0.260362 0.178976 0.202602 0.199835 0.208619 0.145751 0.322440 -0.617250 0.395084 -0.404398 0.368379 -0.103010 0.787742 0.452744 -1.080618 0.501754 -0.177818 0.024638 0.819915 -0.336650 0.164154 -0.162981 -0.164425
Stone -0.469909 -0.117473 0.428946 0.459460 -0.892427 0.042523 -0.491536 0.926481 -0.182762 -0.607144 0.536357 0.074490 0.359796 0.638936 -0.327122 -0.238910 0.534352 0.211485 -0.261157 -0.340430 -0.848874 0.640579 -0.755107 0.029010 0.270699 0.732109 0.158014 0.143539 -0.476891 0.026278 0.667648 0.122341 -0.095514 -0.145025 0.087613 0.300454 -0.328377 0.486224 0.250187 0.531560 0.296982 -0.477346 0.215145 -0.829677 -0.249459 -0.170749 -0.157660 -0.708649 -0.251458 -0.133551
CHAPTER -0.419069 -0.393116 0.345620 -0.125806 -0.767743 0.267311 -0.476963 0.050323 0.402686 -0.181445 0.320582 0.192877 0.197996 0.065585 -0.256912 -0.055215 0.922230 0.421889 -0.192189 -0.245533 -0.688307 0.280789 -0.636116 -0.088385 0.484034 -0.216839 0.105492 0.349114 0.129650 0.296905 0.697435 0.248054 -0.165012 -0.176107 -0.296216 0.021324 -0.355671 0.278604 0.346654 0.098847 -0.469763 -0.221758 -0.362388 -0.266956 -0.312079 -0.186054 -0.028707 -0.333603 -0.121858 0.149644
ONE 0.296592 -0.183250 0.271499 0.157284 0.031616 -0.246989 -0.309371 0.274980 0.471798 0.080920 -0.059139 0.200533 -0.354539 -0.042079 -0.332817 0.011270 0.493016 -0.292660 -0.244641 0.716466 -0.266936 0.444079 -0.349582 -0.365848 -0.179853 0.112491 -0.112786 0.127379 0.051209 0.237308 0.355774 0.631184 -0.103713 0.311784 -0.241844 0.137642 -0.389133 -0.046630 0.270861 -0.061432 -0.845978 0.148364 0.378231 0.110932 -0.021830 -0.587933 0.089561 0.074756 -0.283572 -0.048839
THE -0.445696 -0.604999 0.446979 0.102589 -0.491993 0.101263 -0.786544 -0.019596 -0.020073 -0.676570 0.392975 0.982939 0.024775 -0.231043 0.059114 -0.036543 0.454499 0.394956 -0.344541 0.174329 -0.473195 0.316487 -0.533992 -0.049744 0.401155 -0.142899 0.140781 0.297818 -0.149785 0.283577 0.808018 0.204904 -0.502896 0.184244 -0.507972 -0.071150 -0.460394 0.486209 -0.161229 0.487330 0.168255 -0.481941 0.238828 0.047809 -0.093060 -0.249073 -0.684292 -0.008729 -0.237235 -0.086182
BOY 0.286032 -0.295648 0.141674 -0.004835 -0.025412 -0.271686 -0.249880 0.236542 -0.236487 0.091696 -0.088843 -0.127624 -0.144257 0.017030 -0.180011 0.147338 0.553563 0.046199 -0.402488 -0.120199 -0.213139 0.377810 -0.142329 -0.091406 0.174599 -0.299369 0.213838 0.176198 -0.344651 0.029303 0.262788 0.274704 -0.464943 -0.434806 -0.429020 0.139894 -0.373010 -0.049937 0.237464 -0.367472 0.231015 -0.284981 -0.226837 -0.328811 -0.042832 0.199422 -0.452388 -0.359971 0.010290 0.000245
WHO -0.283663 -0.437123 0.067655 -0.128277 0.099018 0.057006 -0.232083 -0.267459 0.111544 0.012339 0.000763 -0.225249 -0.045511 -0.102097 -0.401800 -0.083491 0.356325 -0.198022 -0.078337 0.050360 0.001379 0.104011 -0.556783 0.072175 0.001829 0.277832 0.357847 -0.243170 -0.318303 0.258595 0.512989 0.342718 -0.244924 -0.407772 0.285839 0.139062 0.163136 0.079929 0.034557 0.235299 -0.257744 -0.234525 0.185980 -0.049582 -0.358729 -0.384883 0.004854 -0.158138 -0.014481 0.032473
LIVED 0.223314 -0.631525 0.286260 -0.346196 0.032506 0.012390 -0.355250 -0.065280 -0.063310 -0.198319 -0.048911 0.201763 -0.142039 0.070314 0.162277 0.157074 0.032554 -0.085134 0.180782 -0.028532 -0.435665 -0.137290 -0.366703 0.015240 0.131120 0.188079 0.080461 -0.014198 -0.362448 -0.036548 0.138432 -0.071542 0.140769 -0.058201 -0.128569 -0.254195 -0.043480 0.291215 -0.222425 0.214674 -0.538658 -0.098605 0.274445 0.073861 -0.016491 -0.369710 -0.166552 -0.164132 0.046674 0.049382
Mr -0.374555 -0.729305 0.614896 0.096179 -0.275814 -0.111802 -0.272354 0.382506 0.405481 -0.392106 -0.205413 0.634766 0.304611 0.264800 -0.530203 -0.125492 -0.302794 0.145715 -0.141215 0.512107 -0.723370 0.411293 -0.329098 0.521244 0.628845 0.861624 -0.017316 0.515250 -0.146866 0.435799 -0.117841 0.105316 -0.485983 0.060255 -0.904603 0.257546 0.324157 1.101672 0.349642 -0.055529 -0.282673 -0.419379 0.297106 0.080120 -0.932192 0.109604 -0.341459 -0.231056 -0.546705 0.159000
Mrs -0.308563 -0.341220 0.281983 0.629549 -0.251947 -0.387558 0.151316 -0.055721 0.094378 0.033255 0.004999 0.583073 -0.074768 0.677198 -0.419488 0.068720 0.142285 0.382295 0.064552 -0.294206 -0.337848 0.530644 -0.605425 0.655166 0.560151 0.487419 0.301011 0.254287 -0.210904 0.481224 0.638735 0.830273 -0.304360 0.013590 -1.465683 0.596411 -0.054435 0.249954 -0.093524 0.139672 -0.993972 -0.281560 0.583815 -0.199659 -0.467797 -0.039540 -0.387471 -0.463843 -0.339836 -0.008254
Dursley 0.155026 -0.272600 -0.030368 0.493536 -0.127323 0.165088 -0.763752 0.357567 -0.190656 -0.169938 0.333539 0.319948 -0.359295 0.205545 -0.935637 0.060019 0.334120 0.196372 -0.129004 -0.106681 -0.174339 0.417472 -0.563131 0.225684 0.730841 0.316375 -0.020277 0.350755 -0.530200 0.146499 -0.052372 0.101488 -1.048002 0.257715 -0.658053 0.242456 -0.657874 0.101677 -0.333312 0.290913 0.170372 -0.736841 0.519759 -0.056106 0.246286 0.436452 0.177266 -0.046574 -0.692125 -0.139599
of -0.609040 -0.794653 0.091123 0.016475 -0.686558 -0.464339 -0.237217 -0.171578 -0.432507 -0.112953 -0.322315 1.255051 0.169778 0.499403 0.314580 0.020153 0.492897 1.012587 -0.496779 0.428398 0.042730 0.172727 -0.594122 -0.457570 -0.179862 -0.719883 -0.029437 -0.189350 -0.534487 0.122711 0.329832 0.511509 -0.357257 0.489643 -0.698534 0.243068 -0.070593 0.406438 0.339175 0.519573 0.101496 -0.473856 0.129234 -0.741403 -0.709489 0.450654 0.185651 -0.327509 -1.136736 -0.298892
number 0.005378 -0.610220 -0.038553 0.114828 -0.309205 0.010890 -0.297487 0.435485 -0.126191 -0.135059 -0.240735 0.446222 0.044347 -0.147058 0.088649 0.212431 0.250725 -0.184611 0.058871 0.244244 -0.501054 0.764593 -0.734801 -0.120569 0.525457 -0.229556 0.017929 0.287024 -0.533561 0.884760 0.268634 0.510622 0.131840 -0.555022 -0.749242 0.896732 0.029331 0.281434 0.221059 -0.011648 -0.254696 -0.790839 0.047205 -0.088668 -0.070688 -0.327205 -0.224148 -0.079342 -0.583817 0.090566
four -0.105600 -0.567573 0.294030 -0.075881 -0.105682 -0.022464 -0.145473 0.184141 0.041228 -0.460339 0.135466 -0.250240 0.117844 0.013910 -0.191210 0.183472 0.355368 0.632845 0.384999 0.171126 -0.415335 -0.551593 -0.987853 -0.130966 0.774486 0.197472 0.144974 0.484566 -0.260053 0.040120 0.563846 0.776570 -0.122166 0.135595 -0.417996 0.300247 0.119722 0.452309 0.364640 0.473764 -0.072538 -0.650686 0.002821 0.127847 -0.192659 0.663390 -0.265212 -0.397182 -0.066164 0.320171
Privet -0.185741 -0.450116 0.239582 0.422819 -0.450824 -0.553716 -0.442233 0.717570 -0.343640 -0.525431 0.507751 0.566400 -0.380569 0.478636 -0.692574 0.380947 0.468365 0.320800 -0.052223 -0.094463 -0.503557 0.020015 -1.074619 -0.474588 0.172754 0.126324 0.069229 0.244081 -0.192184 0.177764 0.223130 0.036207 0.176129 0.156272 -0.486002 0.257400 -0.138826 0.147734 0.243005 0.546444 -0.395585 -0.013286 0.012154 -0.686409 0.184752 0.317771 0.371363 -0.330779 -0.414523 0.142572
Drive 0.225309 -1.071845 0.213574 0.266019 -0.286346 -0.175661 0.232774 0.168419 0.031116 -0.379220 0.281015 0.189511 -0.178030 -0.098164 -0.707029 -0.081499 0.366835 0.269561 -0.187013 -0.109376 0.145785 -0.149283 -0.870897 -0.058042 0.499899 0.274315 0.160321 0.066671 -0.031536 0.515553 0.212633 0.080040 -0.152607 -0.421874 -0.613042 0.254789 -0.195582 0.151088 -0.153539 0.250991 -0.518053 -0.651399 0.251154 -0.310205 -0.298703 0.518461 -0.305662 -0.201274 -0.777468 0.165743
were -0.179342 -0.670743 -0.193716 0.239916 -0.432411 -0.208395 0.171842 0.471827 -0.314734 -0.027369 0.222854 0.597262 -0.075610 0.131987 -0.338330 -0.305519 -0.235707 0.367372 0.462042 -0.197967 -1.244150 -0.087769 -0.736679 -0.068806 0.753436 -0.283335 0.116876 0.004486 -0.309170 -0.359001 -0.427400 0.561150 -0.374922 0.280449 -1.088784 1.119340 0.164201 1.099962 -0.143258 0.570073 -0.376818 -0.989876 -0.051685 0.260402 -0.125756 -0.093738 -0.109018 -0.631435 0.042870 0.112294
proud 0.088847 -0.344740 0.174345 0.304698 0.027641 0.132111 -0.550502 0.420861 -0.287225 -0.083280 -0.098996 0.227431 0.189123 0.303414 -0.464348 0.362935 0.175631 0.139072 0.208136 0.059311 -0.369334 0.209975 -0.604426 -0.079999 0.459955 0.244106 -0.247867 0.084185 0.217023 0.206500 0.229934 0.293436 -0.533553 -0.151100 -0.187381 0.466030 -0.120051 0.465843 0.118475 0.163409 -0.429092 -0.856312 0.121980 -0.179661 -0.592698 0.229171 0.092298 -0.003437 -0.500848 0.040447
to 0.069399 -0.673761 0.237982 1.009694 -0.410936 0.224644 -0.420345 -0.051441 -0.183447 0.058433 0.324516 0.440493 0.526525 -0.328196 -0.031558 0.079615 0.030838 0.121636 0.786338 -0.449776 -0.479563 1.012388 -0.768447 -0.475097 -0.014090 0.400982 -0.022823 0.365795 -0.188196 0.698193 -0.223892 0.651285 -0.376157 -0.086191 -0.027872 -0.122766 -0.119209 0.333161 0.278800 0.331365 -0.816664 -0.817314 -0.162442 -0.258554 -0.614952 0.913147 -0.058729 -0.415264 -0.443713 0.458948
say -0.550995 -0.453857 0.527225 0.360761 -0.982681 0.898803 -0.369281 0.150334 -0.459130 0.259757 0.136823 -0.062117 0.006203 0.312330 -0.277134 -0.202690 0.416356 0.656524 -0.253279 -0.144444 -0.552405 0.868288 -1.034753 0.331262 0.204311 0.398556 0.146488 0.164218 -0.378343 0.597819 0.181025 -0.364625 -0.649691 0.385461 -0.423066 0.236850 -0.015164 0.766577 0.363362 0.476328 -0.410083 -0.633392 -0.071888 0.010088 -0.332918 -0.170590 -0.447049 0.194891 -0.925279 0.495301
that -1.081014 -0.924640 -0.139553 0.186857 -0.413373 0.065495 -0.112018 0.127629 -0.201901 0.098178 0.658394 -0.242796 0.034368 0.701914 -0.916702 0.489394 0.674547 -0.002779 -0.541370 0.057491 -0.424081 0.672256 -0.748462 0.028738 -0.107041 0.283887 0.035474 0.282927 -0.411288 0.218075 0.174844 0.445173 -0.671233 0.429989 -0.378203 0.107660 -0.018499 0.402950 -0.282418 0.073551 -0.271791 -0.090727 0.191451 -0.833699 -0.476980 0.438120 -0.401366 -0.165168 -0.300838 0.092537
they -0.084681 -0.783656 0.240246 0.442000 -1.103905 0.259337 -0.628669 0.738745 -0.421425 -0.760087 0.661989 0.104042 -0.534058 -0.115724 -0.869047 -0.602521 0.844500 0.345404 -0.293713 -0.589704 -0.638960 0.181205 -1.069569 0.565511 0.349621 0.041483 -0.149193 0.985508 -0.597511 -0.414764 0.253114 0.516143 -0.614506 0.201565 -0.335181 0.439865 0.032268 0.278584 -0.874596 0.396636 -0.819272 -0.133878 -0.324963 -0.434710 0.271504 -0.248280 -0.323639 -0.168119 -0.564446 0.223308
perfectly -0.061406 -0.635964 0.149293 0.448460 -0.565137 0.060683 0.015253 -0.031095 0.025204 -0.155659 -0.063672 0.347220 0.148060 0.100208 -0.240352 0.175000 0.589366 0.345777 0.048337 0.109640 -0.876626 0.119639 -0.705434 -0.054873 -0.081021 0.075884 -0.256615 0.257177 -0.136945 -0.145723 0.226801 0.146163 -0.624606 0.149363 -0.617061 0.203870 -0.186771 0.175434 0.150697 0.576797 -0.267070 -0.542768 -0.181653 -0.077424 0.162221 0.351282 -0.199241 -0.042079 -0.326623 0.107075
normal -0.187173 -0.150978 0.392077 0.258481 -0.010351 0.481396 -0.019247 0.229373 -0.099028 0.044852 0.270990 0.359738 -0.180923 0.193589 -0.323620 -0.094443 0.362932 0.479392 0.083974 -0.612935 -0.549061 -0.025359 -1.055708 0.405909 0.294385 0.200775 -0.003979 0.056402 -0.374702 -0.004520 0.176560 0.077788 0.028890 0.296979 -0.565778 0.428421 -0.414499 0.822669 0.077270 0.412949 -0.042883 -0.537869 -0.210020 -0.466669 -0.100845 0.466893 0.208787 -0.125403 -0.813791 0.328839
thank -0.192697 -0.372705 0.325449 0.641938 -0.733799 -0.351289 -0.037583 0.748846 -0.327854 0.085114 0.330721 0.406117 0.153639 -0.532553 -0.332787 -0.184628 0.152915 0.271347 -0.336327 -0.424342 -0.478165 0.348735 -0.336763 0.087406 0.482581 -0.292090 -0.051945 0.494222 -0.333642 0.036944 0.115985 0.083943 -0.636412 0.184893 -0.184975 0.166271 0.010649 0.221200 0.265024 -0.129547 -0.329392 -0.579278 -0.047522 -0.368212 -0.198494 0.218073 0.021378 -0.650389 -0.601036 -0.273089
you -0.068043 -1.129869 0.657824 0.339563 -1.005110 0.288574 -0.260566 0.853208 -0.590683 -0.277978 0.203121 0.242180 0.361363 -0.123959 -0.694561 -0.524958 0.614404 0.096951 -0.109243 -0.360779 -0.344746 0.709148 -0.586481 0.508496 -0.211250 0.824294 -0.429971 0.504272 -0.011288 0.305219 0.447172 0.605849 -0.509392 0.557433 0.002345 0.100121 -0.196979 0.953809 0.145034 0.202029 -0.227502 -0.230328 0.277105 -0.255371 -0.490940 0.215705 -0.104044 -0.642369 -0.395284 -0.439045
very -0.259956 -0.552933 0.825233 0.151337 0.420350 -0.196437 -0.347817 0.165721 -0.240536 -0.262276 0.794367 0.499750 -0.202195 0.211307 -0.080560 0.319410 0.653702 0.539118 -0.044630 -0.339181 -0.152730 0.085391 -0.994134 -0.268536 -0.552265 -0.108106 0.447811 -0.355006 -0.102151 0.044116 0.147835 0.656316 -0.941930 0.410102 -0.912842 0.498597 -0.188019 0.197965 -0.269114 0.649181 -0.108732 -0.877044 -0.217586 -0.301660 0.031121 0.161244 -1.096286 0.488330 -0.734187 0.496367
much 0.356560 -0.782229 0.744329 0.307999 -0.766374 0.390590 -0.077615 0.550879 0.171816 -0.252835 0.924554 0.321070 -0.379626 -0.144473 -0.720249 0.151042 0.021096 -0.131477 -0.166885 -0.730659 -1.029383 0.449024 -1.320469 0.046231 0.304355 -0.018535 -0.223680 0.096614 -0.279826 0.028267 0.669300 0.492012 -0.585815 0.381953 -0.518112 0.106712 -0.085284 0.623399 -0.179677 0.360920 -0.397097 -0.272614 0.186250 -0.169566 0.429250 0.426390 -0.253118 0.146994 -0.863554 0.117651
They 0.121893 -0.642519 0.065729 0.271761 -0.928656 0.113822 -0.867754 -0.059186 -0.086895 -0.618300 0.606053 0.314939 -0.356863 -0.311900 -0.649266 -0.224408 0.555561 -0.015674 0.383367 -0.001440 -0.672568 0.711258 -1.081203 0.317594 0.242407 -0.002787 -0.071064 0.868219 -0.525563 -0.138107 0.782964 0.292831 -0.907749 0.239404 -0.546513 0.593095 -0.015096 -0.343641 -0.267356 0.239046 -0.763440 0.145642 -0.204929 -0.524111 0.150163 0.376882 -0.022451 -0.014489 -0.490727 0.137694
last -0.954849 -0.792031 0.005344 0.188002 -0.489351 0.222038 0.371268 -0.072636 0.134978 0.043042 0.696032 -0.128680 -0.637018 0.693694 -0.268584 0.384033 0.254988 -0.356443 -0.458882 0.527743 -0.329012 0.041408 -1.267107 -0.135436 -0.353592 0.715356 0.031798 0.374932 -0.315633 0.374202 -0.048659 0.601212 -0.631800 0.085404 -0.695699 0.012609 -0.340445 0.046979 0.007307 0.356188 0.079597 -0.608231 -0.310630 0.112232 -0.137348 0.443425 -0.078215 0.225113 -1.351838 -0.456922
people -0.137007 -0.946980 0.252332 -0.302947 -0.314860 0.184407 -0.271792 0.573794 -0.231013 -0.391842 0.393978 0.475367 -0.019500 -0.368151 -0.259630 -0.025114 0.496143 0.459341 0.163940 -0.117079 -0.471453 0.355308 -0.941016 0.065284 0.308767 0.086625 -0.066578 0.640110 -0.129305 0.018959 0.257870 0.419591 -0.436376 0.762533 -0.565547 0.180734 0.208165 0.571660 0.047757 0.473121 -0.148061 -0.438285 -0.385210 -0.351361 0.271584 0.328647 -0.249470 0.218405 -0.600302 -0.224878
youd -0.469356 -0.642196 0.157973 0.254359 -0.820128 0.352580 -0.532271 1.047309 -0.169744 -0.195251 0.457286 0.320103 -0.346801 0.221655 -0.582449 0.205502 0.022140 -0.112338 -0.324643 -0.106798 -0.707494 0.209488 -1.019946 0.189639 0.453691 0.303405 -0.275342 -0.138090 -0.075951 -0.091651 0.201829 -0.240056 -1.135932 -0.249944 -0.234951 0.259147 -0.131766 0.453352 0.039511 0.526961 0.306015 -0.847751 -0.159466 -0.635205 -0.443072 0.306973 -0.246626 -0.444945 -0.459243 0.481144
expect -0.326878 -0.796659 0.313806 0.129806 -0.610288 0.610095 -0.263372 0.360638 -0.119051 -0.022171 0.114642 0.489086 -0.177173 0.436396 -0.390166 -0.401602 0.391407 0.613160 -0.315681 -0.152843 -1.033293 0.063555 -0.626901 0.169137 0.310755 0.492954 0.097205 -0.041631 -0.257192 0.379177 0.519151 -0.762916 -0.913645 0.143542 -0.332221 0.572423 -0.157972 0.619622 0.132060 0.334319 0.161380 -0.336176 0.037859 -0.231470 -0.468201 0.367264 0.044694 -0.399057 -0.759921 0.036934
be -0.219881 -0.896918 -0.330737 0.099522 -0.512251 0.610120 -0.051081 -0.189373 -0.334705 -0.195154 0.524577 0.131253 0.449864 -0.477630 -0.471431 0.835535 1.355255 0.243500 -0.644176 -0.821943 -0.567585 0.338252 -0.611754 -0.237863 0.178514 0.623923 -0.225973 0.273798 -0.287444 0.701710 -0.080515 0.273148 -0.966333 0.781698 -0.530537 0.361751 -0.546528 0.900724 0.585398 0.735065 -0.478556 -0.255384 -0.453019 0.384098 -0.930355 -0.131858 -0.399509 0.020652 0.327630 -0.298641
involved -0.333923 -0.379020 0.351661 0.309050 -0.351836 0.350093 -0.282387 -0.122945 -0.512453 -0.464338 0.031032 0.236049 -0.280723 0.353632 -0.296800 0.602877 0.682076 0.468567 0.260117 -0.570649 -0.164965 0.889460 -0.599907 0.218821 0.318194 0.224576 -0.485063 0.327442 -0.229217 0.249007 -0.010041 0.192609 -0.458654 0.065926 -0.291295 0.601368 0.153045 0.021541 0.257526 0.379083 -0.304517 -0.462228 0.236601 0.103409 -0.054762 0.116935 -0.241405 -0.218793 -0.028744 0.043887
in -0.900216 -0.381136 -0.234981 0.121444 -0.312362 0.492060 0.345925 0.024326 0.069854 -0.426646 0.148485 0.186528 -0.668798 0.561230 -0.110802 -0.202194 0.204219 0.401996 0.659362 -0.127656 -0.261901 0.641331 -0.674506 -0.558769 -0.020697 -0.725209 -0.389427 0.531757 0.148081 0.481279 0.381952 0.569858 -0.883854 0.097746 -0.990987 0.449312 -0.003538 -0.107714 0.570832 0.232383 -0.513293 -0.706707 0.129100 -0.633233 -0.533517 0.139278 0.132389 -0.461742 -0.919214 -0.604114
anything -0.275548 -1.208335 0.573548 0.217769 -0.998137 0.510122 -0.706381 0.826075 0.065000 0.087418 0.285365 0.457347 0.224285 -0.163338 -0.092328 0.371507 0.393327 -0.107355 -0.544009 -0.523758 -0.344667 -0.184463 -0.655529 0.817476 0.428226 1.023127 0.023391 0.104467 -0.384906 0.097066 0.418973 0.002597 -0.861524 0.295882 -0.425702 0.719067 -0.390235 0.461291 -0.282795 0.639342 -0.227278 -0.149890 -0.484708 -0.368141 -0.177330 0.240752 -0.080126 -0.154882 -0.925717 0.367923
strange -0.335675 -0.533904 0.444409 -0.126843 -0.258285 0.206907 -0.184739 0.233271 -0.075261 -0.317743 0.443566 0.570023 0.402767 0.037130 -0.701434 0.304286 0.209250 0.379228 -0.245911 -0.426707 -0.323511 0.176758 -0.584676 0.484002 -0.018979 0.519022 0.168481 0.346764 -0.214454 0.174736 0.233451 0.623485 -0.228196 -0.050456 -0.648832 0.765060 -0.035279 0.230661 0.088092 0.280338 -0.211702 -0.210863 0.335933 -0.554030 0.013132 0.074274 -0.326365 -0.371127 -0.741466 0.181028
or -0.613788 -0.310903 0.019838 -0.080921 -0.399478 0.099691 -0.718495 -0.004618 0.188754 0.268422 0.363992 0.447484 -0.121657 -0.142025 -0.139358 0.472178 -0.125208 0.632741 -0.587673 -0.552541 -0.861298 0.126083 -0.694494 0.174648 -0.091342 0.465008 -0.085598 0.579486 -0.231085 -0.127362 0.722262 -0.118327 -0.357282 0.358627 -0.686954 0.208413 -0.448368 0.624638 -0.266335 0.516589 -0.138821 -0.549148 0.360802 0.136098 -0.552071 -0.024854 -0.520639 -0.467564 -0.303029 -0.019735
mysterious -0.394682 -0.514926 0.118890 0.236446 -0.119824 0.290863 0.276669 0.315754 0.171712 0.299975 0.497632 0.070976 -0.216388 0.022405 -0.094485 0.218438 -0.186890 0.274518 0.065219 -0.378786 -0.468538 -0.079188 -0.931586 0.090265 0.395101 0.719485 -0.034022 0.424772 -0.318212 0.024989 0.065059 0.031930 -0.099032 0.168085 -0.758948 0.370053 -0.270198 0.361242 -0.245884 0.208806 0.133861 -0.471374 0.349761 -0.101047 -0.585841 0.260770 -0.147097 -0.167077 -0.566248 0.757315
because 0.196685 -0.462349 0.456874 -0.272598 -0.330290 0.206438 -0.347127 0.348608 0.311742 -0.243904 0.378370 0.105877 -0.332179 0.252281 -0.314480 0.710589 0.226267 0.292427 0.044830 0.182549 -0.755563 0.634756 -0.785956 0.412736 0.235479 0.358502 0.262047 0.077615 -0.597700 0.081150 0.003858 -0.061679 -0.804199 -0.163203 -0.400714 0.977072 -0.585383 0.435217 -0.042993 0.220474 -0.719519 -0.604392 0.328531 -0.393448 -0.227294 0.328384 -0.533748 -0.181024 -0.726020 -0.124022
just 0.097969 -0.549234 -0.166051 0.115845 -0.864778 0.262557 -0.546355 0.617207 0.482064 -0.316506 0.451850 0.191987 -0.153221 -0.213218 -0.627776 0.503963 0.180135 -0.170323 -0.239498 -0.088796 -0.380953 0.637405 -0.795564 0.055767 0.367665 -0.062292 0.157928 0.088649 -0.350429 0.491473 0.125900 0.206665 -0.786429 0.017683 -0.763923 0.236309 -0.402935 0.529704 0.396282 0.921072 -0.578528 -0.297599 0.349565 -0.639556 -0.059801 0.165570 -0.633972 -0.374442 -0.696001 -0.115083
didnt 0.081290 -1.118828 0.556012 0.550731 -0.961505 -0.532632 -0.548115 0.519355 0.108243 -0.710578 0.880061 0.633314 -0.550419 0.228039 0.457703 -0.509183 0.525752 -0.244958 -0.684727 -0.997026 -0.449499 0.943874 -0.095913 0.123786 -0.237252 0.511492 -0.346114 0.110783 0.305407 0.082405 0.649499 0.277943 -0.940894 0.218609 -0.908111 -0.030245 -0.121984 0.950675 0.399659 0.799364 -0.452820 -0.886412 0.219182 0.082823 0.147159 0.446772 -0.057869 -0.613023 -0.482018 0.448634
hold -0.436998 -0.664078 0.100365 0.622141 -0.732087 0.433130 -0.172251 -0.076400 -0.029605 0.134655 0.203818 0.413918 0.191982 0.126054 -0.436629 0.156964 0.388034 0.517137 -0.146615 -0.494184 -0.244470 0.357472 -0.943502 0.145688 0.157099 0.115481 0.189522 -0.010064 -0.138281 0.380794 0.168953 0.225247 -0.182267 0.018320 -0.054141 0.392736 0.146011 0.196231 0.711431 0.480991 -0.406568 -0.678828 0.196782 -0.015070 -0.755709 0.667401 -0.219896 -0.208386 -0.582959 -0.203443
with -0.065769 -0.102722 0.447673 -0.026594 -0.362127 0.053307 -0.108484 0.048266 0.232321 -0.498622 0.062368 0.497885 -0.283114 0.572315 -0.274351 -0.337286 0.182477 0.577300 0.171086 -0.162438 -0.340464 0.280438 -0.908517 0.094662 -0.226761 -0.265240 -0.085696 -0.129690 -0.066506 0.126878 0.358461 0.798876 -0.194440 0.225951 -0.726150 0.757536 -0.261730 0.275897 0.215160 -0.305252 -0.396112 -0.947839 -0.215064 -0.268689 -0.846865 0.262547 0.441760 -0.780609 -0.289181 0.108571
such 0.039817 -0.297932 0.389951 0.050493 -0.499520 0.605368 -0.285029 0.255304 0.172891 -0.295640 0.334413 0.419481 0.055143 0.414556 -0.504453 0.559320 0.119875 0.490468 -0.431166 0.016204 -0.761745 0.045130 -0.764379 0.126464 0.312287 0.085244 -0.204018 0.176314 -0.090917 0.408327 0.281970 0.710424 -0.982187 -0.294822 -0.293368 0.648847 -0.287663 0.438901 0.278040 0.492412 -0.092735 -0.254992 0.033625 -0.273837 -0.350530 -0.118766 -0.502220 -0.385617 -0.367751 0.336260
nonsense -0.423949 -0.448412 0.481725 0.462243 -0.374181 0.274153 -0.233217 0.532577 0.487207 0.030341 0.150679 -0.324258 0.276882 -0.079589 -0.001149 0.045317 0.224020 0.355171 0.007172 -0.067618 -0.116804 0.273588 -0.599805 0.185955 -0.018037 0.143630 0.244848 0.506026 -0.049730 0.350883 0.640641 0.189012 -0.457464 0.141730 -0.331855 0.181943 0.061178 0.027579 0.240085 0.570245 0.220811 -0.687846 0.390832 -0.496738 0.163096 0.404338 -0.411517 -0.059662 -0.678854 0.026379
was -0.687845 -0.655136 -0.014984 0.262407 -0.050271 -0.345049 0.238817 -0.031579 -0.163871 0.025230 0.710864 -0.058252 -0.397316 0.224101 -0.191651 0.397176 0.399066 0.776739 -0.581774 -0.224915 -0.437220 0.450049 -1.060826 -0.658945 0.233894 0.424661 -0.047231 -0.297724 -0.422237 -0.091450 -0.329869 0.914548 0.042769 0.474841 -0.920938 0.402729 -0.081839 1.446473 0.261806 0.541410 -0.679138 0.123675 -0.068817 -0.363564 -0.057562 0.535862 -0.392504 -0.194002 -0.458511 -0.353145
director 0.030224 -0.383623 0.591569 0.255728 -0.789189 -0.436393 0.282894 0.027076 0.244727 -0.143307 0.217285 0.308094 -0.005177 0.468863 -0.169040 0.152702 0.281406 -0.028870 -0.585294 0.196146 -0.378288 0.499859 -0.394521 0.032849 -0.070229 0.255226 0.490764 0.282475 0.261596 0.065125 0.241105 0.482015 -0.220667 -0.329185 -0.989487 0.316152 0.051290 0.143540 0.032438 0.324604 -0.226034 -0.441858 0.111701 -0.233628 0.006454 0.324596 -0.125424 0.016830 -0.112849 -0.361305
a -0.876345 -0.436198 0.591900 0.250940 -0.792526 -0.174694 0.248137 -0.024890 -0.055694 -0.092226 0.328549 0.735957 -0.609526 0.012968 -0.225335 0.526454 -0.179211 0.824695 -0.182811 -0.617800 -0.221569 0.114316 -1.208554 -0.065843 -0.528684 -0.582243 0.138866 0.519424 -0.034501 0.930332 0.770340 1.316654 -0.920407 -0.283199 -0.423298 0.245815 -0.460363 0.099943 0.126851 0.501610 -0.271480 -0.460506 -0.105017 -0.198182 -0.000593 0.129268 0.425012 0.030553 -0.593388 0.182674
firm -0.431395 -0.281598 0.280139 -0.043452 -0.399542 0.729755 -0.315449 0.019348 0.343183 -0.397200 0.359507 0.232946 0.170891 0.069908 0.380611 0.181975 0.376268 0.169218 0.099841 -0.397649 -0.215394 0.667313 -0.369535 -0.209532 0.329223 0.271699 0.081091 0.425780 -0.384262 0.839115 0.282534 0.408199 -0.255071 0.070837 -0.306480 -0.078150 0.252931 -0.233329 -0.306400 0.486696 -0.089037 -0.418018 0.582595 -0.581227 -0.028455 -0.204458 0.024471 -0.155174 -0.223918 0.437864
called -0.052322 -0.660209 0.318862 -0.008924 -0.432095 0.027067 -0.028738 0.522949 -0.138705 -0.059720 -0.117935 -0.106913 -0.180684 0.532112 -0.012837 0.114379 0.508836 0.539795 0.218721 0.258855 -0.576758 0.563374 -0.595398 -0.235943 0.460936 0.400931 0.264209 0.224611 -0.237880 0.586033 0.302809 0.294582 -0.525819 -0.132114 -0.653217 0.728200 0.003937 0.328891 0.457536 0.188964 -0.201520 -0.450515 -0.459759 -0.484223 0.075508 0.071338 -0.087334 -0.634448 -0.570065 0.214579
Grunnings -0.143611 -0.426405 0.274773 0.095355 -0.058451 -0.192949 -0.114632 0.099718 0.110689 -0.113862 0.154141 0.117666 0.322584 0.034214 0.026574 0.423022 0.367814 -0.012730 0.096307 -0.423815 -0.400305 0.562023 -0.285106 -0.124292 0.114055 -0.137586 -0.134895 0.102201 0.146878 0.387448 0.139783 0.060686 0.025572 0.063708 -0.348923 0.114553 -0.432837 0.187307 0.090936 -0.058710 0.057210 -0.324553 0.201934 -0.054063 -0.222454 0.624308 0.209932 -0.012804 -0.621926 -0.007970
which -0.543087 -0.629647 0.056599 0.366651 -0.451958 0.386942 -0.249699 -0.223779 -0.410865 -0.301344 0.419591 0.183105 -0.170040 0.740813 -0.171675 -0.013573 0.364524 0.546934 0.304407 -0.145006 -0.180937 0.581239 -0.583059 -0.522768 0.201183 -0.020883 0.186076 -0.236647 -0.384360 0.363655 0.729922 0.155199 -1.062224 -0.190933 -0.292222 0.622224 0.028915 -0.003458 0.087964 0.335353 -0.486522 -0.253563 -0.149455 -0.533981 -0.382697 0.341079 -0.106975 -0.022065 -0.501061 -0.280943
made -0.466187 -0.919840 -0.260574 -0.239861 0.062915 0.242140 -0.422492 0.150438 0.089602 -0.417983 0.155779 0.768759 -0.159136 0.114327 -0.159188 -0.159011 0.213139 0.355130 -0.857659 -0.003298 -0.271097 0.760695 -0.719298 0.144434 0.116179 -0.125202 0.367596 0.571958 -0.387444 0.175022 -0.306844 0.337706 -0.391358 -0.246740 -0.758980 0.138121 0.088249 0.582366 0.431956 0.323126 -0.105962 -0.533245 -0.478159 -0.337778 -0.014263 0.699447 -0.220140 -0.266625 -1.185576 0.163247
drills -0.565521 -0.608655 0.502533 0.208010 -0.015038 0.125666 0.238397 0.285394 -0.456296 -0.137217 -0.010633 0.173803 0.119878 0.307672 -0.458638 0.457551 0.405841 0.310085 0.031544 -0.024386 0.089352 -0.009538 -0.449498 -0.270857 0.224110 0.319272 0.139390 0.468906 -0.563594 -0.051623 -0.090634 0.542793 -0.014483 -0.374291 -0.206356 0.727676 -0.125210 0.613147 -0.014945 0.147287 -0.352327 -0.256872 -0.169984 -0.071928 0.036682 0.602419 0.159412 0.067435 -0.608417 -0.026201
He -0.119145 -0.215086 -0.013851 0.385615 -0.722165 0.562918 -0.550317 -0.491004 0.743046 -0.433939 1.048962 0.751569 -0.010918 0.050689 -1.305148 -0.163571 0.869176 0.268361 -0.233354 0.155126 -0.215733 0.333993 -0.731897 -0.118612 0.216049 0.451736 -0.362609 0.301313 -0.397401 -0.051932 0.609469 0.663520 -0.525061 -0.586342 -1.159298 0.222278 0.209802 0.271737 0.076298 -0.009997 -0.786060 -0.101176 -0.410969 -0.688453 -0.485651 -0.029330 -0.080482 -0.199596 -0.558410 -0.227341
big -0.137159 -0.092222 0.669816 -0.083592 0.285807 0.246159 -0.151992 0.301526 -0.157545 -0.555190 0.152515 0.559403 0.099136 0.436379 -0.669830 0.776763 -0.002374 0.303225 -0.308865 -0.323867 -0.532816 0.274749 -0.773117 -0.233374 0.212492 -0.101534 0.031404 -0.108496 -0.094854 0.394192 0.127399 0.486195 -0.682945 -0.096812 -0.417257 0.480517 -0.392167 0.464539 0.149669 0.550950 -0.139502 -0.689753 -0.367581 -0.127352 0.001998 0.042009 0.110906 -0.083742 -0.896934 0.258595
beefy -0.570806 -0.104327 -0.114748 -0.075899 -0.215674 0.076727 -0.548577 0.195529 0.036199 -0.163999 0.042940 0.387466 0.069748 -0.015701 0.175995 0.367012 -0.066640 0.435691 0.083922 -0.201932 0.148963 0.182433 -0.484018 -0.097184 0.294259 -0.069380 -0.283483 0.181594 -0.252657 -0.028471 -0.044911 0.227507 0.275480 -0.025927 0.443755 0.224630 -0.750141 -0.041196 -0.182426 0.211490 0.113687 -0.280508 -0.313315 -0.189790 -0.531022 0.401183 0.076949 -0.336957 -0.194706 0.221253
man -0.466270 -0.465513 0.604788 0.096459 -0.173279 0.487551 -0.090812 0.016673 -0.075554 -0.044023 0.380739 0.175399 -0.438208 0.272983 -0.623986 -0.103758 0.410378 0.301911 0.046237 -0.548221 0.248031 0.205743 -0.365070 0.177308 0.175938 0.275099 0.025710 0.086594 -0.023523 0.662320 0.234594 0.449300 -0.097864 -0.084454 -0.724386 0.834844 -0.341114 0.764100 -0.004543 0.535850 -0.040698 -0.450483 0.075085 0.109997 -0.067380 0.103074 0.074549 -0.110016 -0.613347 -0.442667
hardly -0.079204 -0.504284 -0.342100 -0.342771 -0.405696 0.260339 -0.640707 0.441753 -0.240984 -0.353053 -0.120033 0.516373 0.091157 0.194566 -0.737497 -0.094286 1.266573 0.317426 -0.505749 -0.195892 -0.303993 0.180748 -0.924941 0.118488 0.225833 0.693395 0.171523 0.179812 -0.095946 0.317763 0.324131 0.301994 -0.492451 -0.313687 -0.640142 0.460569 0.023842 0.404524 0.033681 0.490849 -0.117137 -0.579927 0.041547 -0.101702 -0.063506 0.463854 0.004134 0.086512 -0.827435 0.357099
any -0.485777 -0.700243 -0.073848 -0.231910 -0.783142 0.375558 -0.657404 0.263447 0.402107 -0.165724 0.683221 0.489631 0.202081 -0.072228 -0.360741 0.526910 0.221746 -0.142436 -0.187486 -0.195752 -0.548831 0.164175 -0.798364 0.329828 0.111764 0.473282 -0.104673 0.193099 -0.340526 0.219951 0.379642 0.442613 -0.577200 0.697030 -0.188082 -0.076760 -0.272830 0.551822 0.147729 0.190250 -0.115161 -0.629916 -0.276420 -0.178509 -0.843551 0.404012 0.153229 0.116713 -1.107063 0.352089
neck 0.072274 -0.623749 -0.244994 -0.320572 -0.065578 0.133242 -0.500014 0.068689 0.006929 -0.438428 0.585192 0.256970 0.154172 -0.107284 -0.643970 0.024994 0.446168 0.301304 -0.147061 0.175604 -0.809614 0.519319 -0.190291 -0.248347 0.720984 0.206774 0.493532 0.431445 0.015853 -0.174703 0.417404 0.455403 -0.297577 -0.045588 -0.998616 0.712285 -0.003576 0.225963 0.209059 0.074927 -0.195711 -0.808202 0.217692 -0.230896 -0.341099 0.335803 0.193796 0.177585 -0.653787 -0.242351
although -0.233998 -0.665127 0.096203 0.186633 -0.386013 -0.075846 -0.103393 -0.170300 -0.047844 0.155898 0.080161 0.515802 -0.161211 0.502081 -0.318375 -0.127456 0.914121 0.429214 0.271816 -0.363752 -0.358314 0.204446 -0.503158 0.135679 0.423907 -0.083214 -0.560869 0.403119 0.101632 0.384602 0.502149 -0.181898 -0.779237 -0.040451 -1.095181 0.118040 -0.161872 0.317947 0.237627 0.828194 -0.300004 -0.004880 0.341422 -0.325852 -0.206974 0.436341 0.341037 -0.309482 -0.750671 0.265494
he -0.212943 -0.947647 0.033896 -0.089483 -0.595933 0.403024 -0.574255 0.165465 0.252537 -0.380102 0.891658 0.358133 -0.353661 -0.150135 -0.617742 -0.343540 0.880252 0.084849 -0.771588 -0.419444 -0.141699 0.759538 -0.687638 0.310753 0.656714 0.156103 -0.387797 0.130122 -0.501375 0.197511 -0.065437 0.169101 -0.604318 -0.020815 -0.268844 0.026192 -0.120320 0.632235 -0.128824 0.404701 -0.166802 0.180302 0.211153 -0.683367 -0.057302 0.379082 -0.425474 0.241964 -1.063195 0.023076
did -0.633830 -0.698881 0.449275 0.509838 -0.837618 -0.317862 -0.696076 0.488659 -0.517749 -0.069875 0.358535 0.645157 -0.072629 0.445228 -0.011469 -0.731494 0.396998 -0.042696 0.008819 -0.256265 -0.403200 0.674328 -0.880865 0.138895 -0.406952 -0.089562 -0.531016 0.259734 0.180474 -0.140894 0.058624 0.067787 -0.784984 -0.062486 -0.615683 0.492198 -0.105181 1.284829 0.431973 0.581623 -0.310959 -0.678712 0.084511 0.083267 0.342327 -0.225212 -0.217224 -0.323487 -0.760913 0.623656
have -0.637235 -1.135479 0.213324 -0.037616 -0.963382 0.933138 -0.299817 0.455651 -0.321320 -0.083144 0.148638 0.605759 -0.533366 0.056107 -0.878102 0.022063 0.873009 0.179285 -0.387479 -0.250755 -0.845956 0.310528 -0.043162 -0.342247 -0.117038 0.469839 0.137896 0.410633 0.035576 0.331709 0.017479 -0.386042 -0.940876 0.231979 -0.575834 0.607678 -0.285512 0.418157 1.005937 0.567262 -0.478466 -0.211545 -0.383053 -0.081659 -0.137864 -0.425736 -0.610373 0.430156 -0.366909 0.336127
large -0.911148 -0.353736 0.284981 0.407472 -0.138593 -0.211367 0.021348 -0.259428 -0.676242 -0.533304 0.338859 0.690032 -0.703318 0.326017 -0.367384 0.326175 0.075362 0.431067 -0.233668 -0.207811 -0.230097 0.104064 -0.754337 -0.530887 0.405303 -0.416162 0.076634 0.271147 -0.288533 0.469326 0.908718 1.095639 -0.190090 -0.245778 -0.750693 0.264176 -0.332005 0.347364 -0.057664 0.375159 0.408639 -0.474377 0.112645 -0.363671 -0.159582 0.009578 0.123946 0.256235 -0.499638 0.312719
mustache -0.641675 -0.455364 0.228743 -0.219217 0.149207 0.375010 -0.254357 -0.102076 0.072567 0.274749 0.182973 -0.104323 0.083901 -0.083414 -0.490189 0.472160 0.437843 0.222189 -0.159601 -0.158888 -0.459086 0.622597 -0.372605 -0.304534 0.703212 -0.062526 0.052446 0.393962 0.439017 0.331361 -0.006793 0.364915 -0.003317 -0.334549 -0.470343 0.269718 -0.565744 0.358581 0.395679 0.530834 0.401350 -0.605185 -0.010685 0.040770 0.232635 0.262078 -0.340629 -0.309366 -0.479313 -0.442201
thin 0.033812 -0.662174 -0.033265 0.102303 0.154828 0.141315 0.016656 0.028773 -0.258445 -0.376227 0.064861 0.049852 -0.132480 0.683990 -0.299784 0.516526 0.507779 0.422570 -0.371970 -0.156222 -0.834257 0.128077 -0.593952 0.163103 0.209615 -0.227910 0.220474 -0.012602 -0.090836 -0.091280 0.632876 0.766622 -0.317308 0.082329 -0.429356 0.467888 -0.358817 0.230147 -0.158761 0.365422 0.043891 -0.866166 0.230172 -0.023445 -0.311980 0.101785 -0.208698 -0.042441 -0.303954 0.177729
blonde -0.325150 -0.311828 0.123713 -0.109957 -0.021425 0.104693 -0.075343 -0.033915 0.189179 -0.429189 0.515510 0.468836 0.108264 0.276466 0.326756 0.167264 0.232042 0.330063 0.054843 -0.178899 -0.181455 0.324388 -0.204852 -0.357521 0.285089 -0.211069 0.337143 0.542784 0.005842 0.103839 0.395137 0.248860 0.117405 -0.205788 -0.308158 0.227817 0.050841 0.469948 -0.296121 -0.160224 -0.129315 -0.268142 0.201261 -0.330460 -0.268369 0.228405 -0.140702 -0.161307 -0.557248 0.075224
had -0.407103 -0.872756 -0.571045 0.021216 -0.688804 0.358907 0.084701 0.346809 0.427080 -0.828355 0.128867 0.627644 -0.431131 0.028571 -0.351100 -0.173126 0.181323 -0.684296 -0.461039 -0.361004 -0.686016 0.429663 -1.029062 -0.322830 -0.558949 0.743093 0.404473 0.252375 -0.797841 -0.113211 -0.088736 0.302021 -0.081671 -0.531154 -1.162399 1.086895 -0.388348 0.539035 -0.144351 0.452252 -0.583714 -0.169612 0.142293 -0.276434 -0.411817 -0.062054 -0.394668 -0.167060 -0.600827 0.258896
nearly -0.436582 -0.335980 -0.306802 0.210655 -0.163174 0.569360 -0.518199 0.244907 -0.079030 -0.591532 0.065198 0.085972 -0.353690 0.210887 -0.555934 -0.295294 0.618355 -0.031309 0.122440 -0.427126 -0.583950 0.426986 -1.161140 0.341541 0.170387 0.516792 0.056696 0.364847 -0.216318 -0.018669 0.569853 0.416190 -0.431173 -0.417756 -0.399386 0.292408 -0.074343 0.375476 0.123475 0.371618 -0.323864 -0.504135 0.232715 -0.236008 0.018253 0.425782 -0.185231 -0.189176 -0.680336 -0.610702
twice -0.360071 -0.548996 0.268799 0.250285 -0.531099 0.275922 0.043311 -0.138133 -0.165554 -0.590100 0.449877 0.528464 0.019805 0.215700 -0.663955 0.306484 0.378646 0.059572 -0.323314 -0.413197 -0.252537 0.281038 -0.519554 0.322477 0.302762 0.390646 -0.056281 0.237906 -0.115771 0.064005 -0.046180 0.165022 -0.453586 0.118467 -0.342611 0.706544 -0.663832 -0.048773 0.079142 0.348556 -0.392877 -0.594707 0.001783 -0.625058 -0.355255 0.278569 -0.307842 -0.044107 -0.346125 0.282845
usual 0.157399 -0.660212 -0.131726 -0.045942 -0.153504 -0.071155 -0.723475 0.170965 0.108859 -0.538240 0.888695 -0.076582 -0.203127 0.356177 -0.543702 0.369759 0.565901 0.157709 -0.102036 -0.614129 -0.234326 -0.150840 -0.547489 -0.178467 0.160921 0.004949 -0.061821 0.698321 -0.210117 -0.058877 -0.111479 0.485565 -0.112316 -0.060783 -0.619831 0.410840 -0.589928 0.488982 0.042116 0.235277 -0.158922 -0.836344 -0.100719 -0.472349 0.106936 -0.105494 -0.257120 -0.171210 -0.876319 -0.298515
amount -0.257052 -0.850733 0.365640 0.222528 -0.300727 0.437991 -0.056474 0.031973 0.115016 0.381629 0.562127 0.208068 0.077951 0.360349 -0.426113 0.136701 -0.199052 -0.034511 -0.164912 -0.374715 0.150320 0.285391 -0.163356 0.136305 0.088790 -0.149912 0.208519 0.244376 0.061772 0.109928 0.095176 0.258274 0.144061 -0.346736 0.085319 0.378590 -0.478780 -0.094867 0.106987 -0.270734 0.047771 -0.430048 -0.106498 0.082078 0.047248 0.116431 -0.045136 -0.050970 0.075554 -0.062154
came -0.269366 0.019160 -0.068458 0.548333 -0.367072 -0.005622 -0.287431 0.043983 -0.127390 -0.505501 0.083661 0.648665 -0.381722 -0.562806 -0.421948 -0.273273 0.420156 0.409659 -0.490077 -0.146739 -0.102544 0.198775 -0.865006 0.166119 0.317180 0.342082 0.577496 0.481242 -0.359208 0.411023 0.166269 0.458287 0.377692 -0.053509 -0.991758 0.687304 -0.150081 0.623506 0.074655 0.078061 -0.022099 -0.765263 0.211399 -0.073826 0.091071 0.192295 -0.080781 -0.410165 -0.863466 -0.128009
useful -0.540682 -0.943474 -0.046379 0.349731 -0.383630 0.221068 -0.294498 0.241594 -0.511133 -0.233948 0.199164 0.488446 -0.155285 0.305747 -0.166430 0.237752 0.219915 -0.009063 -0.024780 -0.905712 -0.511797 0.222690 -0.608316 0.139775 0.124176 -0.239864 0.111982 0.080288 0.075706 -0.010950 0.056093 0.033689 -0.448131 0.618259 -0.262446 0.500973 -0.347576 0.447804 0.191004 -0.026211 -0.507478 -0.432219 -0.170739 -0.309375 -0.124388 0.135761 -0.347569 -0.367818 -0.622979 0.323598
as 0.224325 0.183863 0.719398 0.185938 -0.199743 0.167151 -0.223996 0.098233 0.462309 -0.242987 0.828413 -0.001021 -0.594555 0.029759 -0.362996 -0.002419 1.095779 0.276766 -0.209286 -1.017664 -0.486369 0.820967 -0.621296 0.420512 0.295210 -0.482083 -0.157649 0.432808 -0.137537 0.445683 0.638208 0.277279 -0.467739 -0.131700 -0.565532 0.700078 -0.782715 0.788977 -0.080182 -0.444558 -1.022603 -0.379286 -0.069186 -0.464372 0.105365 -0.470918 -0.809210 0.042393 -1.362101 -0.297275
she -0.245802 -0.781988 0.272136 0.199377 -0.451552 0.062967 -0.176558 0.392308 0.502606 0.136910 0.595056 0.512305 -0.311555 0.065185 -0.489553 -0.228372 0.733200 0.346902 -0.421453 -0.393407 -0.383688 0.394796 -0.713845 -0.042854 0.519039 0.757028 -0.299956 0.511105 -0.743383 -0.060279 0.121236 0.697468 -0.378292 -0.221129 -0.693511 -0.189817 -0.034660 0.086877 0.099426 0.020966 -0.635859 -0.141891 0.279211 -0.320681 0.054233 0.288955 -0.736514 -0.388360 -1.042221 -0.564294
spent -0.108016 -0.669679 -0.364633 0.150614 0.006225 0.388098 0.134483 0.125963 -0.068330 -0.510544 -0.035364 -0.306157 -0.028679 0.221738 -0.423362 0.406414 0.410218 0.241337 -0.284680 -0.291146 -0.473676 0.583235 -0.774050 0.081751 0.415667 -0.287271 0.167921 0.328074 -0.253773 0.153707 0.475034 0.465583 -0.476025 0.209488 -0.696180 0.289028 -0.245276 0.447657 0.398290 0.384886 -0.118838 -0.711030 -0.117540 -0.279783 -0.450271 0.141919 0.108959 -0.106848 -0.345417 0.153638
so -0.281687 -0.830760 0.253160 -0.001902 -0.331417 0.465873 -0.181000 0.252370 0.276898 -0.151629 0.289371 -0.199394 -0.327897 0.159972 -0.645765 -0.368178 0.621005 0.465526 -0.340941 -0.594869 -0.837273 0.333892 -0.648884 0.087584 0.126833 0.414906 0.139783 0.069009 -0.288491 -0.453442 0.674254 -0.033276 -0.628403 0.705298 -0.427035 0.850545 -0.402536 0.522636 -0.243266 0.765470 -0.573562 -0.364627 -0.029992 -0.392163 -0.187949 0.687327 -0.679264 0.423241 -0.594113 0.326379
her -0.073002 0.037521 -0.352854 0.229285 -0.689605 -0.378488 -0.068679 -0.488170 0.243205 -0.364816 0.522627 0.570589 0.188576 -0.066082 -0.655529 -0.144017 0.234572 0.395988 0.156375 0.009869 -0.459284 0.242707 -1.161821 -0.102490 0.694629 0.333880 -0.364282 0.052901 -0.011907 0.580504 0.618965 0.789111 -0.109751 0.158779 -0.704174 1.181457 0.049495 -0.106683 0.387415 -0.247460 -0.526192 -0.264760 0.218167 -0.988114 -0.259641 0.526253 -0.064752 -0.472764 -1.163561 0.253150
time 0.105835 -0.683934 -0.152553 0.324426 0.098672 0.502042 -0.938596 0.596843 0.145211 -0.420563 0.203272 0.426433 -0.317110 0.293303 -0.174417 0.291963 -0.080880 -0.216415 -0.253169 -0.386123 -0.072682 -0.030410 -1.242190 0.458994 0.373713 0.242321 -0.282656 0.503190 0.111474 0.632170 -0.459738 0.515413 -0.206491 0.116282 -0.754769 0.310216 -0.540519 0.399660 0.638868 0.452210 -0.184086 -1.050878 0.110741 -0.335322 -0.048817 0.605771 -0.229776 -0.001756 -0.701361 -0.155768
craning -0.617483 -0.416476 0.340227 0.436180 -0.357154 0.392056 -0.200510 0.284721 -0.484184 0.029714 0.098514 0.146868 -0.262471 -0.119618 -0.151884 0.188817 0.394660 -0.361784 -0.041527 -0.451628 -0.691583 0.165545 -0.642566 0.254208 0.016830 -0.101692 0.022564 0.161427 -0.193592 -0.147579 0.073219 0.419729 -0.283246 0.193955 -0.372276 -0.132481 0.427085 0.171702 0.537131 0.113888 -0.134918 -0.408380 0.572411 0.379320 0.003787 0.292528 -0.223357 0.009169 -0.492909 -0.103965
over 0.173735 -0.149353 0.410989 0.169111 -0.433707 -0.533129 0.203630 -0.174002 0.061509 -0.532419 0.873555 0.178441 0.197239 0.287499 -0.536588 -0.248016 0.398148 0.289367 -0.609049 -0.117853 -0.902206 1.289154 -0.833686 -0.439246 0.226997 -0.457839 0.546124 0.846500 -0.570473 -0.174000 0.627300 -0.032300 -0.510617 0.161154 -0.508095 0.368172 -0.092590 0.129449 -0.285422 -0.332052 -0.815092 -0.519194 -0.284259 -0.421492 -0.849339 0.479684 -0.136666 -0.665957 -0.422504 -0.072075
garden -0.184808 -0.100760 0.314955 0.056807 -0.494087 0.476547 -0.222903 -0.106526 0.068912 0.514882 0.456179 0.071152 0.436741 0.134941 -0.314665 0.189371 0.547398 -0.030406 0.173421 0.137565 -0.301200 0.193580 -0.189355 -0.095624 0.487023 -0.006633 0.297577 0.779661 -0.036440 0.490453 -0.162917 0.366176 0.285657 -0.342068 -0.375648 0.329367 0.028321 0.574793 0.068835 0.384100 0.003891 -0.562481 0.342398 0.018209 -0.454293 0.516937 -0.254614 -0.300856 -0.847313 0.275857
fences -0.265684 -0.448561 -0.169510 0.411400 -0.543029 0.130061 -0.360501 -0.297080 -0.620503 0.035229 0.459916 0.180258 -0.205663 0.488553 0.299271 0.322730 0.470528 -0.034670 -0.360609 -0.155405 0.086615 -0.238392 -0.345815 -0.050845 0.250138 0.031527 0.282087 0.013316 0.205199 0.465445 0.281496 -0.070704 -0.043565 -0.075203 -0.291073 0.278361 -0.060906 -0.059887 0.210141 0.335359 -0.173907 -0.219014 -0.357285 0.430980 0.219309 0.017651 -0.123646 -0.234619 -0.451940 0.114626
spying -0.284636 -0.236986 0.165686 -0.231117 -0.435340 0.210665 0.153756 -0.118666 0.096937 -0.346824 0.516352 0.229903 0.137904 -0.005299 -0.717551 0.144514 0.478067 0.572881 -0.252427 -0.098531 -0.333032 0.476447 -0.505350 -0.005651 0.242686 0.207770 -0.033461 0.537732 0.080152 -0.150872 0.118935 0.005463 0.117130 -0.115855 -0.336790 0.603943 -0.163376 0.484446 0.097322 0.258794 0.546167 -0.578884 -0.092491 -0.298975 -0.029209 0.451816 0.030835 0.203307 -0.285234 0.034939
on 0.014818 -0.292198 0.598131 0.281421 -0.294099 -0.001419 -0.134634 -0.148711 0.062741 -0.825511 0.279813 0.518151 -0.167966 0.091873 -0.289567 -0.028743 0.571022 0.676046 0.230555 -0.063626 -0.597792 0.968134 -1.431440 -0.160258 0.005013 -0.355328 0.296980 0.262494 -0.538614 0.157549 0.041711 0.548822 0.000807 -0.309080 -0.275345 0.250392 0.285163 -0.177976 0.449638 -0.085678 0.322626 -0.217358 0.245748 -0.885213 -0.550812 0.604237 -0.555453 -0.437663 -0.238336 0.177580
neighbors -0.192691 -0.166339 0.025187 0.499921 -0.748078 0.170287 -0.086310 -0.242164 0.146161 -0.139916 0.377524 0.236976 0.192270 0.512575 0.085449 0.764817 0.645022 0.564767 0.046377 -0.165954 0.019558 0.109217 -0.426426 0.053529 0.001169 0.424935 -0.413647 0.410559 -0.380253 0.050337 -0.180054 0.342790 0.152894 0.158272 -0.377802 0.651768 -0.204379 0.432652 -0.010511 0.307994 0.467113 -0.533435 -0.151830 -0.465134 0.184011 0.434386 0.022568 0.134377 -0.242676 0.096491
The -0.964567 -0.083890 0.559637 -0.046816 -0.510640 -0.155851 -0.452244 0.136767 0.837678 -0.953395 0.074855 0.237100 0.107395 0.835200 -0.319993 0.784850 0.216978 0.589228 0.449862 0.748616 -0.267572 0.384038 -0.524110 -0.040556 0.035985 0.160410 0.380687 0.236535 -0.505993 0.389603 0.910901 0.690672 -0.576489 0.187242 -0.575006 0.027228 0.585697 0.727039 -0.494880 0.105442 -0.534738 -0.137697 0.055402 -0.596648 -0.314802 0.305344 0.092103 0.165773 -0.932092 0.235854
Dursleys -0.313359 -0.774444 0.157859 0.128602 -0.350898 0.350449 -0.003447 0.629925 -0.209539 -0.166265 0.521542 0.272821 0.053032 0.522826 -0.632880 0.634305 0.216399 -0.235219 -0.267243 -0.418531 -0.381970 -0.004914 -0.632347 0.194676 0.309913 1.046228 -0.296505 0.574722 -0.624911 -0.162047 0.335895 0.187098 -0.177795 0.186380 -0.603417 0.213488 -0.178921 0.164407 -0.277587 0.625933 0.026959 -0.547935 0.241493 0.163601 -0.081542 0.263606 0.127419 -0.438172 -0.787046 0.347781
small -0.595851 -0.246182 0.360435 -0.209116 -0.154959 0.296949 -0.014953 0.076487 -0.119847 -0.356487 -0.070424 0.281273 -0.290595 0.026096 -0.398462 0.384827 0.429682 0.320098 -0.214069 -0.303649 -0.096837 -0.015318 -0.800163 0.046203 0.401676 -0.032349 0.059303 0.321615 0.096586 0.422107 0.476467 0.842851 -0.032289 -0.376490 -0.725183 0.534475 -0.448256 0.163158 -0.451712 0.409355 -0.133391 -0.424224 -0.126399 -0.533170 -0.408635 0.228776 -0.291600 -0.147114 -0.490719 -0.123951
son -0.229271 -0.147835 0.156667 0.124954 -0.340886 0.292014 -0.520786 0.253307 -0.184205 0.217232 -0.035709 0.638832 0.024102 -0.018696 -0.222656 0.152977 0.455696 -0.013980 -0.602424 0.004740 -0.210529 0.553090 -0.546913 -0.144877 0.521059 0.015732 0.400542 0.163934 -0.488617 0.142055 0.008027 0.198638 -0.897502 -0.266628 -0.524449 0.271385 0.050838 0.316592 0.386734 0.374360 0.027559 -0.692609 0.423054 -0.264594 -0.123100 0.196592 -0.273072 -0.390928 -0.254655 0.066010
Dudley 0.176964 -0.743104 0.436464 0.527441 -0.165150 0.319385 -0.361836 -0.030874 -0.016898 -0.364631 0.092424 0.444430 0.025239 0.193106 -0.583090 0.394276 0.008723 -0.022165 -0.505085 -0.156909 0.065411 0.340886 -0.878318 0.511982 0.621757 0.502083 0.143877 0.359279 -0.412161 -0.378908 0.083165 0.506894 -0.585915 -0.452992 -0.785264 0.050487 -0.300156 0.477362 -0.145697 0.414349 0.127781 -0.249818 -0.071286 0.034383 -0.187115 0.588116 -0.352929 0.263490 -0.614100 0.382361
their -0.464778 -0.457657 -0.405609 -0.289289 -0.705323 -0.484988 0.242334 0.135578 0.269096 -0.506183 0.883732 0.711847 0.094601 0.088621 -0.389294 -0.641413 0.193717 0.692038 0.357472 0.170704 -0.236404 -0.419341 -1.247089 0.126874 0.480897 -0.477259 0.181731 1.574356 -0.312601 0.168814 0.635752 0.615554 -0.119515 0.038270 -0.459604 0.323810 -0.403409 0.335106 -0.127730 0.057709 -0.531354 -0.485325 0.015496 -0.348469 -0.268744 0.778399 -0.130159 0.181322 -0.916700 -0.062292
opinion -0.388632 -0.113798 -0.272011 0.005121 -0.388318 -0.239053 -0.068439 0.145423 -0.153428 -0.387877 0.474672 0.164134 -0.300801 0.027761 -0.568119 0.124580 0.292234 0.291208 -0.030822 -0.064426 -0.398712 0.004639 -0.579075 -0.197834 0.611629 0.164845 -0.142932 0.443130 0.346212 0.475166 0.329211 0.118538 -0.124349 -0.219269 -0.334093 0.523207 -0.274787 0.073285 0.029615 0.315926 0.114433 -0.424650 -0.103237 -0.252633 -0.608360 0.077631 -0.469396 -0.622849 -0.661543 -0.173496
there -0.468706 -0.618927 0.504100 0.110628 -0.591944 0.033930 0.004737 0.229523 -0.467270 -0.455030 -0.190675 0.190257 -0.175934 0.178013 -0.642617 0.109804 0.607974 0.603692 0.053316 -0.165968 -0.177240 0.284030 -0.735420 0.316227 0.217116 0.495787 -0.133808 0.390970 0.265451 0.045501 -0.464636 0.450526 -0.617544 0.504019 -0.299080 0.278885 -0.425073 0.280443 -0.027165 1.050046 -0.686696 -0.467095 0.151229 -0.488775 -0.525197 0.194925 -0.482529 0.032559 -1.078963 -0.573219
no -0.708506 -0.117050 0.912345 -0.395380 -0.813540 -0.323499 -0.477542 0.851770 -0.723709 -0.432231 0.254888 0.188562 0.426315 0.046206 -0.611992 0.953619 -0.092194 0.424749 -0.511744 0.043077 -0.112036 0.320954 -0.932656 -0.040019 0.169395 0.427235 0.419829 0.186168 -1.019866 0.000973 -0.184138 0.537951 -1.132359 -0.191671 0.070361 0.356112 -0.390215 0.777628 0.119160 0.526543 -0.939203 -0.471851 0.402023 0.119150 -0.601493 0.727242 -0.315061 0.104335 -1.129456 -0.296858
finer -0.250755 -0.386133 0.130099 -0.204133 -0.002967 -0.494657 -0.374678 -0.023705 0.034722 0.107044 0.471091 0.250586 0.420867 0.184744 -0.178729 0.258464 0.634440 -0.336264 -0.406639 0.196000 -0.454579 0.538749 -0.551134 -0.116545 0.283521 -0.071519 -0.118503 0.039564 0.108206 0.361133 0.614544 -0.214257 0.079358 -0.198152 -0.355824 0.258870 0.159044 0.060391 0.329426 0.422283 -0.288836 -0.236039 -0.268945 0.407970 -0.509708 0.628506 -0.331153 -0.174737 -0.165243 -0.057768
boy -0.280722 -0.185481 0.802191 0.194046 -0.046472 0.502329 -0.269088 0.613359 -0.138884 -0.064948 0.394490 0.339951 0.373810 0.191446 -0.349954 0.429815 0.288839 0.276815 0.029656 -0.047707 -0.493378 0.896075 -0.166047 0.389175 0.576623 0.369371 -0.322568 1.001688 -0.092910 0.512876 0.127339 0.257912 -0.500796 0.130472 -0.671145 0.498317 -0.271796 0.465476 0.039366 0.233020 0.154765 0.092360 0.216511 0.018690 -0.089895 0.266981 -0.033407 -0.653390 -0.383302 0.116875
anywhere -0.755703 -0.216808 0.283775 0.352268 -0.158852 0.254500 0.073418 0.380019 -0.151904 -0.051849 -0.021974 -0.150858 -0.089723 -0.166673 -0.156299 0.194159 0.694039 0.097442 -0.134225 -0.318029 -0.406709 0.324307 -1.107311 0.080595 0.199228 -0.066133 0.052694 0.250467 -0.077723 0.210613 0.139702 0.177903 -0.492726 -0.008173 -0.383775 0.132968 -0.379704 0.309606 0.283974 0.392203 -0.161726 -0.254748 -0.116384 -0.484361 -0.527437 0.339956 -0.128122 -0.575836 -0.841604 0.024672
everything -0.410568 -0.738931 -0.109301 0.308000 -0.561941 -0.445257 -0.368824 0.095194 -0.182935 -0.137816 0.282052 0.605471 0.122041 0.058628 -0.384478 0.475941 0.769148 0.089042 -0.533512 -0.278761 -0.349756 0.343570 -0.562301 0.511659 0.151142 0.190906 -0.040363 0.447017 -0.140305 0.086673 0.500274 0.449692 -0.631796 -0.278351 -0.229401 0.259523 -0.426368 0.442853 0.198107 0.671001 -0.081239 -0.330373 -0.091856 -0.334723 -0.442820 0.457904 -0.036566 -0.154441 -0.837343 0.287319
wanted -0.571637 -0.642512 0.109587 0.333552 -0.167802 0.192769 -0.201298 0.425041 -0.511630 -0.382666 -0.056269 0.541485 0.182369 0.101053 -0.273826 0.198659 0.106424 0.182831 -0.550140 -0.204027 -0.798386 0.361096 -1.036878 -0.181769 -0.358894 0.195229 0.068057 -0.356729 -0.312386 0.330274 0.449654 -0.391233 -0.742581 -0.258683 -0.367769 0.195199 -0.475738 1.083880 -0.241896 0.704206 -0.247462 -1.144815 0.305898 -0.414759 -0.211509 0.633546 0.057637 0.032423 -1.021093 0.574210
but -0.262838 -0.309867 0.485020 -0.078113 -0.765233 0.071170 -0.652599 0.362694 0.319701 0.130885 0.266194 0.149980 -0.505506 -0.094697 -0.548985 0.407942 0.364803 0.457234 0.000378 -0.154405 -0.128811 0.449865 -0.601260 0.132007 0.246989 0.453696 -0.338015 0.237154 -0.826534 -0.229242 0.441173 0.176686 -0.638617 -0.232429 -0.489341 0.773822 -0.191466 0.431062 0.366777 0.294297 -0.225914 -0.716493 -0.073331 -0.643611 -0.416979 0.256047 -0.022624 -0.146851 -0.255601 -0.139171
also -0.080667 -0.560095 -0.154914 -0.088314 -0.251668 0.252182 -0.124794 0.302779 0.003309 -0.175705 0.598050 0.241812 0.003880 0.163259 -0.234301 0.225260 0.538022 0.498710 -0.012787 -0.480543 -0.406570 0.510669 -0.789506 -0.243767 -0.471703 0.325499 0.029007 0.125581 -0.270133 0.120767 0.248346 0.176030 -0.472737 -0.234291 -1.144603 0.488174 -0.361196 0.424209 0.118329 0.335870 -0.298456 -0.524587 0.331669 0.040937 0.013109 0.332498 0.070109 0.112267 -0.700140 0.211057
secret -0.122188 -0.868952 0.722088 0.126271 -0.412923 0.460823 -0.003126 0.488282 -0.329256 -0.233556 0.249218 0.241678 0.077328 -0.079303 -0.019585 0.070444 0.653712 0.332882 -0.108846 -0.610416 -0.570938 0.517921 -0.755472 0.067745 -0.122368 0.013730 0.199437 -0.380353 0.106185 0.265481 0.141005 0.307954 -0.522539 -0.266147 -0.818119 -0.205430 -0.054269 0.348580 0.416431 0.463311 0.000127 -0.226311 0.565339 -0.233951 -0.622969 0.428916 -0.102174 0.138858 -0.798146 -0.213114
greatest 0.312736 -1.097514 0.530146 0.182865 -0.546497 0.289175 -0.042677 -0.144624 -0.185673 0.021390 0.394149 -0.126916 0.401955 0.090252 -0.084156 0.356541 0.405894 -0.076061 0.062882 -0.249353 -0.240690 0.139217 -0.673933 -0.020451 0.512481 -0.136319 0.318761 0.626517 0.308940 0.583041 0.440762 0.359070 -0.059369 -0.037608 -0.313766 0.201007 -0.256667 0.263275 0.011181 -0.032536 -0.134042 -0.298457 0.032014 -0.108115 -0.375526 0.121482 0.492611 -0.154307 -0.597296 -0.084319
fear -0.272507 -0.670848 0.099971 0.033003 -0.500477 0.173316 0.226013 0.005563 0.415482 0.169786 0.611679 0.422272 0.442423 0.087758 -0.612359 -0.072034 0.720579 -0.054444 -0.327715 -0.187658 -0.568272 0.388879 -0.883038 0.052693 0.437622 0.260799 0.082771 0.000455 -0.594865 0.257710 0.451045 0.561918 0.235816 -0.091981 -0.310457 0.263347 -0.157325 0.349110 -0.288810 0.463810 0.069446 -0.873280 0.169253 0.447483 0.191626 0.492866 0.300884 -0.429753 -0.600183 -0.341074
somebody -0.048523 -1.074895 0.088022 0.056470 -0.582059 0.151552 0.000442 0.176768 -0.044499 -0.463547 0.041912 0.256913 0.009232 0.137715 -0.174539 0.297609 0.575882 0.459234 -0.033954 -0.305823 0.402340 0.390504 -0.576226 -0.036512 0.217513 -0.225730 0.362114 0.347928 -0.185138 0.130830 0.127916 -0.120417 -0.193892 -0.037155 0.038499 0.379162 -0.335939 0.601064 0.348575 0.197101 -0.247388 0.025897 0.284439 -0.037047 -0.135970 0.368091 0.008778 -0.240513 -0.329218 0.164148
would -0.227048 -1.086702 0.068176 0.099382 -0.775802 0.113112 -0.258584 0.717311 0.226209 -1.060188 -0.053906 0.593299 -0.496359 0.114781 -0.151347 -0.015741 0.591916 0.495974 -0.176099 -0.795756 -0.827255 0.641134 -0.623173 -0.418417 0.147861 0.685038 -0.586201 -0.114714 0.073541 -0.391610 0.321464 -0.261789 -0.457049 -0.110527 -0.574237 -0.061432 -0.233452 0.368360 0.468410 0.339418 -0.490868 -0.246534 -0.283178 -0.304833 -0.498197 0.322576 -0.305182 -0.481409 -0.759562 0.223239
discover 0.131829 -0.333429 -0.047401 0.091398 -0.719511 0.155702 -0.134124 0.649338 -0.314385 -0.201647 0.058116 0.357508 -0.149042 0.334960 0.146263 0.029195 0.163206 0.307325 0.046626 0.181976 0.248180 0.185292 -0.370863 -0.059935 -0.014495 -0.110854 0.425497 0.015987 -0.300291 0.383170 0.239018 0.110947 0.109622 0.072847 -0.456876 0.611262 -0.075306 0.129357 -0.170147 0.158336 -0.259817 0.027667 0.022261 -0.010355 -0.235629 -0.044525 0.158031 0.138731 0.069644 0.232391
it -0.375184 -0.669947 0.896167 0.164806 -0.828953 0.098210 -0.467052 0.546690 -0.236905 -0.493282 0.761890 0.058480 -0.019258 -0.360305 -0.951733 0.385854 0.560621 0.239510 -0.489023 -1.007876 -0.518461 0.484496 -0.838361 0.177335 0.254950 0.567278 -0.243251 -0.188103 -0.603167 0.432574 0.066836 -0.122040 -0.726788 -0.630922 -0.582982 0.256546 -0.266224 0.411846 -0.068104 0.318343 -0.072478 0.021812 -0.198269 -0.658211 -0.447028 -0.048701 -0.402908 -0.296660 -0.131700 -0.162998
think -0.554913 -1.254088 0.602607 0.200069 -1.031609 0.384837 -0.343271 0.862007 0.045822 0.040216 0.294601 -0.212635 -0.086375 -0.122742 -0.455994 0.007229 0.808971 0.513919 -0.465040 0.127477 -0.603705 0.958619 -0.378151 0.247383 0.077917 0.270298 0.126310 -0.342027 -0.607883 0.401400 0.415979 -0.357484 -1.103089 0.270860 -0.327696 0.295007 -0.698414 0.375432 0.374614 0.588513 -0.269359 -0.795551 0.313054 -0.792676 -0.541012 0.514198 -0.232599 -0.357078 -0.336468 -0.118108
could -0.270228 -1.331485 0.131169 0.117799 -0.888280 -0.493035 -0.113589 0.823838 0.110273 -0.457878 0.241542 0.109227 -0.239907 -0.000574 -0.849932 -0.463888 0.642998 -0.320561 -0.427619 -0.857806 -0.282679 0.753428 -0.833182 0.214447 -0.213715 0.069976 -0.706166 0.409692 -0.140776 -0.039716 -0.250939 0.036289 -0.077712 -0.054688 -0.310796 0.085171 -0.973821 0.881926 0.583861 0.696118 -0.252489 -0.530395 0.047885 0.160830 -0.233449 0.130473 0.015908 -0.474127 -0.887524 0.596808
bear -0.230514 -0.357908 0.255630 -0.420616 -0.466068 -0.064701 -0.293002 0.066780 -0.186363 0.155330 0.364424 0.061522 -0.057824 0.134869 -0.462313 0.159771 0.397987 0.397826 -0.377489 -0.361325 -0.153488 0.469006 -0.359615 -0.258682 0.461736 0.192893 0.353561 0.503511 0.104679 0.543291 0.344842 0.179442 -0.406092 -0.077795 -0.086789 0.408315 -0.084652 0.680545 0.334342 0.653013 -0.253671 -0.387403 0.148826 -0.570694 -0.271681 0.539495 -0.166058 0.152733 -0.548543 -0.121535
if 0.083945 -0.577307 0.126913 -0.005672 -1.017528 -0.031753 -0.731403 -0.005117 -0.285528 -0.638730 0.082609 0.393045 0.548985 0.396206 -0.438134 -0.173929 0.892002 0.189362 -0.499843 -0.766947 -0.801046 0.336004 -1.297671 0.857654 0.017504 -0.180936 -0.055010 0.178581 0.066536 0.203814 0.735464 0.061981 -0.933038 0.414579 -0.139387 0.943350 -0.689750 0.694727 0.233578 -0.000478 -0.670933 -0.215755 -0.138261 -0.528631 -0.429352 0.260083 0.040654 0.127324 -0.673173 -0.283535
anyone -0.293908 -0.771959 0.399933 -0.368371 -0.754099 0.226281 -0.286449 0.493871 -0.148983 -0.247070 0.634387 0.695775 -0.090514 0.389388 -0.943370 0.094451 0.797284 0.227231 -0.539370 -0.597131 -0.572569 0.270088 -0.856929 0.241697 0.468118 0.643567 -0.113671 -0.021006 -0.410826 0.140518 0.246973 0.045992 -0.968817 -0.025670 -0.023565 0.353042 -0.424059 0.650607 -0.203893 0.549312 -0.776334 -0.199693 -0.094509 -0.056075 -0.173642 -0.056551 -0.182209 -0.215016 -0.925590 0.386932
found -0.443750 -0.949239 -0.471546 0.400610 -0.690944 0.330714 -0.507012 0.592614 0.222032 -0.804205 -0.170037 0.579996 -0.206125 -0.004124 -0.351343 0.156355 0.754956 0.647983 -0.183757 0.074575 -0.489242 0.432579 -0.515473 0.557741 -0.027171 0.069411 0.644016 0.277404 0.248857 0.280029 0.026585 0.408642 -0.387377 0.028695 -0.766769 0.220328 -0.744008 0.758157 0.427188 0.581760 -0.002452 -0.368251 -0.041931 -0.717334 0.199564 0.165604 -0.013738 -0.385256 -0.783629 0.375769
out -0.166025 -0.733884 0.284268 0.458903 -0.245686 0.462573 -0.228198 0.434704 0.319534 -0.513691 0.179234 0.732012 0.049055 0.111967 -0.184108 -0.063626 0.647973 -0.075563 -0.779760 -0.389242 -1.044024 0.265292 -0.206376 -0.417670 0.350199 -0.034132 0.334532 -0.070259 0.106176 0.205040 1.029071 0.482021 -0.555703 -0.914024 -0.167288 0.551419 -0.262511 -0.199243 0.224064 -0.060481 -0.915895 -0.632159 0.340470 -0.594962 -0.312847 0.564661 -0.366789 0.094931 -0.758596 0.012716
about -0.256402 -0.624726 0.425156 0.161046 0.045114 -0.252387 -0.509430 0.380003 0.263865 0.321433 0.475728 0.469715 -0.375074 1.026553 0.361715 -0.553945 0.972364 0.329184 0.056854 -0.113755 -0.952307 0.108287 -0.869556 0.013261 0.320331 0.129252 -0.263285 0.497836 -0.118491 0.231585 -0.108250 0.808894 -1.027443 0.149618 -0.130364 0.517645 -0.017004 0.587707 0.275401 0.438281 0.033157 -0.706756 -0.180630 -0.533037 0.283627 0.164620 -0.792230 -0.595329 -0.147770 0.184457
Potters -0.048896 -0.616618 -0.091539 0.569375 -0.234792 0.263731 0.002854 0.335495 -0.260401 -0.275987 0.411640 0.108445 -0.440143 0.395417 -0.135831 -0.046744 0.123097 -0.275504 -0.001981 -0.165159 -0.013580 0.460536 -0.847074 0.009812 0.482404 0.415968 -0.105653 0.205853 -0.011132 0.056685 0.298298 0.289052 -0.895504 -0.092372 -0.547160 0.236036 -0.033264 0.724635 0.226403 0.430318 0.268295 -0.487296 0.216107 -0.196364 -0.125314 0.252985 -0.317578 -0.501783 -0.654811 0.260246
sister -0.045724 -0.626042 0.054757 0.005573 -0.213857 0.137779 -0.242067 0.156604 -0.160702 -0.264121 0.649211 0.173557 -0.524223 0.329615 -0.342009 0.211712 -0.026026 0.123804 -0.087038 -0.256950 -0.532293 0.119715 -0.443322 -0.173823 0.092286 -0.026116 0.284804 0.252294 -0.367520 0.131685 0.185001 0.234568 -0.253175 -0.079445 -0.836181 0.254666 -0.299186 0.722324 0.219599 0.593105 -0.152927 -0.550048 -0.329382 0.056299 -0.206269 0.498884 0.071406 -0.123622 -0.422530 0.179976
hadnt -0.049578 -0.665884 -0.257874 -0.416960 -0.842789 0.296385 -0.424507 0.245822 0.008481 -0.306305 0.372207 0.536342 -0.236948 0.287847 -0.680372 -0.344520 0.771136 -0.304967 -0.517990 -0.398642 -0.852590 0.255635 -1.254888 -0.183871 -0.389221 0.862361 0.238106 0.116005 0.059842 -0.037725 0.302374 0.072114 -0.151095 0.005658 -0.847922 0.335596 -0.491376 0.660823 -0.178055 0.322287 -0.565503 -0.362229 -0.051929 -0.290301 -0.264605 0.105186 -0.337094 -0.312900 -0.906684 0.822408
met -0.204746 -0.623062 -0.109483 -0.042120 -0.764807 0.211348 -0.375096 0.446758 0.239990 -0.414744 0.212647 0.100411 -0.667559 -0.317980 -0.473354 0.012699 0.392545 0.165786 -0.422510 0.169422 -0.749645 0.087891 -0.920458 0.189951 0.320533 0.204128 0.369896 0.334658 -0.455465 0.201467 -0.223153 -0.166548 -0.491105 -0.220048 -0.631483 0.935697 0.025552 0.267327 0.328326 0.703749 -0.305168 -0.494492 0.516709 -0.149798 -0.112198 0.064639 0.293853 -0.305178 -0.938819 0.166689
for -0.399950 -0.701125 0.164761 -0.295168 -0.232667 0.348647 -0.392967 0.757327 -0.201793 -0.431087 0.153871 0.613145 -0.505470 0.155740 -0.262272 -0.110248 0.615277 0.198484 0.540260 -0.426649 -1.026453 0.609627 -1.313041 -0.216129 -0.664282 -0.198813 0.264109 0.348185 -0.351373 0.370648 -0.017067 0.437703 0.071608 0.090577 -0.974919 -0.311662 0.246940 0.441530 -0.327695 0.392347 -0.649562 -0.411388 -0.002916 0.119415 -0.850375 0.249353 -0.048629 0.075287 -0.235751 -0.699993
several -0.699084 -0.613802 0.241617 -0.084082 -0.207934 -0.057476 0.144907 -0.131285 -0.169705 -0.147449 0.192965 0.301228 -0.142791 0.033977 -0.243832 0.117865 0.468094 0.004148 0.145044 0.128007 0.030206 0.122104 -0.578513 -0.190659 0.270429 -0.055876 -0.045719 0.125150 0.093803 0.229523 0.408042 0.373151 -0.125838 -0.834740 -0.642601 0.688015 -0.324283 0.268049 0.175802 0.321108 0.003585 -0.364149 0.060495 0.065867 -0.468572 0.306111 -0.401903 -0.192047 -0.491218 0.189638
years -0.264211 -0.920607 -0.041399 0.072772 0.014749 0.451766 -0.815781 0.709398 -0.029968 -0.314329 -0.289357 0.443211 -0.428021 -0.142589 -0.118887 -0.019634 0.545186 -0.180066 0.200671 -0.120839 -0.012359 0.155968 -1.351390 -0.017986 0.330448 0.347506 -0.262750 0.568346 -0.272446 0.878031 -0.294969 0.271784 -0.203024 -0.162269 -0.528950 0.201039 0.184523 0.470226 0.507926 0.017309 -0.034620 -0.676529 0.200180 -0.158653 -0.425950 0.222053 -1.107297 -0.012297 -0.341601 -0.200842
fact 0.044738 -0.329554 0.216034 -0.345090 -1.053719 -0.068069 -0.307606 0.238587 -0.047951 -0.182513 -0.179029 0.157271 -0.188647 0.521350 -0.377029 0.487863 0.271759 0.308368 0.168536 -0.345722 -0.578816 0.178496 -0.804537 -0.279439 0.387055 0.348257 -0.069815 0.369958 0.016679 0.333659 0.119530 0.077037 -0.092909 0.009115 -1.056899 0.582513 -0.127906 0.067145 0.364406 0.965553 -0.124072 -0.334091 -0.033488 -0.810142 -0.159370 0.094797 0.413402 0.018462 -0.491772 0.103136
pretended 0.141843 -0.399442 0.227816 0.010834 -0.124988 -0.060115 -0.017845 -0.038256 0.221208 -0.314983 0.351432 0.290509 -0.197819 0.474772 -0.020275 0.206592 0.418838 -0.472001 -0.401482 -0.201144 -0.288746 0.474869 -0.031004 0.069519 0.460072 0.314035 0.262246 -0.220477 -0.568440 0.286244 0.303412 -0.242225 -0.300823 -0.034717 -0.116947 0.366772 -0.563014 0.727168 -0.031018 0.130143 -0.006564 -0.213455 -0.313865 0.148533 -0.872889 0.177023 -0.140681 -0.325819 -0.783852 0.113720
goodfornothing -0.060591 -0.128918 0.054948 -0.031261 0.065301 0.163219 0.254042 0.291933 -0.019170 -0.069515 0.089130 -0.021706 -0.287925 0.302774 -0.130816 -0.719885 0.066617 -0.180677 -0.255110 -0.278197 -0.416957 -0.006424 -0.818747 0.082082 0.196158 0.221210 -0.111559 0.417579 0.184509 0.091510 0.228248 -0.023194 -0.241698 0.241979 -0.436313 0.379478 0.161993 0.444807 0.435507 -0.188708 -0.243163 -0.459640 0.021439 0.212021 -0.135144 0.188252 0.012653 -0.078211 -0.218365 0.338103
husband -0.058961 -0.461073 -0.100183 -0.049092 0.045140 0.108990 -0.086777 -0.082188 0.040719 -0.201342 0.704062 0.178432 0.149331 0.017071 0.055429 0.409612 0.229739 -0.054453 -0.198398 0.001178 -0.369564 -0.285004 -0.477477 -0.065448 0.216679 -0.195078 0.113919 -0.028978 0.288380 -0.012936 0.454594 0.468085 -0.146274 -0.136573 -0.244913 0.045341 -0.260610 0.371320 0.345785 -0.026391 0.188252 -0.418061 -0.022099 0.066142 0.207489 -0.220823 -0.041203 0.443742 -0.000897 -0.187220
unDursleyish -0.420755 0.031842 0.249055 0.113665 0.052885 -0.252214 -0.269922 -0.444750 -0.175492 -0.105286 0.268064 0.215576 0.014694 0.110482 0.335886 -0.173831 0.387482 0.287505 -0.460292 -0.132780 -0.449851 0.241476 -0.227152 0.646170 0.222112 -0.078901 -0.252065 0.204074 -0.143933 -0.380638 0.322165 -0.079610 0.077182 -0.154136 -0.546218 0.443786 -0.247542 0.421772 -0.259485 -0.264731 0.015101 -0.126075 -0.257536 -0.106057 0.101265 0.163596 -0.024210 -0.243663 -0.363241 -0.345491
possible 0.304425 -0.159130 0.632304 0.295982 0.010790 -0.321903 -0.407031 0.494566 0.082461 -0.019641 0.417753 -0.144608 0.306376 0.383201 0.177301 0.178355 0.491559 0.583734 -0.403225 -0.966041 -0.592363 0.020158 -0.531239 0.184339 0.201253 -0.236112 0.212739 0.458580 -0.580565 0.340587 0.623897 0.167669 -0.113889 0.056464 -0.844829 0.863545 -0.422231 0.435740 -0.193551 0.354933 -0.161996 -0.539963 -0.081389 -0.416374 -0.121939 0.078325 -0.082120 -0.218597 -1.210927 0.207179
shuddered -0.057614 -0.363771 0.169742 0.149721 -0.264503 0.474488 -0.441907 0.375509 -0.134753 -0.156668 0.034244 0.673710 -0.097603 0.809580 -0.173662 0.014852 0.336435 -0.029238 0.067321 0.224775 -0.031664 0.173027 -0.106707 0.241049 0.603785 0.202141 0.121011 -0.058950 0.120465 0.717364 0.433213 0.730574 0.224927 0.111697 -0.214730 0.331364 -0.071247 0.482943 0.281770 -0.081041 -0.316875 -0.842241 0.188358 -0.162186 0.045041 0.458515 0.239741 -0.035817 -0.419871 0.432434
what -0.390739 -1.007778 0.206591 0.015964 -0.704113 -0.029817 -0.588432 -0.085265 -0.332841 0.431570 0.423693 0.083814 0.376717 0.421874 -0.293073 -0.189707 0.683937 0.131617 -0.571455 -0.318868 -0.493982 0.299542 -0.917306 0.571465 0.191281 0.706599 -0.104329 -0.121623 -0.191662 0.428450 0.505368 0.366930 -1.234997 -0.267169 -0.317174 0.241857 -0.604738 0.448980 -0.228214 0.531943 -0.131275 -0.722565 -0.039244 -1.219509 -0.246202 0.313084 -0.052830 -0.197258 0.124814 0.428149
arrived -0.390960 -0.468627 -0.238103 -0.033293 -0.888002 0.358329 -0.456870 0.403139 0.212361 0.010187 -0.398026 0.116607 -0.027889 0.308774 -0.504562 0.004509 0.142435 -0.258109 -0.067709 -0.477403 -0.046384 0.137471 -1.452028 0.127582 0.544848 0.367509 0.436743 0.391038 0.111981 0.914174 0.204954 -0.011500 -0.590364 -0.254081 -0.902693 0.484544 0.141255 0.364118 -0.167737 0.705374 0.034419 -0.617337 0.239318 -0.503206 0.183434 0.382293 0.092402 -0.469513 -0.897493 0.314587
street 0.010284 -0.445574 0.059711 0.392067 -0.302802 0.373741 -0.178785 0.284427 -0.172067 0.124502 0.238802 0.522136 0.366583 0.113694 -0.182470 0.527573 0.783546 0.493372 -0.030639 -0.114437 -0.180626 0.230473 -0.449818 -0.384767 0.476740 0.407070 0.136138 0.446054 -0.197081 0.328764 0.382775 0.323534 0.428303 -0.042622 -0.809426 0.216407 -0.016519 0.460324 0.179056 0.586173 0.113537 -0.779397 -0.240885 -0.295721 -0.063349 0.466877 -0.069030 -0.165588 -0.445475 0.301086
knew 0.004057 -0.879178 0.336912 -0.348970 -0.415019 0.529879 -0.274887 0.414514 -0.456578 -0.528736 0.260685 -0.107926 0.144985 0.329833 -0.589693 -0.040574 1.095657 0.284336 -0.511554 -0.096159 -0.689693 -0.205856 -1.216273 0.184931 0.288784 0.506933 -0.085007 -0.386585 0.033379 -0.417350 0.052509 -0.035985 -0.723852 -0.026530 -0.987590 0.743918 -0.167115 0.823686 0.316635 0.457487 -0.371723 -0.418034 0.131018 -0.385270 -0.197121 0.746764 -0.562627 -0.100976 -0.682927 0.259608
too -0.129031 -0.037080 0.790891 0.044101 -0.106963 0.187664 -0.230857 0.136516 -0.101692 -0.813734 -0.138306 0.258694 -0.069968 0.146033 -0.348560 0.436790 0.425629 0.800694 0.175515 -0.709299 -0.286696 0.255889 -1.266133 0.174133 0.609517 0.384500 0.026597 -0.028454 0.196545 0.005788 0.234113 -0.055360 -0.964520 0.341118 -0.741127 0.654106 -0.662066 0.161997 0.363659 0.428284 -0.667545 -0.403526 -0.242001 0.103482 -0.277562 0.208001 -0.173137 -0.193935 -0.443909 0.369211
never -0.104904 -1.437724 -0.395784 -0.242016 -0.828109 0.603647 -0.917117 0.841535 0.166442 -0.483119 0.415226 0.356465 0.145378 -0.069904 -0.685707 0.049940 0.519364 0.029397 -0.668633 -0.395157 -0.760823 0.361869 -0.737445 0.194431 0.419132 0.920074 0.243232 0.125706 -0.126508 -0.111311 0.190962 -0.060694 -0.655729 -0.025968 -0.968866 0.325454 -0.139514 0.505614 0.508410 0.525191 -0.571543 -0.114876 0.269412 -0.841782 -0.349030 0.436475 -0.352090 -0.037820 -0.136358 0.684430
even -0.059532 -0.953880 0.388360 -0.213190 -0.640451 0.480163 -0.477047 0.499866 0.201857 -0.536840 0.201499 0.380314 -0.186337 0.017682 -0.885160 0.351728 0.499967 -0.121521 -0.201295 -0.284271 -0.745038 0.309789 -1.097776 0.459783 -0.083958 0.181098 -0.044328 -0.250077 -0.075969 -0.025102 0.011836 0.097509 -0.629476 0.439546 -0.416537 0.134875 -0.521683 0.705046 -0.088744 0.459596 -0.225925 -0.890506 -0.257169 -0.023348 -0.278778 -0.084261 0.095360 0.107014 -0.716551 0.083176
seen -0.413509 -1.049101 -0.041263 -0.322950 -0.451634 0.546597 -0.691413 0.091196 0.541945 -0.249503 0.008017 0.775083 0.271415 0.466241 -0.519750 -0.026245 0.538009 -0.431818 -0.342950 -0.487526 -0.804040 0.025922 -0.749107 0.611362 0.123172 0.162273 -0.303249 0.313326 -0.293578 0.238313 0.048228 0.156573 -0.712497 0.363892 -1.103120 0.731446 -0.151890 0.496361 0.246181 0.899848 -0.511227 -0.003242 0.080153 -0.832926 -0.023956 0.539707 -0.400745 -0.635138 -0.531000 0.355256
him -0.105056 -0.290951 0.338043 -0.271968 -0.782542 -0.273129 -0.187369 0.153442 0.355353 -0.051974 0.294433 0.147052 -0.194661 -0.214457 -0.887460 -0.406547 0.179594 -0.271770 -0.518968 -0.324094 -0.738115 0.366890 -0.538400 -0.103542 0.728476 0.593868 0.120847 0.705123 -0.362236 0.380322 0.869464 0.044537 0.164434 0.438043 -0.742410 0.484256 -0.526311 -0.174500 0.308409 0.890722 -0.546979 -0.153947 -0.009680 -0.392751 0.065863 0.743777 0.122593 0.066342 -0.688442 0.008188
This -0.367447 -0.074964 0.650537 -0.019578 -0.634040 0.461895 -0.121606 0.492272 0.083579 -0.275818 0.631329 0.611419 0.074042 0.673574 -0.235550 0.669429 0.308111 -0.192757 -0.125534 0.076222 -0.219627 1.031435 -0.368125 0.157050 0.436936 -0.043018 -0.264998 0.097350 -0.496662 0.296184 -0.377218 0.273961 -1.272302 -0.202947 -0.722547 0.180902 -0.335158 0.546697 -0.068927 0.236518 0.330736 -0.525734 0.138798 -0.512545 -0.698282 0.018206 -0.876085 -0.080380 -0.679808 0.191289
another -0.381276 -0.652189 0.124952 -0.217205 -0.910760 -0.002912 0.044655 0.758989 -0.220386 -0.635196 0.368323 0.703198 -0.246496 0.599932 -0.704158 0.649435 0.116305 -0.054891 0.198697 0.026879 -0.171629 0.355165 -0.789874 0.146405 -0.112318 0.059320 -0.082130 0.407889 -0.643673 0.623574 0.422971 0.587596 -0.479180 -0.155125 -0.259061 0.379858 -0.177484 0.107324 0.261282 -0.293483 -0.577647 -0.322258 -0.635879 0.068176 -0.627415 0.575720 -0.032748 -0.230532 -1.049160 0.123164
good -0.558643 -0.378532 1.150730 0.048031 -0.877529 -0.045839 -0.618601 0.387199 0.001148 -0.033332 0.452345 0.602197 -0.115390 -0.071905 -0.328693 0.334082 -0.044266 0.301880 -0.026210 -0.691792 -0.650389 0.327134 -0.518420 0.208777 -0.253257 -0.057439 -0.291453 0.273977 0.036428 0.067547 -0.116488 0.699468 -0.690670 -0.046268 -0.947654 -0.202574 -0.496810 0.334641 0.096861 0.719596 -0.391969 -1.012349 -0.224129 -0.286885 -0.223778 0.081476 -0.083425 -0.069066 -0.757265 -0.119046
reason -0.193323 -0.575224 0.442818 0.276515 -0.338708 0.403992 -0.169599 0.652039 -0.391966 0.199777 0.424441 0.594393 0.036762 0.470529 -0.601002 0.811347 0.045342 0.671339 0.188687 -0.764143 -0.454353 0.354598 -0.991991 -0.043479 0.067878 0.527874 -0.194687 0.106875 0.098232 0.137439 -0.198055 0.353637 -0.492213 -0.496668 -0.422209 -0.125536 -0.716152 1.007563 0.194394 0.847941 -0.118386 -0.711295 -0.018595 0.075708 -0.384650 -0.256151 -0.034596 -0.069735 -0.562481 -0.213367
keeping -0.342060 -0.293691 -0.052344 0.223943 -0.016092 0.440505 -0.109442 0.287970 0.111773 -0.417244 0.497369 0.066544 -0.203499 0.302153 -0.649104 0.063003 0.431416 0.258512 0.016182 -0.010005 -0.626544 0.204905 -1.152723 -0.061825 -0.078478 -0.197705 0.270007 -0.327272 0.036915 -0.057755 0.481879 0.647966 -0.421418 -0.195589 -0.333366 0.432506 -0.047416 0.047213 0.092169 0.389391 -0.285405 -0.816215 0.021123 -0.000041 -0.365178 0.026628 -0.297100 -0.395727 -0.427091 -0.120761
away -0.199621 -0.442660 0.331027 -0.375627 -0.152339 0.154844 -0.404512 0.568599 0.319770 -0.289281 0.307906 -0.138811 -0.047677 0.142852 -0.292045 0.395882 0.648949 0.094505 0.090421 0.050578 -0.703328 0.384563 -0.611346 0.026744 0.539050 0.023895 0.465906 0.164619 -0.601184 -0.071052 0.575711 0.414510 -0.333509 0.140102 -0.463935 0.740377 -0.388299 0.372327 0.345345 0.315581 -0.496177 0.151584 -0.547086 -0.441381 -0.557318 0.238185 0.124558 -0.367414 -0.403190 0.208223
want -0.549532 -0.819116 0.682501 0.496580 -1.095540 0.535252 -0.608856 0.397286 -0.122298 -0.006367 0.653512 0.288754 -0.256967 0.293743 -0.438225 0.061496 0.577582 0.002615 -0.329432 -0.044933 -1.146313 0.307110 -1.239401 0.192208 0.116212 0.407457 -0.469770 0.255871 -0.507470 0.729164 0.171438 -0.391998 -0.936010 0.095538 -0.136459 0.112460 -0.008175 0.580853 1.069666 0.261193 -0.331422 -0.526664 0.170089 -0.067762 -0.530483 0.436581 0.072201 -0.298412 -0.469918 0.077332
mixing 0.225180 -0.516738 0.260299 0.123834 -0.465942 -0.101044 -0.156119 0.269907 -0.091825 0.171440 0.126119 -0.114054 -0.130785 0.322150 -0.084349 0.100604 0.102926 0.075465 0.341347 0.303633 -0.652283 0.036331 -0.088165 -0.319814 0.032042 0.256274 0.170035 0.517626 -0.185828 -0.077758 0.462389 0.385106 0.267144 0.107598 0.119406 0.227781 -0.293441 0.245321 0.278557 0.232885 -0.169900 -0.561077 -0.192682 -0.288336 -0.409539 0.690197 -0.093392 -0.169189 -0.765714 0.288018
child -0.202114 -0.511695 0.357194 0.275654 -0.021912 0.296090 -0.000740 -0.005888 -0.395638 0.041397 0.204684 -0.198284 0.264275 0.210515 -0.148850 0.139902 0.549162 0.146838 -0.084206 -0.184565 -0.469555 0.458582 -0.023722 -0.180973 -0.090809 -0.330359 0.370138 0.287094 -0.004699 0.210111 -0.044050 0.711284 -0.337672 -0.271761 -0.272462 0.154430 0.203386 0.317705 0.006528 0.266036 -0.058253 -0.115197 0.059824 0.008367 -0.029868 0.109596 0.101711 -0.406370 -0.500681 0.084593
like -0.802838 -0.794302 0.231958 0.144771 0.034832 0.415454 -0.761283 -0.127108 0.209989 0.334549 0.737991 0.503922 -0.285881 0.713167 -0.335412 0.166305 0.159064 0.598581 -0.590042 -0.608449 -0.221396 0.436130 -0.941310 0.239077 -0.128586 -0.078264 -0.268208 -0.522624 -0.053502 0.557796 0.287997 0.200427 -0.288360 0.325762 -0.935680 0.630759 0.056966 0.320625 0.346120 -0.120707 -0.584606 -0.623903 -0.109536 -0.432709 -0.209814 0.626327 0.255179 0.190245 -0.198011 0.964124
When 0.028162 -0.360462 -0.058023 0.173140 -0.660693 0.144609 -0.689889 0.430137 0.365704 -0.111264 -0.074846 0.007460 0.204526 0.721331 -0.124317 0.044927 0.590163 -0.078846 -0.088186 -0.130199 -0.421232 0.719254 -0.373784 0.332585 -0.103168 0.071188 -0.079834 0.517771 -0.407250 0.089318 0.553721 0.426779 -0.560691 -0.435682 -0.343541 0.550877 -0.444191 0.585015 0.138542 -0.081726 -0.218863 -0.681862 0.308344 -0.570178 -0.245856 0.382866 0.165243 -0.248822 -0.933155 0.313822
woke -0.198950 -0.176567 0.150938 0.505415 -0.385152 0.330892 0.127165 0.483728 -0.604883 -0.134826 0.230595 -0.024914 -0.048898 0.116774 0.098287 -0.425016 0.460046 0.124044 -0.129891 -0.042290 -0.292382 0.389160 -0.638359 0.033852 0.218573 0.572010 -0.026728 0.345342 -0.190136 0.216210 -0.035042 0.432447 -0.184612 0.051622 -0.896211 0.627775 -0.314570 0.279392 0.083706 0.584041 -0.212721 -0.594010 -0.007318 0.002186 -0.172921 0.545374 -0.226343 -0.279844 -0.748317 0.463724
up -0.366828 -0.421291 0.450791 0.666309 -0.228624 0.283602 -0.329095 -0.302610 0.040015 -0.347613 -0.121987 0.368230 -0.436413 -0.190129 -0.432052 0.233527 -0.339272 0.203104 0.042422 -0.142106 -0.782824 0.861011 -0.877057 0.549177 0.379754 0.614412 0.290076 0.781615 0.333959 0.469103 0.753810 0.053470 -0.151766 -0.156486 -0.536819 0.384869 -0.522922 0.381397 -0.222648 -0.235276 -0.736651 -0.623257 -0.235184 -0.414280 -0.371857 0.415826 0.034605 -0.216018 -0.637433 -0.273135
dull 0.238098 -0.336368 0.495595 0.154132 -0.275218 0.546617 0.057940 -0.308993 0.163514 -0.130550 0.153278 0.128917 -0.244761 0.183968 -0.095931 0.075088 0.209829 0.290702 -0.105270 0.217314 -0.405275 0.165414 -0.361044 -0.248094 0.575979 0.186563 -0.362117 0.514616 -0.505570 0.082682 0.132856 0.105191 -0.126068 -0.375182 -0.498264 0.847346 0.238515 0.313961 -0.271430 0.095942 -0.177988 -0.466574 -0.004037 0.076753 -0.037827 0.020370 -0.021282 -0.279892 -0.397225 -0.209040
gray -0.297482 -0.790721 0.252655 -0.040868 -0.553028 0.381883 -0.358614 0.009380 -0.014537 -0.236872 0.025558 0.258526 -0.015374 0.141684 -0.394915 0.195156 0.289669 -0.064565 -0.196102 -0.316954 -0.684689 0.341752 -0.799911 -0.077255 0.353901 0.226900 -0.069472 0.124397 -0.002984 0.190052 0.075125 0.643513 -0.012047 -0.328864 -0.482986 0.455092 0.416629 0.377859 -0.156731 -0.004262 -0.237771 -0.319721 -0.191904 0.071086 -0.279807 0.335154 -0.018936 -0.077378 -0.294549 0.151602
Tuesday -0.409396 -0.103158 0.711123 0.085063 -0.541493 -0.383301 0.142016 0.205557 -0.318191 0.042866 0.356851 0.081267 -0.156114 -0.199106 -0.293626 -0.055333 0.204179 0.367121 -0.013682 0.083804 -0.668736 0.296278 -0.470235 -0.183081 0.177893 0.229982 -0.058484 0.652909 -0.411022 -0.153826 -0.087330 -0.191188 0.125471 -0.100569 -0.671974 0.159112 -0.273727 0.278354 -0.272339 -0.082599 0.377810 -0.394516 0.076406 -0.267200 -0.489057 0.377596 0.025958 -0.304060 -0.525062 -0.394022
our -0.715389 -0.368952 0.155066 0.787244 -0.475733 0.354725 -0.168771 0.318825 -0.283910 -0.315663 0.221682 0.489820 0.296445 -0.088873 0.058564 0.082707 0.254406 0.335452 0.139625 0.397016 -0.436289 -0.101511 -0.886181 0.118022 0.906223 0.208526 -0.010076 -0.108051 -0.359662 0.508559 0.478529 0.393807 -0.474041 -0.019916 -0.265797 0.346997 -0.228374 0.106140 0.470120 -0.135105 0.140234 -0.231999 0.309760 -0.472914 -0.160314 0.563028 -0.661010 -0.319360 -0.999989 -0.083670
story -0.115916 -0.223892 0.613254 -0.082467 -0.488324 0.239802 -0.368764 0.582907 0.109897 -0.218047 0.255464 0.529616 0.282697 0.364486 -0.274422 0.284684 0.373311 0.028777 0.047247 -0.441899 -0.344579 0.634724 -0.358743 -0.038779 0.104325 0.270274 0.294700 0.502711 -0.087730 0.124167 -0.273224 0.450229 -0.213333 0.263735 -0.724166 0.388312 -0.416128 0.220254 0.289204 0.558853 0.201277 -0.938489 -0.147391 0.070990 -0.056172 0.076288 -0.315052 0.055798 -0.536376 0.053597
starts -0.076991 -1.068170 0.234215 0.127897 -0.363560 0.282787 -0.528896 -0.278703 -0.500217 0.248428 0.390218 0.112618 -0.401510 -0.017797 0.127048 0.080939 -0.050295 0.044797 -0.040964 -0.390236 0.227850 0.465606 -0.676874 0.180327 0.221853 0.477818 0.412572 -0.032010 0.037358 0.320054 0.448779 0.260288 0.067850 -0.008095 -0.590574 -0.178911 0.207856 0.082110 -0.260056 0.174242 -0.025787 -0.473886 0.149272 -0.193503 -0.364266 0.382434 -0.407960 -0.115369 -0.442958 -0.122893
nothing -0.066985 -0.824623 0.108614 -0.139299 -0.865324 -0.079385 -0.002648 0.567426 -0.467968 0.076009 0.276091 0.485499 0.174378 0.321464 -0.511563 0.108546 0.280716 0.665668 -0.074873 -0.698107 -0.360366 0.528034 -0.906742 0.038930 0.209264 0.641422 0.009009 -0.101898 0.019149 0.181073 0.230418 0.404005 -0.770544 -0.278613 -0.536910 0.489127 -0.056489 0.787823 -0.118984 0.195543 -0.397456 -0.657193 -0.258359 0.046203 -0.126161 0.285245 -0.475194 0.305552 -0.830067 0.033549
cloudy -0.445428 -0.433703 0.192563 0.350353 -0.102423 0.080582 -0.094491 0.085422 -0.012971 -0.063385 0.212596 0.033077 -0.123342 0.267241 -0.207523 0.072429 0.309249 0.421013 -0.064996 -0.283773 0.009497 0.839137 -0.142620 -0.443191 0.330363 -0.044604 0.048081 0.108923 0.235084 0.248668 0.118791 0.452338 -0.052988 -0.230153 -0.341832 0.613984 -0.036885 0.058123 -0.264457 0.212657 -0.172335 -0.163450 0.029438 -0.307493 -0.124097 -0.004538 -0.195436 -0.462542 -0.331428 0.057654
sky 0.027987 -0.428385 0.567676 0.056150 -0.010713 0.230958 0.130277 -0.179842 -0.001130 -0.158643 0.416279 -0.076874 -0.352854 0.629412 -0.259438 0.644326 0.327075 0.285070 -0.163706 -0.150748 -0.476926 0.286853 -0.731444 -0.095015 0.210088 0.851221 0.144450 0.392425 -0.495210 0.457531 0.273810 0.464103 -0.183299 -0.069795 -0.548851 0.242238 -0.353634 0.262791 -0.082771 0.659191 0.320531 -0.808131 0.034761 -0.428217 -0.345150 -0.115127 -0.008704 -0.309214 -0.438154 0.491559
outside -0.106213 -0.907539 0.391619 0.481035 -0.500756 0.143504 -0.120496 -0.054350 -0.169454 0.059976 0.322010 0.161307 -0.572199 0.183693 -0.356522 0.213537 0.740020 0.277005 0.188437 -0.368801 -0.109391 0.435542 -0.608955 -0.456646 0.194465 0.226092 0.068625 0.252890 -0.030639 0.424387 0.073435 0.212634 -0.224151 0.254319 -0.302771 0.464904 0.150188 0.234271 0.028215 0.198651 -0.394782 -0.049774 -0.163784 0.126819 -0.844878 0.129169 0.054539 -0.372606 -0.657456 0.108726
suggest -0.151496 -0.448082 0.054714 0.354369 -0.376382 -0.252745 -0.585139 0.578276 -0.133192 -0.256141 0.043602 0.442635 -0.167249 0.221887 0.206450 0.039250 0.244180 0.473441 0.239414 -0.055763 -0.605104 0.338076 -0.658918 0.185373 0.116306 -0.119795 0.145257 0.055970 0.027198 -0.076690 0.529295 0.082721 -0.432799 0.532271 -0.365953 0.293515 -0.559058 0.398933 0.172866 0.564986 -0.086624 -0.677278 0.030579 -0.499328 -0.099206 0.576180 -0.043017 -0.285319 -0.531377 -0.068935
things -0.387448 -1.258344 0.311482 -0.171958 -0.488377 -0.193279 0.050724 0.499601 -0.622120 0.294215 0.420509 0.299460 0.488690 0.241199 -0.453644 -0.026599 0.133089 0.666582 -0.237786 -0.063974 -0.493770 -0.188144 -0.706478 0.289487 0.108016 0.017131 -0.309369 0.361631 -0.077257 0.226386 0.161166 0.231538 -0.596688 0.639322 -0.280707 0.229567 -0.120055 0.861024 0.588176 0.095155 0.257827 -0.739266 0.134689 -0.347216 -0.469047 0.396572 -0.008859 -0.361187 -0.717636 -0.099169
soon -0.222753 -0.173856 0.318515 0.271100 -0.690524 0.103465 -0.322215 0.613435 -0.366670 -0.777080 0.452706 0.252645 -0.156679 0.587789 -0.614632 -0.347861 0.851274 -0.013373 0.077723 -0.371284 -0.583945 0.330895 -0.522745 0.300592 -0.207491 -0.465828 0.096982 -0.011304 -0.049892 0.780130 0.358492 -0.084333 -0.275215 0.140219 -0.586186 0.192919 -0.657573 0.174811 -0.040872 0.145755 0.002041 -0.624438 -0.156969 -0.277958 0.175046 0.195801 -0.219422 -0.369960 -0.939431 -0.052734
happening -0.215485 -0.535322 0.190996 0.201311 -0.121450 0.021665 0.210180 -0.205563 -0.289529 -0.148850 0.304931 0.245693 0.043907 0.432279 -0.282225 0.310582 0.389305 0.163375 -0.248109 -0.313606 -0.537223 -0.053632 -0.385448 -0.177192 0.250937 0.132933 -0.201867 0.242597 -0.492656 -0.113852 0.459378 -0.079636 -0.435274 -0.445572 -0.619161 -0.100876 -0.155062 0.373171 -0.037882 0.351716 -0.074996 -0.409374 0.065383 -0.238536 -0.509748 0.234511 0.418293 -0.334919 -0.392686 -0.199082
all -0.759485 -0.557396 -0.304874 0.045178 -0.386420 -0.329876 -0.684395 0.645814 -0.617067 -0.043134 0.893653 0.527015 0.802532 -0.408893 -0.347831 -0.016248 0.152453 0.116640 0.182090 0.339656 -0.871585 0.519547 -0.456110 0.415867 0.590284 0.111347 -0.241062 0.576557 0.418179 -0.187549 0.157927 0.697931 -0.764705 0.297104 -0.339514 0.168720 -0.292087 0.523806 -0.031469 0.907134 -0.765857 -0.692557 -0.091164 -0.962758 -0.626012 -0.247261 -0.288883 -0.359404 -0.684463 -0.329400
country 0.072575 -0.635294 0.555859 0.171611 -0.179857 0.067497 -0.323386 0.180258 -0.025930 0.436061 0.331077 0.036539 0.005845 0.205138 0.141828 0.361302 0.707606 -0.010605 -0.356364 -0.105039 -0.432761 -0.036132 -0.641104 -0.108530 0.365125 0.390760 0.215907 0.233149 0.031132 0.051599 -0.086109 0.223253 0.168226 -0.317414 -0.486873 0.470398 -0.352737 -0.122968 0.158323 0.370577 -0.360148 -0.575492 0.256835 -0.281920 -0.031479 0.249350 -0.363805 0.003722 -0.251607 0.093831
hummed -0.129289 -0.483306 0.662327 -0.075301 -0.061690 0.254185 0.114502 0.313608 -0.363748 -0.219153 0.225753 -0.199300 -0.352990 0.161882 0.237694 -0.168744 0.349596 0.135431 -0.084032 -0.429696 -0.306210 0.227215 -0.538625 -0.018436 0.023363 0.060614 0.458439 0.148644 -0.286442 0.621769 0.392861 0.360936 -0.329837 0.358351 -0.390432 0.157970 -0.291036 0.374179 0.013180 0.238901 -0.176180 -0.471699 -0.034310 0.065037 -0.441125 0.015300 0.202087 -0.164472 -0.721426 0.482637
picked 0.437029 -0.689477 0.487959 0.257006 -0.285157 0.257638 -0.581289 -0.008536 0.054690 -0.182461 0.224414 -0.006364 0.040122 -0.385747 -0.094436 -0.115818 0.755059 -0.053668 0.489766 -0.413435 -0.631870 1.189967 -0.818329 -0.005671 0.473357 0.025319 0.623425 0.441981 0.051508 0.341095 0.028954 0.523487 -0.631660 -0.177139 -0.745866 0.679273 0.399015 0.449675 0.154657 0.792211 -0.064649 -0.510161 -0.261492 -0.008435 0.003055 0.826647 -0.020939 0.001066 -1.151744 -0.282455
his -0.652204 -0.086390 0.153732 -0.271845 -0.705371 -0.299675 0.361126 0.166196 -0.000961 -1.283136 0.965981 0.458650 0.191856 -0.354669 -0.853275 -0.402380 0.152608 0.519852 0.219356 0.146345 -0.185601 0.179585 -1.261577 -0.204584 0.741327 0.229270 0.054573 0.537337 -0.085865 0.032828 0.282663 0.682496 -0.523271 -0.395720 -0.904523 0.810671 -0.155576 -0.101869 0.623341 -0.362620 -0.520110 -0.265263 -0.129426 -1.215255 -0.347964 0.393185 0.310753 -0.050254 -1.266916 -0.051850
most -0.124982 -0.548207 0.200968 -0.630434 -0.131731 0.313966 -0.048160 0.289227 -0.324092 -0.628036 0.106510 0.073723 0.652615 0.450982 -0.696341 0.274484 0.560443 0.415788 -0.000370 0.017599 -0.555847 0.664851 -0.203611 -0.219287 0.539117 0.130368 -0.253832 0.013036 -0.025317 0.285472 0.004125 0.082341 -0.094238 0.233295 -0.518882 0.689517 -0.547543 0.563963 0.224634 0.347860 0.016667 -0.900246 -0.347882 -0.110742 -0.612361 0.496134 -0.016809 0.031362 -0.158831 0.104466
boring -0.117727 -0.621552 0.439171 0.041675 -0.571676 0.203204 -0.340808 0.139442 -0.414028 -0.044238 0.042101 -0.556621 -0.179662 0.455016 -0.321440 0.392889 0.179756 0.093720 0.318367 -0.120544 -0.404577 0.332901 -0.502299 -0.082531 0.036776 0.064599 0.177945 0.224522 -0.408468 0.149829 0.138575 0.114475 -0.016757 -0.140935 -0.509973 0.292621 -0.175049 0.045997 0.215506 0.476660 -0.178522 -0.431245 0.155785 0.042491 0.088425 0.088244 -0.141520 -0.107097 -0.291285 -0.028489
tie 0.526309 -0.623988 0.300435 0.028722 -0.285403 0.052440 -0.457863 0.260227 -0.282237 -0.078537 0.023744 -0.024798 0.026480 -0.011732 0.066041 -0.322183 0.031099 0.227869 0.259983 0.058373 -0.298165 -0.241704 -0.795395 -0.502237 0.706717 0.027433 0.594551 0.003710 -0.191474 0.491415 0.308681 -0.124447 0.179461 -0.019425 0.125754 0.456144 -0.040472 -0.175332 0.108453 0.354464 -0.064400 0.018476 0.146274 -0.172544 -0.150237 -0.184175 -0.290403 -0.090503 -0.267174 -0.031076
work -0.391227 -0.511618 0.592657 0.076928 -0.296334 0.142407 -0.153773 0.370053 -0.288737 -0.382347 0.725884 0.342385 -0.074828 -0.331583 -0.518112 0.118929 0.668440 0.288557 0.129711 -0.189162 -0.373474 0.303278 -0.265739 0.285529 0.082839 0.034374 0.001755 0.261071 -0.615535 -0.182438 0.443430 0.116817 -0.263619 -0.072455 -0.551261 0.017442 -0.386686 0.433670 0.369122 0.286517 -0.195373 -0.520281 -0.056825 -0.342132 -0.498335 0.408351 -0.061677 -0.062205 -0.403854 0.045082
gossiped -0.145821 -0.234679 -0.415091 0.284015 -0.025038 0.136573 -0.208652 -0.066077 0.020289 0.164728 0.251695 0.258091 -0.577451 0.250113 0.038222 0.335667 0.215517 0.714407 -0.433981 0.288072 0.334070 0.089916 -0.691418 -0.461045 0.217229 -0.000355 0.040926 -0.351362 -0.037313 0.625081 -0.044066 0.210623 -0.129304 0.041993 -0.296952 0.180551 -0.133394 0.366479 0.107519 -0.091333 0.014384 -0.633381 0.083343 0.322790 -0.264199 -0.228850 -0.212780 0.013398 -0.244496 -0.250342
happily -0.526030 0.139061 0.523405 0.266587 -0.577453 0.167204 0.133265 0.413407 -0.189665 0.054290 0.186975 -0.107471 0.394655 0.493124 -0.088538 -0.396553 0.437997 0.342146 0.138533 -0.411466 -0.544883 0.298969 -0.489417 -0.415965 0.345686 0.064509 0.291104 0.280889 -0.321470 -0.124246 0.041835 0.646199 -0.097676 -0.671201 -0.904468 0.395332 -0.423801 0.250846 0.219079 0.147571 -0.264610 -0.714099 -0.105503 -0.349370 0.063858 0.145665 0.047509 -0.442740 -0.694777 -0.307452
wrestled 0.338234 0.041843 0.145843 0.027285 -0.141499 -0.037014 -0.224271 0.063428 -0.350208 -0.151772 -0.028516 -0.112847 -0.310166 -0.085387 -0.349252 0.274878 0.039483 0.209404 -0.220229 -0.258231 -0.277820 0.079837 -0.690732 -0.661995 0.200419 -0.083483 0.195945 0.594243 0.141343 0.026375 0.209243 -0.061265 -0.136009 0.274005 -0.229290 0.552668 -0.294121 -0.225307 -0.012426 -0.035727 -0.229253 -0.266721 -0.059628 -0.216430 -0.311789 -0.190662 -0.314316 0.331977 0.073026 0.012224
screaming -0.191445 -0.657458 0.341309 -0.085602 -0.134406 0.386256 -0.131801 0.089973 0.203169 -0.224508 0.210484 -0.023579 0.331176 0.578947 -0.378437 0.441913 0.054205 0.592412 -0.187856 0.190971 -0.399048 0.432695 -0.296571 -0.438960 -0.082571 0.124822 0.437886 0.591742 0.085583 0.145738 0.403934 0.206522 -0.336824 -0.241166 -0.476774 0.912560 -0.134801 0.004493 -0.127174 0.416360 -0.346859 -0.262092 -0.229516 -0.193988 0.024068 0.431825 -0.443256 0.012240 -0.402074 0.293067
into -0.806903 -0.256538 -0.144808 0.359228 -0.445954 -0.143913 -0.476046 -0.351228 -0.167889 -0.788436 0.084142 0.785991 -0.639930 0.094840 -0.520938 0.058207 0.649342 0.687467 0.328328 0.099704 -0.303289 0.709046 -0.443028 -0.331905 0.034967 -0.866705 0.364928 0.684703 -0.121781 -0.112142 0.616892 0.304836 -0.378718 -0.800701 -0.712057 0.518569 -0.777898 -0.200399 0.025391 0.155045 -0.869382 -0.355890 -0.155053 -0.277480 -0.414950 0.328483 -0.205139 -0.668518 -0.292770 0.370724
high -0.348679 0.026315 0.353907 0.324831 -0.178179 0.329652 0.573793 -0.133423 0.184509 -0.631289 0.175130 -0.265134 -0.556805 -0.281742 -0.388291 0.391737 0.272118 0.434146 0.314807 -0.298301 -0.666319 0.217632 -1.394726 -0.372625 0.344276 -0.105625 0.426523 0.756031 0.192424 0.549065 0.619971 0.656921 -0.199972 0.235921 -0.069786 0.995586 -0.302537 0.509368 -0.066429 0.387141 -0.159805 -0.219723 0.185455 -0.310760 -0.037190 -0.212946 -0.283384 -0.188582 -0.984936 -0.153751
chair -0.470226 -0.211597 0.305918 0.279716 -0.296791 0.094522 -0.272249 -0.401772 -0.188872 0.173555 0.326953 0.358092 0.266800 0.159764 -0.379355 -0.029418 0.349276 0.109476 0.006310 -0.476471 -0.202429 0.462516 -0.905166 0.039946 0.528539 0.451740 -0.448088 0.036262 0.156616 0.149798 0.360683 0.082696 0.214611 -0.319838 -0.641726 0.269888 -0.396387 0.169076 0.282140 0.214692 0.482735 -0.468358 -0.272069 -0.442550 -0.408297 0.345255 0.332264 -0.561621 -0.379170 0.340457
None 0.290197 -0.140609 0.309591 0.200189 -0.041847 0.225166 0.192336 0.117719 -0.064438 0.124765 0.560846 0.153939 0.074115 0.160254 -0.197177 -0.129153 0.165145 -0.248380 -0.170326 -0.216216 -0.572031 0.461185 -0.377342 -0.294046 0.750921 -0.098269 -0.091047 0.260147 0.013505 0.144318 -0.063158 0.349975 -0.287901 0.230716 -0.341239 0.131176 0.559316 0.192096 0.336116 -0.125006 -0.441932 -0.507124 0.135790 0.359659 -0.110603 0.126399 -0.088150 0.149967 0.036287 -0.321319
them -0.567743 -0.662928 0.321852 0.611487 -0.819963 -0.484845 0.005735 0.287010 -0.544404 -0.260524 0.224770 0.266820 0.039062 -0.199674 -0.314521 -0.257934 0.229606 0.661333 -0.456723 -0.097382 -0.538337 0.403850 -0.589522 -0.187645 0.383187 0.537173 -0.255386 0.611682 -0.379092 0.229871 0.535092 0.629852 -0.097979 0.215290 -0.803466 0.531907 -0.172936 0.070448 0.344880 0.207410 -1.106477 -0.059365 -0.726701 -0.502336 -0.050767 0.435609 0.005924 0.097352 -0.740168 -0.339289
noticed -0.084494 -0.669411 -0.110074 -0.345584 -0.253073 0.095931 -0.066037 0.090102 0.043068 0.050670 0.208344 0.038372 -0.076683 0.211079 -0.108679 0.168746 0.357394 0.153412 -0.688660 -0.455083 -0.281445 0.605869 -1.147797 0.219900 0.036455 0.370990 -0.106854 0.630877 -0.332562 0.186136 0.606704 0.172446 -0.768591 -0.268105 -1.007095 0.330939 -0.248087 0.628122 0.228829 0.427458 -0.011018 -0.776499 -0.048852 -0.343176 0.192367 0.721318 -0.142920 -0.545473 -0.729664 0.437315
tawny 0.072159 -0.445803 0.402586 0.024506 -0.273653 -0.096444 -0.172760 -0.223873 0.212578 -0.097525 0.012007 0.172319 -0.496422 0.335619 -0.121743 0.076188 0.482485 -0.316270 -0.027984 -0.125116 0.099859 0.083594 -0.273406 -0.368967 0.161840 0.168047 -0.356111 -0.001097 -0.129484 -0.026057 0.080058 0.108223 0.317121 -0.421012 -0.487636 0.359793 -0.139999 0.066907 0.136759 0.166777 -0.529744 0.241257 -0.080311 0.253160 -0.015617 0.127711 0.006577 0.317790 -0.421803 0.134755
owl -0.046303 -0.078348 0.300951 0.180530 -0.182267 0.210884 -1.171349 0.240682 -0.767089 -0.152212 0.451711 0.839866 0.306613 0.089700 -0.349143 -0.165353 0.445295 0.036454 -0.366917 -0.875405 -0.171989 0.391524 -0.723658 0.324814 0.378581 0.093182 -0.309877 -0.194474 -0.216293 0.846294 0.199373 0.626116 0.117528 -0.449958 -0.609389 0.259941 -0.284810 0.359773 0.240490 0.199023 0.151997 -0.802870 -0.092498 0.004538 -0.435195 -0.211185 0.181810 -0.570726 -0.592264 -0.088482
flutter -0.454814 -0.058915 0.283753 0.005347 -0.386251 0.407059 -0.535243 0.205005 -0.346536 -0.218727 -0.057436 0.355147 0.627943 0.212589 -0.061487 -0.082163 0.413062 0.035301 -0.071297 -0.349725 0.076452 0.476878 -0.525647 0.096525 0.258949 0.385047 0.190361 0.264823 -0.551561 -0.060228 0.517752 0.411882 0.437610 0.013002 -0.228653 0.601450 -0.055336 0.400126 0.317531 0.178101 0.016893 -0.504667 0.270792 -0.243780 -0.148821 0.235500 -0.204743 -0.103705 -0.257667 -0.147508
past -0.357916 -0.086543 -0.194575 0.454322 -1.077670 0.496760 -0.858599 -0.261869 0.113766 -0.133519 -0.024722 0.326689 -0.414584 0.167088 -1.018065 -0.054313 0.024199 0.484090 -0.211052 -0.792356 -0.766545 -0.051148 -0.539337 -0.231564 0.497843 -0.458409 0.098603 0.563962 0.597309 0.062345 0.903476 0.018998 0.021909 -0.264633 -0.599432 -0.156401 -0.191414 0.516893 0.307210 0.190097 -0.645029 -0.652259 0.367379 0.029926 -0.183473 0.635617 -0.258985 -0.206959 -1.253602 0.460887
window 0.250275 -0.474369 0.440442 0.321232 -0.207635 0.529772 -0.017304 0.253648 -0.280052 -0.257090 0.378243 0.001151 0.061698 0.461646 -0.155425 0.260049 0.312240 0.294375 -0.188612 -0.599418 -0.440499 0.094566 -0.763923 -0.035487 0.358344 0.578259 0.257774 0.042748 -0.230949 0.536707 0.861563 0.092168 -0.080643 -0.098872 -0.225732 0.595008 -0.239525 0.327701 0.273520 0.720034 0.415625 -0.983421 -0.231821 -0.191509 0.024418 0.423842 -0.272027 -0.256136 -0.680243 -0.166115
At -0.211568 -0.188835 0.366392 0.098822 0.143026 0.587534 -0.136088 0.053895 -0.223459 0.376936 0.956764 0.374595 -0.074553 0.232844 -0.105263 0.215930 0.472638 0.309237 -0.335456 -0.094098 0.117573 0.638547 -0.831653 -0.182197 -0.157262 0.064662 0.364595 0.509357 -0.173654 -0.061400 -0.316996 0.681485 -0.115783 0.313102 -0.814570 -0.028010 -0.223401 1.069893 0.047344 -0.084722 -0.388104 -0.434590 0.543507 -0.650885 -0.627599 0.859910 -0.733544 -0.128276 -0.979991 -0.203705
half -0.169914 -0.293589 -0.138438 -0.047029 -0.553381 0.434451 -1.002185 -0.428173 -0.236339 -0.092603 0.564881 0.499114 -0.238949 -0.050222 -0.500796 -0.057316 0.084608 0.106313 -0.358162 -0.279918 -0.308516 0.042211 -1.224262 0.220723 0.094459 0.012617 -0.269537 -0.086482 -0.245342 0.040584 0.426292 -0.090510 0.015100 -0.302128 -1.113219 0.077238 -0.342518 0.146814 0.055705 0.151875 0.197540 -0.686130 -0.051801 -0.155248 -0.094136 -0.069619 -0.602594 -0.087729 -0.834087 0.015221
eight -0.199806 -0.287807 0.191184 0.246795 -0.113499 0.343241 -0.137110 0.031262 0.246801 -0.362918 0.397750 0.309856 0.079121 0.638217 -0.535577 -0.388334 0.511707 -0.015449 -0.427777 -0.332306 -0.219187 0.210966 -0.548331 0.126475 0.569081 0.319570 -0.017579 0.164892 0.113096 0.066261 0.089682 0.733185 -0.351438 0.112683 -0.342448 0.320792 0.088148 0.029658 0.427555 0.386175 -0.235070 -0.102222 -0.095602 -0.177908 -0.210138 0.588833 -0.493209 -0.185223 -0.248431 0.175116
briefcase 0.173806 -0.080427 0.605437 0.150180 -0.096979 0.050355 -0.130798 0.457150 0.032292 -0.436224 0.045140 0.011491 -0.307768 0.277010 -0.300212 -0.188800 -0.477893 0.192253 -0.238955 0.166086 -0.149271 0.488526 -0.222207 -0.085596 0.250986 -0.226153 0.191207 -0.084680 -0.376027 0.125649 -0.154732 0.435247 -0.120145 0.084145 -0.147807 0.121645 -0.228988 0.406313 0.172932 0.598992 0.232406 -0.489122 -0.110821 0.126299 -0.420604 0.386741 -0.382062 0.297636 0.310927 0.365924
pecked -0.099879 -0.130567 0.181676 0.017135 -0.295102 0.082856 0.405777 0.036590 -0.262375 0.255518 0.027447 0.054327 -0.352971 0.031361 -0.233667 -0.205648 0.183668 -0.073805 -0.124877 -0.112199 -0.226538 0.002622 -0.423685 -0.184831 0.117744 0.091822 0.172431 -0.008215 0.239857 0.127127 0.270133 -0.157991 -0.091940 0.004386 -0.243376 0.320453 -0.172410 0.233862 0.056718 0.345310 0.004560 -0.367533 -0.297090 0.161843 -0.611336 0.096844 -0.124275 -0.641590 -0.565141 -0.195386
cheek 0.216284 -0.236152 0.122464 0.194184 -0.043224 0.257860 0.105182 0.168413 0.224285 -0.254090 0.369816 0.254261 0.345102 0.303438 -0.424332 0.269666 0.646995 0.136146 0.390306 0.063883 -0.694624 0.489130 -0.769362 -0.052850 0.572690 0.377401 -0.033288 0.292454 0.270496 0.200555 0.129917 0.335495 -0.238217 0.464341 -0.285898 0.422969 0.018196 0.421512 0.008796 0.287660 0.100726 -0.133921 0.455272 -0.041420 -0.187625 0.645165 -0.213915 -0.527024 -0.112219 0.146359
tried -0.440318 -0.579150 -0.021829 0.522033 -0.585209 -0.218976 -0.423406 -0.221546 0.046598 -0.701611 0.568896 0.009187 0.343481 -0.325853 -0.392240 0.192740 0.236641 -0.426505 0.159789 -0.632515 -0.359719 0.513441 -0.930235 -0.273651 0.046082 0.282367 -0.220618 0.347313 -0.402164 0.085178 0.381140 0.456885 -0.909390 -0.504583 -0.551876 -0.133098 -0.228177 0.648406 -0.026918 0.366021 -0.412763 -1.048689 0.241599 -0.529845 -0.190635 1.082357 -0.057415 -0.273250 -0.829654 0.679627
