6913 50
Harry 0.184213 -0.135869 0.386676 -0.373533 -0.276517 -0.596022 -0.187123 0.073074 -0.520155 -0.646355 0.208193 -0.478750 -0.055625 -0.330196 0.174326 -0.153551 0.899458 0.387532 -0.499514 0.252866 -0.383806 0.257993 -0.041965 -0.025083 0.645443 -0.551635 0.231642 0.608669 0.417049 1.247124 0.419829 -0.367590 -0.036987 -0.116130 0.491474 -0.746997 0.019958 0.120634 0.241985 0.016269 -0.218713 0.354057 -0.088112 0.193954 -0.214668 0.083245 -0.401943 -0.066673 -0.323112 -0.438401
Potter -0.212961 -0.800197 0.088494 -1.108964 -0.145055 -0.103533 -0.196141 0.086617 -0.646807 0.219211 0.264354 -0.716010 -0.646522 -0.222616 0.101952 -0.647874 0.344717 -0.255048 -0.260011 0.302410 0.125300 0.032252 0.141955 0.211574 0.373322 -0.241998 0.161867 0.864662 0.162734 0.919895 0.428307 -0.547835 -0.224248 -0.168929 0.427172 -1.160451 -0.058157 0.456937 1.120499 0.778158 0.369055 0.583449 -0.177142 0.829151 -0.106398 -0.316703 -0.054287 -0.580380 0.206450 -0.010334
and 0.001540 -0.189219 0.142324 -0.018236 0.027532 -0.284082 -0.442229 0.304354 -0.215438 -0.229324 -0.137647 -0.853777 -0.211322 0.509019 -0.249461 -0.234183 0.869109 0.183199 0.093911 -0.197182 0.105392 0.370586 0.209574 0.545943 0.649021 -0.916169 -0.219620 0.247909 0.156947 0.949011 0.091421 -0.526088 -0.402316 0.107439 -0.293629 -0.145909 0.030376 0.028058 0.279531 0.184421 0.031731 0.366913 -0.577900 -0.124461 0.619247 0.538355 -0.183012 -0.207325 -0.306442 0.136678
the 0.110295 -0.528854 0.993681 0.346489 -0.935463 -0.586954 -0.066932 0.466695 -0.486060 0.045718 -0.020133 -0.025276 0.261313 0.416274 0.297951 -0.419752 0.532905 0.330901 -0.377065 0.257782 -0.435502 0.115711 0.364549 0.506719 -0.306979 -0.490901 0.351926 0.339152 0.355807 0.500593 -0.077447 -0.530400 -0.220951 -0.036456 0.190492 -0.783294 -0.525600 -0.508907 -0.165018 0.099194 -0.331912 0.458057 -0.066074 0.245255 -0.349751 0.106378 -0.035021 -0.702676 0.329395 -0.064991
Sorcerers -0.342901 0.056202 0.480916 -1.001586 -0.806390 -0.718567 -0.251575 0.168485 -0.840373 0.182842 0.238007 -0.236580 -0.250549 0.235996 -0.172233 -0.137932 0.254109 0.799697 -0.301395 -0.237774 -0.750383 -0.311942 0.603892 0.272255 0.032202 -0.718658 0.147570 0.697184 0.016085 -0.328970 -0.318185 -0.717473 -0.417520 -0.316905 0.283074 -0.674156 -0.405493 0.150156 0.161217 0.029683 0.427495 -0.229239 -0.124453 0.589580 -0.586196 -0.529767 -0.462245 -0.359780 -0.181770 -0.189403
Stone -0.123490 -0.476955 0.838852 -0.925306 0.043759 -0.517498 -0.490252 -0.257692 -0.614118 0.489556 0.021570 -0.191249 0.101787 0.438406 0.254254 0.331947 0.565113 0.372973 -0.260698 0.747397 -0.193178 -0.160012 0.271558 0.488802 -0.028009 -0.357722 -0.059346 0.417397 -0.161063 0.327397 0.018625 -1.089622 0.413165 -0.430073 -0.162450 -0.777585 -0.744774 0.104474 0.405319 0.261466 -0.176412 0.267957 0.028042 0.506294 -0.855330 0.329267 -0.839324 -0.400308 0.303035 -0.119677
CHAPTER -0.548943 0.005794 0.255112 -0.731433 -0.081271 -0.272981 0.088667 -0.214402 -0.021795 -0.178962 0.042988 -0.086986 0.005161 0.007461 -0.274131 0.304957 0.742329 0.204778 0.329496 0.056416 -0.410458 0.038124 -0.001664 -0.303175 0.243089 -0.802823 0.056122 -0.365249 0.364215 0.120741 -0.129681 -0.282757 -0.458731 -0.038231 -0.071226 -0.429603 -0.356103 0.070208 0.270122 0.026186 0.269200 0.088144 -0.570058 0.516765 0.108916 0.310700 -0.513691 -0.174627 0.360458 -0.113581
ONE -0.151311 -0.074303 0.218312 -0.270948 0.352483 -0.691924 -0.209921 -0.334224 -0.188329 0.471120 -0.094628 0.054164 -0.096669 0.123135 -0.115875 -0.146328 0.175426 0.408790 -0.179191 0.360427 -0.098460 0.095939 -0.151737 0.545657 0.167028 -0.874086 0.324837 -0.042939 -0.069954 0.035642 0.310056 0.181933 -0.060907 0.066990 -0.015260 0.333574 -0.277587 0.119618 -0.339580 -0.051016 0.261503 0.058943 -0.062353 -0.408118 -0.305183 0.683358 0.268720 -0.065500 -0.187682 -0.048181
THE -0.523050 -0.529846 0.418273 -0.756435 0.182878 -0.223570 0.307674 -0.108395 -0.662737 0.201150 0.030856 -0.346205 0.070211 0.459217 -0.898036 -0.314528 0.765142 0.002638 0.373333 0.345953 -0.334863 0.247484 0.308152 0.142378 -0.290567 -0.932383 0.024259 0.262934 -0.025077 0.225231 -0.268074 0.205391 0.049773 0.077939 -0.118646 -0.292451 -0.098983 0.719473 -0.046153 -0.255111 -0.050826 0.169841 -0.889593 0.368669 -0.235456 0.384242 0.188323 -0.663386 -0.289665 -0.380543
BOY -0.030228 0.246119 -0.000604 -0.508462 0.345814 -0.453219 0.429648 -0.021242 -0.009626 0.213902 0.128486 0.069685 0.602111 -0.067480 0.292479 -0.243791 0.169616 0.030388 0.070832 0.074412 -0.004024 0.408024 0.233134 0.217215 0.361041 -0.552330 0.114018 -0.312562 -0.285694 0.182966 0.204000 -0.613171 -0.184555 0.442869 0.097820 -0.105311 0.330272 0.551432 0.311365 -0.221702 -0.012632 0.595203 -0.273595 -0.000483 -0.060591 -0.055205 0.072947 -0.404876 0.189696 -0.226634
WHO 0.267123 -0.502390 0.445130 -0.180476 0.092755 0.049100 -0.104260 -0.329326 -0.176319 -0.107002 -0.275180 0.274801 0.457923 0.421761 -0.267494 -0.006539 -0.115435 0.134338 0.266222 -0.236069 0.240330 0.441668 -0.240471 0.294836 0.044260 -0.032951 0.112022 0.070145 0.389610 0.081005 -0.348463 -0.252496 -0.437594 -0.406219 0.265819 -0.377670 0.117325 -0.133682 0.330461 0.011602 0.071723 -0.005419 -0.004289 0.254013 -0.030860 0.248650 -0.291920 -0.097665 0.255599 -0.065125
LIVED -0.441259 0.375100 0.464549 -0.038821 0.013622 0.029791 -0.161145 -0.072082 -0.357419 -0.012289 0.460462 -0.048392 0.299561 0.028603 -0.152880 -0.119425 0.380919 -0.154051 0.166948 0.503272 -0.211451 0.093066 0.189112 -0.169229 0.496893 -0.165717 0.319455 0.361716 0.586194 0.217367 0.037627 0.283400 -0.204111 -0.253161 0.479558 -0.001690 0.107180 0.094586 -0.068767 -0.105415 -0.507112 -0.032432 -0.333609 0.182227 -0.450132 0.280221 -0.194190 -0.184187 -0.196051 -0.256749
Mr -0.381229 -0.240805 -0.358210 -0.626798 0.188786 -0.486816 0.057484 0.055231 -0.256822 -0.295969 0.419507 -0.065581 -0.164715 0.022315 -0.845964 -0.404539 0.276445 -0.214612 -0.490458 0.039408 -0.587083 -0.086464 -0.295203 -0.014278 0.058053 -0.391705 0.916782 0.156132 0.514264 1.411868 0.025152 0.045986 0.234954 0.296943 0.537821 -0.772872 -0.311096 -0.185098 1.182369 0.239518 -0.351556 -0.169892 -0.192608 0.018950 -0.173970 0.693662 -0.155969 -0.335456 -0.018035 -0.318403
Mrs -0.520037 -0.286074 -0.083124 -0.122689 0.088245 -0.287007 -0.448759 -0.017097 -1.010715 -0.171099 0.040729 -0.357732 0.294480 -0.029113 -0.524061 -0.352824 -0.006346 0.155441 -0.051642 0.417611 -0.442155 0.032325 -0.505174 0.672557 0.079551 -0.567858 0.307447 0.829271 0.762592 1.248853 0.005967 -0.250790 -0.270722 0.184179 0.462612 -0.278549 0.009952 0.161990 0.291551 0.606701 0.112389 0.010476 -0.280309 -0.048764 0.259410 0.092542 -0.178147 -0.288189 -0.451767 0.281164
Dursley -0.300517 0.041822 0.282400 -0.333451 0.089370 -0.941165 -0.056835 -0.472383 -0.222798 -0.606348 0.258649 -0.471952 -0.004913 -0.430787 -0.438693 -0.337022 0.471097 -0.094035 -0.429728 0.677834 0.364608 0.207624 -0.459570 0.693211 -0.112105 -0.372805 0.141977 0.221175 0.165070 0.598832 -0.081790 0.121909 -0.145926 -0.261233 0.309439 -0.586447 0.659145 -0.105600 0.150137 0.340073 0.313720 0.111830 -0.235371 0.162231 -0.693956 0.433833 -0.075472 -0.582895 0.277968 -0.239823
of -0.243102 0.013267 0.767018 -0.468741 -0.434880 0.547785 -0.212526 0.509622 -0.452998 -0.306623 0.454543 -1.306198 0.397983 0.227073 0.109763 -0.316751 0.256581 -0.499984 -0.100815 0.433314 -0.130061 0.154408 -0.227861 0.463825 0.285522 -0.400078 1.340067 0.449291 -0.270091 0.412623 0.029584 -0.238254 -0.742763 -0.369688 -0.387393 -0.029427 -1.144696 -0.692159 0.079953 -0.041653 0.240499 -0.041860 -0.730153 -0.165256 -0.577049 -0.245583 0.290661 -0.206920 -0.008001 -0.038621
number -0.596620 -0.377193 0.465949 -0.364014 -0.375823 -0.419375 -0.236420 0.382305 -0.410218 0.668319 -0.039110 -0.216492 0.135000 -0.001858 -0.372057 0.247720 0.037597 -0.020313 0.547600 0.236774 -0.556346 0.386499 0.106666 0.363733 0.440164 -0.573908 0.334957 0.026630 0.246329 0.696734 -0.011357 -0.509676 -0.246819 -0.179303 -0.480594 -0.300733 -0.670939 0.116952 0.071672 0.375867 0.148664 0.057615 -0.483000 0.453769 -0.017272 0.139327 -0.105536 0.122264 0.135665 0.223441
four -0.017390 -0.304224 -0.025438 -0.438894 -0.152623 -0.289311 -0.774969 -0.131948 -0.385638 -0.213775 0.548162 0.003047 0.353085 0.315733 -0.020096 -0.480477 0.888016 0.428905 -0.038010 -0.082032 -0.231232 0.551704 -0.387014 0.524700 0.382903 -0.627725 0.063021 0.071466 0.445313 -0.000845 0.072016 -0.327158 -0.476608 0.609750 -0.252362 -0.153709 -0.869254 -0.093509 -0.062857 -0.040283 0.070541 -0.193591 -0.475667 0.081493 0.065469 0.616367 -0.680853 -0.149552 0.011614 -0.385009
Privet -0.121412 0.296025 0.367849 -0.053910 -0.462087 -0.055319 -0.321122 0.090185 -0.604065 -0.503143 -0.157029 0.107576 -0.173710 -0.124433 -0.656052 -0.304282 0.942009 0.524736 0.260739 0.251224 -0.215700 -0.337231 -0.056550 0.032706 0.330414 -0.184968 0.784631 0.356851 0.242441 0.396152 -0.159532 -0.114116 -1.050190 0.295242 0.395536 -0.454506 -0.303736 -0.159052 -0.361406 0.689083 0.257530 0.130893 -0.636028 0.018458 -0.832844 0.034050 -0.173383 0.267287 0.184559 -0.227770
Drive -0.737781 -0.370249 0.171493 -0.153167 -0.182666 -0.084050 0.058089 0.014814 -0.221833 -0.035210 0.172398 -0.188597 -0.033414 -0.049138 -0.517658 -0.096539 0.233670 0.622327 -0.030387 0.382270 -0.008039 0.349006 -0.141233 -0.056877 -0.156775 -0.081613 0.017614 0.224013 0.367243 0.910532 0.335720 -0.229477 -1.018695 0.110306 0.505216 -0.820798 -0.117754 -0.218085 0.282131 0.750959 -0.058615 -0.144986 -0.778665 0.106672 -0.228936 -0.574863 -0.521351 -0.551718 0.181039 -0.200753
were -0.315977 0.045165 0.853312 0.426860 -0.090083 -0.259175 -0.084978 0.050979 0.103128 -0.343822 -0.203898 -0.848734 -0.042417 -0.149777 0.138427 0.234195 1.223469 -0.050441 0.016418 0.058536 -0.480339 -0.060209 -0.369570 0.368766 -0.448917 -1.154479 0.457886 0.276849 1.092705 0.137323 -0.143041 -0.453950 0.032823 0.582941 0.625857 -0.349235 -0.894860 0.074371 0.833727 -0.483897 -0.484976 0.056997 -0.744541 0.373848 0.794738 -0.061708 -1.203052 0.175050 -0.357037 0.332827
proud -0.274076 0.048759 0.678044 -0.322180 0.640421 -0.413946 -0.249287 -0.202294 -0.127891 0.095290 0.206597 -0.432264 -0.172214 -0.238279 0.192264 -0.546575 0.353764 0.021541 -0.378997 0.154652 0.018697 0.070220 -0.170092 0.167323 0.209157 -0.631647 0.585616 -0.294694 0.137783 0.276226 -0.051110 -0.444360 -0.161913 0.148670 -0.251102 -0.499535 -0.097587 -0.148626 0.391785 0.422294 0.123928 0.359883 -0.402474 -0.220814 -0.113739 -0.155753 0.068886 -0.401369 -0.305069 -0.223836
to -0.390382 0.157732 1.008197 -0.234826 0.023230 -0.287810 -0.531877 -0.369551 -0.633681 0.473955 0.063945 -0.469558 -0.598173 -0.181986 -0.311345 -0.529622 0.164578 -0.271739 -0.154615 0.307822 -0.066980 0.092789 -0.360467 0.207569 0.104669 -0.637288 0.063019 -0.380192 -0.382589 0.610157 0.672749 -0.600301 0.200131 0.541043 0.998993 -0.452185 -0.298180 -0.385684 0.111870 0.569783 0.019704 0.578915 -1.053060 -0.165421 -0.280283 0.201881 -0.722489 -0.793540 -0.409463 -0.181721
say -0.230789 0.168257 0.824258 -0.801503 -0.030755 0.240617 -0.065342 -0.074399 -0.082330 0.006042 0.411003 -0.171310 -0.320576 -0.375985 -0.090987 0.099564 0.796927 -0.107391 -0.546073 0.727078 -0.059176 -0.030371 -1.140495 -0.014103 -0.264851 -0.822792 0.341936 0.080728 -0.049093 0.353430 0.235046 -0.127967 -0.334861 0.140328 -0.268505 -0.408257 -0.661563 0.400132 1.225521 0.395113 -0.157350 0.233859 -0.466253 0.150221 -0.473038 -0.009970 -0.623010 -0.657350 -0.346449 -0.334079
that -0.559878 -0.501493 0.585141 -0.222568 0.056070 -0.177688 -0.538866 -0.412532 0.027703 -0.628664 0.370823 -0.196706 -0.103070 0.095599 0.261387 -0.238126 0.727141 0.055057 -0.476142 0.444758 -0.205266 0.282869 -0.449105 0.813417 -0.335479 -0.732098 -0.131451 0.284748 0.338665 0.249227 0.413817 -0.220894 -0.428420 -0.610659 0.067645 -0.773721 0.003874 -0.237875 0.709409 -0.170344 0.065815 0.095532 -0.226923 0.109413 -0.629608 -0.084216 -0.108815 -0.671601 0.079938 -0.286833
they -0.035885 -0.105666 0.759247 -0.237209 -0.353586 -0.438754 -0.257492 -1.197787 0.291012 -0.254935 -0.165981 -0.305826 0.334723 -0.989755 0.149521 0.070959 1.152500 -0.077181 -0.681463 0.512873 -0.168831 0.055054 -0.353674 0.247333 -0.117492 -1.224400 0.299397 1.031117 0.234835 1.060510 0.349712 -1.258824 -0.906489 0.287383 0.096055 -0.436039 -0.262516 0.132034 0.114586 -0.363657 0.040998 -0.239740 -0.235710 0.351866 0.166935 0.463873 -0.475855 0.029089 -0.934074 -0.136540
perfectly -0.186898 -0.023539 0.633700 -0.646835 -0.133724 0.104283 -0.145639 -0.029875 -0.194538 -0.190176 -0.122867 0.225372 -0.166890 -0.239740 0.056401 -0.254359 0.455777 -0.230425 0.071006 -0.000093 -0.258090 0.148501 0.053733 0.477507 0.868908 -0.551803 0.782406 0.499428 0.024242 0.213921 0.031384 -0.278010 -0.365198 0.398667 -0.200005 0.093980 -0.067494 0.361140 0.550145 0.370850 -0.219532 0.402394 -0.223878 0.318451 -0.266092 0.289763 -0.271380 -0.111289 -0.051302 0.046809
normal 0.026078 -0.148135 0.285170 -0.510536 0.298604 -0.467187 -0.130218 -0.055017 -0.378700 0.082226 0.193029 -0.266354 0.034342 0.004503 -0.078398 0.086629 0.387805 0.456592 -0.227426 0.493842 0.209364 -0.098199 -0.196093 0.606482 -0.132887 -0.619679 -0.115946 0.033834 0.054306 0.492107 0.390020 -0.318319 -0.410538 -0.017576 0.641795 -0.513048 -0.117841 -0.284149 -0.019604 0.650337 -0.356654 -0.477779 -0.319650 0.242798 -0.234800 0.503652 -0.593090 -0.418673 0.118620 -0.289144
thank -0.385569 -0.035312 0.398274 -0.634158 0.098184 0.213853 0.272972 0.043587 -0.269912 -0.860005 0.042979 -0.125498 -0.023233 -0.097916 -0.203451 -0.547562 0.568047 0.064597 -0.249793 0.005879 -0.464500 -0.382756 -0.109714 0.007898 0.168648 -0.333663 0.307042 0.506504 0.252503 0.372710 0.404984 -0.137823 -0.180242 0.333614 0.523682 -0.498709 -0.188668 -0.040541 0.273982 0.694640 -0.238251 0.100619 -0.238642 0.280222 -0.659671 0.205138 0.099472 -0.033060 -0.199568 -0.451629
you -0.174266 -0.300512 0.707915 -1.221175 0.185230 -0.600152 -0.203836 -0.723338 0.408704 -0.075682 0.204772 -0.514180 -0.402214 -0.198703 0.037616 -0.741769 0.965108 -0.137185 0.203109 0.769749 -0.319331 -0.091169 -0.455270 -0.098614 0.293194 -0.387892 0.130129 0.358524 0.029715 0.506249 0.346193 -0.398542 -0.185462 -0.177099 -0.055033 -1.340169 -0.551088 -0.113859 0.665469 0.517822 0.048785 -0.019826 0.025687 0.366533 0.073991 -0.135001 -0.605474 0.014850 0.111678 0.138101
very -0.163923 -0.178932 0.728702 -0.519948 0.649164 0.566959 -0.114830 0.124487 -0.426356 -0.466751 0.437214 -0.120550 0.690140 0.347946 0.038586 0.405151 0.244426 1.018378 -0.261313 0.180160 -0.373911 0.241735 -0.694867 0.659724 0.092626 -0.804679 0.524941 1.011294 0.475891 -0.175922 0.193543 -0.796261 -0.902745 -0.306751 0.246606 -0.117257 0.353438 -0.731026 0.616065 0.715388 -0.086510 0.085292 -0.420677 -0.033243 0.325658 0.160650 -0.795757 -0.022071 -0.315244 -0.241818
much -1.054403 -0.426705 0.183167 -0.581500 0.143733 0.045587 -0.247990 -0.616874 -1.057748 -0.219050 -0.519369 -0.278846 -0.514200 -0.073648 0.202139 0.036219 0.691246 0.046603 -0.371659 0.131646 0.247966 -0.000840 -0.344382 0.253600 -0.149972 -0.681891 0.528310 0.141337 0.195072 0.489079 0.325652 -0.430802 -0.758922 0.060555 -0.011445 -0.725995 -0.748232 -0.628579 -0.003773 0.369138 -0.577119 -0.107595 -0.190640 0.545769 -0.371331 0.938281 -0.862503 -0.004435 -0.864707 0.008422
They 0.591216 0.621652 0.867769 -0.341635 -0.067985 -0.686477 -0.384940 -0.453040 -0.772301 -0.264260 -0.268367 -0.363040 0.145902 -0.133130 0.097990 -0.072970 0.997973 -0.013408 -0.671091 0.765326 -0.078056 0.114208 -0.466746 0.556808 0.167026 -1.049951 0.641048 0.354262 0.118783 0.941061 -0.249675 -0.694986 -0.292808 -0.005530 0.086094 -0.023973 0.341979 -0.089124 -0.342751 -0.554050 -0.071949 0.104128 -0.193332 0.257852 -0.404051 0.246458 -0.589761 0.070013 -0.856867 0.619793
last 0.019850 0.068126 1.106278 -0.399267 -0.199652 -0.524292 -0.719523 -0.315924 -0.431020 -0.415975 0.573366 -0.176438 0.599545 0.810031 -0.018076 0.353163 0.324818 0.261862 -0.612762 0.040425 -0.300388 -0.358149 -0.528685 0.700898 -0.150225 -0.373461 0.723397 0.434550 0.410229 0.320408 -0.125622 -0.072347 -0.846360 -0.079742 0.125286 -0.784448 0.191246 -0.527836 0.673184 0.280555 -0.136905 0.010044 -0.497661 0.369384 0.225798 0.230108 -0.108562 -0.199836 -0.187975 0.160351
people -0.764952 -0.112087 0.912283 -0.339675 -0.113933 -0.144729 0.259600 -0.228279 -0.101366 0.119328 0.099650 -0.472803 -0.167131 0.074894 0.152690 -0.287849 0.812915 0.000300 -0.354015 0.766276 0.356151 0.345800 -0.200181 0.420530 0.201170 -0.543860 1.122922 0.618117 0.249848 0.493351 -0.268961 0.069618 -0.644087 0.034351 0.709477 -0.360532 -0.131517 -0.271295 0.135958 0.204855 -0.259815 0.195762 -0.183683 0.916500 -0.201989 0.111471 -0.145900 0.360642 -0.367325 -0.004716
youd -0.349756 -0.195415 0.948470 -0.905988 0.051924 -0.034755 -0.416066 0.095384 -0.260912 -0.040912 0.783352 -0.244102 -0.245023 -0.540525 -0.201110 -0.584053 1.160415 0.179259 -0.157189 -0.291933 0.460648 0.372481 -0.058775 0.303203 -0.254165 -0.442980 0.061424 -0.446845 0.370179 0.531749 0.179794 -0.480352 -0.207303 0.027239 0.214091 -0.975793 -0.458076 -0.071104 0.276555 0.331629 -0.258561 0.244217 0.371702 0.296907 -0.698473 0.128523 -0.766511 -0.376086 -0.543110 0.153914
expect 0.015367 -0.343278 0.837823 -1.176790 0.028279 -0.286137 0.029612 0.142476 -0.155558 -0.026893 -0.195296 0.208730 -0.190124 -0.359111 -0.007678 -0.081777 0.808443 -0.106753 -0.254042 0.356027 -0.081850 0.233119 -0.545873 0.362914 0.168810 -0.501584 0.246753 -0.032123 -0.150278 0.245654 -0.000853 -0.384550 -0.001813 0.005382 0.075642 -0.278193 -0.408458 0.052485 0.484062 0.474466 -0.091754 -0.076025 -0.182954 0.239843 -0.544535 -0.091354 -1.097147 -0.122705 -0.241551 -0.319459
be -0.825427 0.304450 1.130446 -0.568860 0.535172 -0.218655 0.103383 -0.476609 0.124893 0.046695 -0.238235 -0.369944 -0.988214 0.457011 -1.008291 -0.362070 1.046605 -0.172033 -0.054913 0.005637 0.129088 -0.048206 0.153846 0.145691 -0.534880 -0.447734 0.421401 0.702047 -0.093678 0.193476 -0.135326 -0.407932 -0.830965 0.518989 0.195980 -0.267287 -0.142746 -0.085312 0.522971 0.587167 -0.394347 0.353535 -0.278796 -0.159997 -1.031980 0.093362 -1.288123 0.006354 0.562722 0.010088
involved -0.372715 -0.606473 0.874555 -0.050585 0.474726 0.018987 0.420943 0.112266 -0.240945 0.205086 0.396686 0.004296 0.076888 -0.290397 -0.225157 -0.065569 0.406042 -0.173383 0.233668 0.510838 -0.070298 0.381479 0.019377 0.438049 0.155405 -0.634888 0.062315 0.187409 0.471039 0.236412 -0.165279 -0.262521 -0.438535 -0.101163 -0.159456 -0.184318 -0.406398 0.171601 0.496281 0.247408 -0.030296 -0.242774 -0.154725 0.358508 -0.265137 0.041814 -0.123798 -0.212527 -0.165307 -0.273253
in -0.260006 -0.279008 1.605201 -0.309316 -0.184129 0.514959 0.172608 0.292438 -0.493574 -0.423881 0.288025 -0.576789 0.670692 0.248509 0.355417 -0.255931 0.528299 0.037649 0.029690 0.312493 0.378227 -0.127439 0.263672 0.671493 -0.057295 -0.586502 0.260052 -0.119849 0.186829 1.029452 0.108576 -0.245367 -0.406940 0.034307 0.335329 0.098007 0.093761 -0.106976 -0.397729 0.643118 0.731311 0.474447 -0.682980 0.211532 -0.005824 -0.210516 -0.268842 -0.554964 0.136334 0.163810
anything -0.101193 -0.166841 1.163518 -0.846949 -0.270456 -0.743311 0.182324 -0.684949 -0.409294 -0.044904 0.446243 -0.163599 -0.586085 -0.248371 0.064377 -0.263946 0.633756 0.163863 -0.348448 0.445917 0.434596 -0.362313 -1.014556 0.366547 0.217406 -0.517205 0.339805 0.455897 0.458178 0.485975 0.162791 -0.799995 -0.515249 0.271546 0.449410 -0.913558 -0.167491 0.060805 0.013233 0.826357 0.087102 -0.006059 0.170587 0.012083 -0.697109 0.009966 -0.609422 -0.299428 -0.415430 -0.005698
strange -0.543418 0.085274 0.396410 -0.650966 0.576029 -0.192578 -0.062489 0.179123 0.132935 -0.226880 -0.148288 -0.151828 -0.278543 0.106682 0.358290 -0.114284 0.398631 0.902617 -0.187731 0.512660 0.132803 0.000851 -0.450464 0.036101 0.288995 -0.823662 0.474632 0.420836 0.439462 0.041660 -0.258576 -0.141173 -0.689493 -0.081738 0.020415 -0.305668 -0.304209 -0.200884 0.173671 0.448208 -0.310020 -0.085383 -0.177118 0.583427 -0.257743 0.237940 -0.317497 -0.077139 0.190809 -0.447555
or -0.897830 0.053890 0.461707 -0.839434 0.274956 -0.465876 0.563220 0.230521 -0.379305 -0.232559 0.243840 -0.128344 -0.181503 -0.185789 0.069904 -0.196220 0.146479 -0.147522 0.721425 0.076985 0.674442 -0.528021 -0.390812 0.693268 0.364281 -0.867491 0.295976 0.474183 0.459203 0.202602 0.456686 -0.524681 -0.288996 0.464591 -0.029775 -0.566895 -0.397771 -0.445173 0.000912 0.155955 -0.328108 0.304312 -0.262419 0.181752 -0.386977 0.078330 -0.212485 -0.318631 -0.597837 -0.071238
mysterious -0.544273 -0.246597 0.536687 -0.358495 -0.117889 0.161606 -0.352667 0.013853 -0.462075 0.040605 -0.037941 0.234294 -0.047342 0.150901 -0.093384 -0.091957 0.244100 0.450679 -0.137992 0.342062 0.227861 0.031970 0.088234 0.053695 -0.159485 -0.619001 0.425041 0.023848 0.219797 0.370584 0.364425 -0.265674 -0.515715 0.035735 0.070519 -0.130482 -0.034144 -0.087548 0.421119 0.528420 0.432876 0.145237 -0.425785 -0.439488 -0.374311 0.324649 -0.502713 -0.310802 -0.039373 -0.025963
because 0.010745 -0.016820 0.628075 -0.438554 0.647592 -0.353425 -0.101846 -0.211240 -0.418982 -0.330057 -0.336146 -0.411635 0.258258 -0.362354 0.066710 0.062277 0.660611 0.024520 -0.002235 -0.073802 0.254800 0.488136 -0.757661 0.637351 -0.676255 -0.523380 0.324286 0.324717 0.447763 0.755911 0.055943 -0.547309 -0.416212 -0.375975 0.106299 -0.322178 0.151299 -0.365314 0.836755 0.346942 0.419883 0.224574 -0.257632 0.274035 -0.308087 0.393024 -0.757215 -0.275491 -0.177303 -0.323494
just -0.299781 -0.691398 0.987795 -0.428182 0.025259 -0.152588 0.260729 -0.094538 0.074474 -0.228538 0.133835 -0.769593 -0.228080 -0.297103 0.407885 0.098700 0.762354 0.217451 -0.729054 -0.149834 0.112292 -0.069007 -0.181373 0.275162 0.099532 -0.564606 0.696916 -0.164500 0.079750 0.844178 0.053237 -0.197118 -0.389962 -0.272822 0.627346 -0.169189 0.054793 -0.299732 0.538128 0.285691 -0.007842 0.272504 -0.260634 0.266456 -0.996467 0.084610 -0.822574 -0.641890 -0.230685 -0.067898
didnt -0.532147 0.753144 1.012140 -0.819348 -0.322621 -0.534707 -0.459564 0.244776 -0.511309 -0.616591 -0.749325 -1.137170 -0.085161 -0.600305 0.432722 -0.065187 0.525562 0.059653 0.234513 1.003535 -0.057565 -0.182493 -0.173358 0.627856 0.637351 -0.678734 0.086281 0.210934 0.186376 -0.296644 0.296080 -0.348306 -0.209182 0.112969 -0.355742 -1.522759 -0.047324 -0.524419 0.718591 0.816609 0.153622 -0.201797 0.689405 0.144601 -0.054806 0.460388 -0.944489 -0.448329 -0.718704 -0.182440
hold -0.378604 -0.348658 0.665510 -0.510788 0.210869 -0.187947 -0.066283 -0.017678 -0.084106 0.182335 0.103591 -0.137652 -0.367790 -0.113779 -0.378085 -0.086401 0.617573 0.380412 -0.264021 0.044633 -0.155126 -0.072845 -0.161263 0.708717 0.115404 -0.438233 0.515311 -0.241739 -0.262819 -0.106168 0.344777 0.099620 -0.309690 0.012026 0.282195 -0.536258 -0.486676 -0.054054 0.206924 0.305060 0.200140 0.321566 -0.809455 0.195594 -0.433755 -0.358402 -0.413383 -0.504890 -0.071920 -0.273383
with -0.201828 0.239050 0.856287 -0.349712 0.427948 0.319513 -0.232777 0.348922 -0.391621 -0.471253 -0.393343 -0.712183 -0.176471 0.200055 0.902716 -0.106149 0.409751 -0.357583 0.746970 -0.117255 -0.164275 -0.101776 0.012428 0.675084 0.438522 -1.015939 0.254640 0.013261 0.674790 0.625521 -0.006413 -0.337565 -0.275207 0.090824 0.294776 -0.195956 -0.222499 -0.022727 -0.107030 0.074246 0.001054 0.285461 -0.677707 0.073675 0.193377 -0.201482 -0.074348 -0.378358 -0.151216 -0.097352
such -0.226623 -0.373507 0.520423 -0.853212 0.642232 -0.127969 0.019017 0.236470 0.014478 -0.386545 -0.044710 -0.055968 -0.225406 0.207383 -0.112200 0.137076 0.266731 0.097997 -0.005258 -0.299147 0.090478 -0.179391 -0.530908 0.619046 0.272451 -0.520276 0.420910 0.303011 0.009361 0.414438 0.174141 -0.151474 -0.423589 0.135797 -0.171135 -0.578063 -0.507636 0.198831 -0.091657 0.410426 0.149928 0.014705 -0.373789 0.449143 -0.668803 0.111420 -0.853561 -0.340223 0.157655 -0.361412
nonsense 0.070996 -0.374558 0.600192 -0.614407 -0.145432 -0.549133 0.076813 -0.071264 -0.292289 -0.174684 -0.099302 -0.379344 -0.126716 0.598568 -0.144049 0.563707 0.454023 0.173241 -0.353142 0.526185 0.010711 -0.369298 0.061206 0.091889 0.212025 -0.611476 0.050806 0.335745 0.188678 0.090285 0.009781 -0.168149 -0.145865 -0.173990 0.063655 -0.263990 0.136309 -0.339814 0.181097 0.490412 0.124689 0.497636 -0.087943 0.178329 0.209386 -0.314001 -0.385413 -0.312828 -0.100005 -0.413709
was -0.993526 0.406740 0.895460 -0.049375 0.454395 0.260278 0.060337 0.206773 -0.009040 -0.632465 0.225063 -0.878981 -0.302728 -0.267614 -0.406555 0.367760 0.901494 0.113952 0.194989 -0.323460 -1.122282 -0.032316 -0.273958 0.240419 -0.474783 -0.785334 -0.412090 0.345663 0.731103 0.030455 0.167999 -0.362254 -1.041696 -0.523603 0.545074 -0.698375 -0.254334 -0.938460 0.560783 -0.181089 0.097660 0.717218 -0.294786 0.173493 -0.429939 -0.169983 -0.341298 -0.228581 0.182247 -0.209513
director 0.049444 -0.447118 0.148451 -0.109260 -0.634235 0.204655 -0.011896 -0.233703 0.126162 -0.216076 -0.275964 0.321223 0.102986 -0.149023 0.052889 0.476413 0.060820 -0.067522 -0.269199 0.373044 -0.334000 0.134423 -0.341396 0.215282 0.070018 -0.868445 0.378670 0.063554 0.217538 0.283725 -0.017665 -0.076427 -0.022746 0.023919 0.046387 -0.551171 0.115808 -0.355248 0.383577 0.212059 -0.106527 0.179654 -0.480967 0.288664 -0.539266 0.046065 -0.344006 -0.170937 0.161701 -0.292676
a 0.103951 -0.069256 0.726259 -0.348258 0.246437 -0.012415 -0.110491 0.209513 -0.306178 -0.560917 -0.140802 -0.681080 0.570821 0.686041 0.746426 -0.558158 -0.118363 -0.083224 -0.301666 -0.232332 -0.370746 0.315494 -0.408687 0.582950 -0.167208 -0.913615 0.398975 0.577013 0.021138 0.220998 0.580960 0.053917 -1.138038 -0.256414 0.332469 -0.385514 -0.659615 -0.239658 -0.454393 1.011258 0.297046 0.371199 -0.191292 0.076063 0.115438 -0.180803 -0.909344 -0.629958 -0.269704 0.085366
firm -0.223540 -0.287588 0.489995 -0.280696 -0.207702 0.054885 -0.331527 -0.616064 -0.227851 -0.186136 0.117095 -0.189783 0.000125 -0.025117 -0.108421 0.135395 0.024942 0.345882 0.268576 0.243563 -0.206197 0.506725 -0.070301 -0.335768 -0.075336 -0.890197 0.628749 0.304572 -0.179375 -0.168072 0.276681 0.054440 -0.265819 0.317798 0.203436 -0.027049 -0.218206 -0.151007 0.041146 0.079449 -0.032078 0.264477 -0.047500 0.663886 -0.429391 0.119760 -0.318346 -0.432911 -0.077069 0.356576
called -0.493535 0.285943 0.615572 -0.876359 0.161718 -0.370798 -0.233364 0.206067 -0.350784 0.301019 0.002118 -0.432356 0.068475 -0.261328 0.257138 -0.122152 0.412853 0.106659 0.034606 0.071441 -0.190599 -0.157191 -0.044653 0.236947 0.367098 -0.327927 -0.136584 0.005162 0.386092 0.846315 0.146775 0.099016 -0.342988 0.220562 0.280956 -0.390431 -0.860644 -0.329760 0.645054 0.383291 -0.075341 0.366045 -0.462375 0.591328 -0.271635 0.380533 0.099926 -0.313914 -0.006062 -0.368097
Grunnings -0.029138 -0.255145 0.246155 0.206684 0.077750 -0.277196 0.145531 0.140483 -0.363557 -0.044165 0.229880 -0.025320 0.038480 -0.416635 -0.541184 0.091999 0.134684 -0.062494 -0.058183 -0.071487 -0.283249 0.085334 0.218671 -0.017107 -0.262862 -0.237842 0.567154 0.716241 -0.110007 -0.038962 -0.465521 -0.576224 -0.399675 -0.291621 -0.499359 -0.187380 -0.429207 -0.182728 -0.055166 -0.236391 0.085849 0.084091 -0.901612 0.104217 -0.211691 0.427520 -0.043980 -0.040925 0.236113 0.192092
which -0.010809 0.216285 0.983332 -0.219218 0.312582 -0.024573 -0.458369 0.174561 -0.455334 -0.302413 -0.047093 -0.037825 0.438435 -0.030180 0.183840 0.191889 0.321495 0.125009 0.013356 0.449563 -0.158694 0.927609 -0.265157 0.433383 -0.670154 -0.802758 0.341483 -0.318323 0.062331 0.774501 0.269113 -0.368722 -0.219888 -0.021821 -0.102810 -0.488255 -0.363811 -0.244722 -0.087863 0.068836 0.350506 0.202520 0.014296 0.301617 -0.598555 -0.099225 -0.587520 -0.062761 0.450429 -0.201849
made -0.023317 0.411581 0.596353 -0.472893 -0.105695 -0.363815 0.202574 0.290594 0.000036 -0.712492 -0.420789 -1.130713 0.195255 -0.282507 0.196616 -0.400858 -0.020822 0.223601 0.046722 -0.043070 0.018537 -0.275194 -0.500293 0.662799 0.059780 -0.807854 0.191575 0.282097 0.507418 0.439942 0.389350 -0.419122 -0.335590 -0.142132 0.726236 -0.800304 -0.337862 -0.421846 0.517454 -0.055781 0.065658 -0.275738 -0.774329 0.153108 -0.580358 0.136256 -0.179758 0.030443 0.080065 -0.311225
drills -0.290159 -0.154444 0.340454 -0.332442 -0.475450 -0.064394 -0.169797 -0.006019 -0.457510 -0.096486 -0.166240 -0.136466 0.017351 0.342703 0.045035 -0.253202 0.434732 0.330571 0.120732 0.258765 -0.346509 0.069128 0.084220 0.286294 -0.133335 -0.325285 0.117237 0.091429 0.283366 0.059053 -0.202191 -0.359334 -0.901826 -0.169390 0.269595 -0.217161 -0.360545 -0.100787 -0.047294 -0.045902 0.019839 0.269971 -0.242567 0.264830 -0.575169 0.164895 -0.360775 -0.064021 0.184270 -0.287501
He 0.511586 0.641260 0.640794 -0.624217 0.248997 -0.633284 -0.070723 -0.271058 -0.964199 -0.688724 0.031295 -0.703691 0.246883 -0.477551 -0.028306 0.250253 0.647109 0.776682 -0.381914 0.296768 -0.271125 0.204204 -0.159789 0.316818 0.019564 -0.492048 0.187044 0.263609 0.571084 1.104347 0.453241 -0.846720 -0.043218 -0.551141 0.084165 -0.161969 0.178656 -0.188174 -0.778747 -0.079267 0.269806 -0.008614 -0.503101 0.313377 -0.299113 -0.056233 -0.781450 -0.212721 -0.249222 -0.540175
big -0.378579 0.307172 0.628862 -0.478609 0.453389 -0.323051 -0.734218 0.046641 -0.124406 0.016029 -0.259937 -0.092771 -0.193049 0.238987 -0.086822 -0.038921 0.239065 0.003064 -0.280927 -0.146765 0.022115 -0.231488 -0.707494 0.124360 -0.054735 -0.699840 0.607634 0.290396 0.088483 0.827394 -0.128748 -0.075047 -0.504298 -0.088374 0.480403 -0.421527 -0.008228 0.415712 0.053902 0.379847 0.028652 -0.393186 -0.641938 0.133229 -0.221538 0.431543 -0.670965 -0.187174 0.472446 -0.248339
beefy 0.227122 -0.474479 0.195271 -0.078294 0.091126 -0.115279 -0.116150 -0.108389 -0.488404 -0.140183 0.028134 0.049772 0.278121 0.115335 -0.247165 0.112201 -0.276271 -0.234580 0.096353 0.126750 -0.194783 0.228257 0.036965 -0.306673 0.178917 -0.501497 0.121824 -0.100283 0.080410 -0.357572 0.604152 0.300707 -0.622902 0.157771 -0.012536 -0.131983 -0.189370 0.152597 -0.081558 0.298963 0.351487 0.159607 -0.317575 0.070649 -0.558049 -0.115640 -0.038835 -0.181762 -0.176476 -0.542077
man -0.178954 -0.221039 -0.129258 0.056424 0.023716 -0.147197 -0.619468 0.172553 -0.011606 -0.082754 0.074918 -0.172789 -0.168768 -0.165566 0.063756 0.714545 0.523312 0.106349 0.031256 0.063147 -0.197790 0.115858 -0.811827 0.492012 0.336942 -0.939471 0.406434 0.183595 0.629050 0.202174 -0.433601 0.165538 -0.314168 -0.294752 0.265095 -0.711311 -0.102450 0.232949 -0.073217 0.846555 0.409419 0.644805 -0.444673 0.513758 -0.631766 0.196705 -0.517524 -0.048020 0.034261 -0.144555
hardly -0.180054 0.109183 0.470064 -0.436745 -0.202613 -0.311907 0.215531 -0.414442 0.035145 -0.279109 0.150762 -0.604819 0.085345 -0.589027 -0.027075 -0.439981 0.777201 0.423465 -0.062317 0.013939 -0.164052 0.010916 -0.687279 0.772640 0.564970 -0.650463 0.709616 0.226136 0.173655 0.732299 0.243961 -0.024767 -0.550857 -0.145811 0.181239 -0.402176 -0.243332 0.217376 0.736011 0.287231 0.256111 -0.096284 0.207884 0.092465 -0.535859 0.226602 -0.250001 -0.235949 -0.014223 -0.204089
any -0.360422 -0.180565 0.256011 -1.176978 -0.398004 -0.821717 -0.261878 -0.112258 -0.219545 -0.067396 0.398404 -0.387980 -0.134954 0.056274 0.337585 -0.662304 -0.066641 0.220799 -0.463766 -0.030376 -0.060669 -0.284703 -0.089613 0.350092 0.100227 -0.529124 0.347074 0.244542 0.167851 0.679342 0.840470 -0.438938 -0.391848 0.527667 0.187044 -0.572846 -0.223881 -0.684063 0.312436 0.803839 -0.229265 -0.075316 -0.540952 -0.052650 -0.798969 0.336496 -0.537777 -0.349087 -0.728729 0.026680
neck -0.327792 0.273767 0.503369 -0.216897 -0.036503 -0.575393 0.089393 -0.123120 0.093335 0.474713 -0.020484 -0.771712 0.490491 -0.426971 -0.080503 -0.001678 0.164531 0.539819 -0.121224 0.488361 -0.212664 0.568218 0.318729 0.434963 0.738887 -0.692410 0.059436 -0.063499 0.602482 0.753645 -0.027552 -0.013438 -0.624389 -0.126887 0.064527 -0.470124 -0.104916 0.060915 0.322264 0.054197 0.125693 0.103428 -0.815150 0.332458 -0.261551 0.102969 -0.015863 -0.268540 -0.102043 -0.129102
although -0.315529 -0.194022 0.504473 -0.605822 0.627522 -0.421734 -0.241007 0.308768 -0.434947 0.032902 0.060671 -0.340725 -0.118709 -0.583205 0.109221 -0.538560 0.676951 0.346579 -0.076224 0.127649 0.187658 -0.137505 -0.389168 0.589428 0.285527 -0.772791 0.254269 0.215487 -0.035792 0.073369 -0.194012 -0.168977 -0.342243 0.404885 0.659055 -0.567469 -0.612888 0.382221 0.145447 0.292982 0.074747 0.091470 -0.009287 0.396129 -0.501092 -0.051753 -0.081397 -0.276764 -0.203179 0.019597
he -0.222081 -0.254057 0.794471 -0.800652 -0.387940 -0.279519 -0.418608 -0.704234 -0.392903 -0.802499 0.187827 -0.721832 -0.032665 -0.615375 -0.024119 0.543617 0.590395 0.117864 -0.210677 0.397773 -0.400829 0.163768 -0.228369 -0.025261 0.010728 -0.623614 0.247722 0.718481 0.140636 1.042450 0.264035 -0.713341 -0.321915 -0.360859 -0.227725 -0.287955 -0.073085 -0.219188 -0.027294 0.096889 -0.067881 -0.010462 0.098729 0.095036 -0.972333 0.466478 -0.166876 -0.084804 -0.282473 -0.103432
did -0.072155 -0.234284 1.155483 -0.542747 -0.136596 -0.246528 -0.368195 -0.409698 -0.088838 -0.239208 -0.305628 -0.414751 0.108437 -1.140974 0.638017 -0.053362 0.809759 -0.134554 0.284711 0.152556 -0.189958 -0.674574 0.070805 0.532679 0.141962 -0.620346 0.698532 0.531200 -0.111243 -0.042867 0.354580 -0.332115 -0.394428 -0.003529 -0.218588 -0.948946 -0.748726 -0.102735 1.151657 0.294179 0.109680 0.249003 0.221670 0.110551 0.146735 0.256011 -0.799866 -0.709009 0.046178 -0.266549
have -0.508603 0.176534 0.922076 -1.120161 0.231279 0.597291 0.200863 -0.729492 0.271960 -0.198364 0.006724 -0.831069 -0.248158 -0.143338 -0.137988 -0.410222 1.015141 0.328299 -0.384270 0.216805 -0.000938 -0.042616 -0.494872 0.625413 -0.140223 -0.159795 0.807347 0.546478 -0.071815 0.018593 -0.005230 -0.622314 -0.450029 0.436191 -0.238956 -0.667331 0.276313 0.797679 0.382934 0.073425 0.069915 0.483133 -0.221732 -0.174941 -0.720185 0.180838 -1.085735 0.040811 -0.054857 -0.273329
large -0.053024 -0.075007 0.017629 -0.034243 0.144296 0.013977 -0.297790 0.376837 -0.060658 -0.094922 0.240042 -0.405592 0.399269 0.766988 -0.072544 0.133035 0.137976 0.522315 -0.279839 0.231506 -0.238531 0.075334 0.095860 0.543015 0.260894 -0.956671 0.360549 -0.103967 0.773888 0.403566 -0.073203 0.543470 -1.282378 0.279121 -0.014617 -0.672818 -0.635988 -0.000204 -0.731918 0.347724 0.413410 -0.220099 -0.741505 0.038625 -0.154475 0.213239 -0.595204 -0.226648 0.292552 -0.127172
mustache -0.276070 0.277730 0.582022 -0.275287 -0.010525 -0.413627 -0.233475 0.043911 0.016385 0.166602 -0.066337 -0.782567 -0.013578 0.088132 -0.367457 0.001326 0.464649 0.416431 -0.210201 0.142336 0.190362 0.234467 -0.078737 0.303935 0.113731 -1.174681 0.330484 -0.210593 0.137957 0.447194 -0.394230 -0.130071 -0.027236 0.078109 -0.071891 -0.199858 -0.176872 -0.103758 0.189212 0.128119 0.283857 -0.317735 -0.309594 0.656551 0.066986 0.036546 0.162586 -0.277623 -0.022775 -0.182643
thin -0.093360 0.021560 0.359942 -0.396777 -0.113013 -0.031728 -0.546613 -0.086256 -0.304028 -0.007137 0.553805 -0.691118 0.225720 -0.079391 -0.120240 0.394166 0.215482 0.625205 -0.085727 0.417428 -0.135386 0.181733 -0.483145 -0.062576 0.087557 -0.696078 0.210156 -0.226916 0.492027 0.077653 -0.032191 -0.108720 -0.828030 -0.244373 0.059884 -0.277223 -0.365477 0.520610 0.036934 0.417333 0.552467 0.158186 -0.536701 0.278453 0.043242 -0.119029 -0.393702 0.205758 0.444676 -0.032982
blonde -0.019416 -0.075707 0.330164 0.170650 -0.230711 -0.261526 -0.198937 -0.473002 -0.172600 -0.100990 -0.138848 -0.140844 -0.210068 0.215962 -0.472283 0.124244 -0.170035 -0.039871 -0.434668 0.491352 -0.143673 -0.223148 -0.185416 0.361614 0.396430 -0.554451 0.328759 -0.141368 0.247437 0.571503 -0.251479 -0.110366 -0.383054 0.000885 0.379100 -0.294875 -0.316820 -0.279114 0.132279 0.375013 0.505208 -0.053391 -0.328740 0.175442 0.130024 0.182470 -0.164690 -0.517351 0.000708 -0.346738
had -0.396028 0.098803 0.755114 -0.571848 0.244299 -0.001892 0.304718 -0.057871 0.025427 -0.711495 0.265111 -0.413077 0.191162 -0.567210 0.667913 0.140003 1.435814 1.187782 -0.546622 -0.258993 -0.153267 -0.231797 0.311426 0.499972 0.467642 -0.238119 0.891996 -0.061217 0.379114 0.127321 -0.097967 -0.822473 -0.520307 0.378048 -0.000193 -0.235635 0.197319 -0.426206 0.686008 0.210022 0.670397 0.113200 -0.666167 -0.612308 -0.215205 -0.014148 -0.691983 -0.682648 -0.285246 -0.363354
nearly -0.305670 0.076042 0.650065 -0.117906 -0.159263 -0.077977 0.020594 0.056399 -0.543810 -0.243008 -0.018798 -0.353940 0.288220 -0.522632 0.302504 -0.191806 0.360474 0.027327 0.207064 0.368306 -0.041345 0.269030 0.005675 0.352193 -0.044318 -0.156449 0.150856 0.098776 0.134015 0.714865 -0.536882 -0.500021 -0.807216 0.350179 0.141061 -0.402160 -0.123804 0.091747 0.300698 0.436974 -0.030883 0.261463 -0.637032 0.492235 -0.282244 0.413716 -1.244462 0.069779 0.504751 0.354424
twice -0.253059 0.184705 0.849763 -0.463656 0.438710 -0.211329 -0.286997 0.141626 -0.485967 -0.150001 0.020909 0.148201 0.004664 -0.103209 -0.032285 -0.349075 0.295417 0.292933 -0.289741 0.283720 0.062256 0.174051 -0.166790 0.351497 0.134725 -0.853584 0.355067 -0.057611 -0.027513 0.225114 -0.462014 0.091413 -0.453559 -0.248234 -0.315558 -0.318493 0.217550 -0.293626 0.336580 0.285485 -0.062116 0.167700 -0.114854 0.305542 -0.268956 0.021455 -0.605245 -0.396410 -0.048530 0.147972
usual -0.687868 -0.645308 0.469091 -0.479010 -0.074307 -0.336112 -0.208891 0.517630 -0.619116 0.264324 -0.338373 -0.186067 0.328157 0.021767 0.068910 0.087798 0.150455 0.537237 -0.514749 0.429703 -0.301501 -0.310411 -0.304983 0.103544 0.151124 -0.420633 0.130334 0.539209 0.440227 0.419470 -0.393606 -0.573146 -0.865970 0.023221 -0.024205 -0.149460 0.512828 0.227390 0.300570 -0.072484 -0.634113 -0.424792 -0.501370 0.055786 -0.482542 0.534695 -0.446456 -0.439749 0.232579 -0.132114
amount -0.142349 -0.075227 -0.260940 -0.553150 -0.106151 -0.089182 -0.165281 0.096523 0.058235 -0.424701 -0.007965 -0.353909 -0.281287 -0.013442 -0.234213 0.086163 -0.067866 -0.184869 0.025216 -0.132020 -0.309002 -0.327276 0.454358 -0.145856 -0.109755 -0.209989 0.076694 -0.077777 0.283325 -0.034232 0.083300 -0.413269 -0.508511 -0.031325 -0.249729 -0.109952 -0.208298 0.574406 -0.098945 -0.012253 -0.034036 0.318308 -0.377535 0.115725 -0.317443 0.068328 -0.130429 -0.245880 0.244372 0.429370
came -0.427478 -0.055476 0.162060 -0.273393 -0.705129 -0.302664 0.263578 -0.169951 -0.421581 -0.216722 0.257048 -0.100778 0.238947 -0.496196 -0.112655 0.213936 0.253589 0.207681 0.076917 0.204465 -0.358201 -0.132278 0.176517 1.082338 0.195903 -0.071620 -0.192845 0.424212 0.065917 0.657213 0.007442 -0.274340 -0.867895 -0.010594 0.378612 -0.751400 -0.729467 -0.081832 -0.109874 0.348379 0.312623 -0.067411 -1.289374 0.077100 0.356646 0.346223 -0.569036 -0.174765 -0.212406 -0.198789
useful -0.293103 -0.477336 0.841660 -0.649783 0.289098 -0.236899 -0.297898 0.021185 -0.517255 -0.163762 -0.476535 -0.025032 -0.089532 -0.184681 -0.250076 -0.043626 0.592834 0.189407 -0.185821 0.032896 -0.040707 -0.381755 0.052519 0.363439 0.120188 -0.570319 0.065529 -0.132356 -0.476649 -0.364323 0.384381 -0.304077 -0.855346 -0.059292 0.032182 -0.672379 -0.395318 -0.338131 0.317875 0.722545 -0.294608 -0.056597 -0.393319 0.095819 -0.556501 0.007931 -0.411226 -0.371507 -0.098319 -0.150425
as -0.428552 -0.606479 0.871865 -0.373271 0.439695 0.094563 -0.012955 0.167266 -0.582574 0.167376 -0.626623 -0.901229 0.000381 -1.146709 0.287486 0.478773 0.435040 -0.001113 -0.104474 0.446521 -0.003905 -0.711925 -0.110153 0.354864 0.160738 -0.939513 0.578558 0.789331 0.469309 1.245907 0.394646 -0.587012 -0.791271 -0.223596 -0.061928 -0.052499 0.399944 0.435198 0.059351 0.344826 -1.182381 -0.067171 0.337056 0.015716 0.027649 0.572760 -0.222969 -0.723379 0.200069 -0.131066
she 0.066890 -0.538540 0.666791 -0.690601 -0.041648 -0.523049 0.032662 -0.250355 -0.506436 -1.021764 0.352258 -0.586684 0.321728 -0.060527 -0.526166 -0.071875 0.735965 0.527263 -0.339157 0.349469 0.133061 -0.356729 -0.310461 0.001983 0.208463 -0.477836 0.102761 0.822497 -0.437115 1.032632 0.241645 -0.295298 -0.518605 -0.119351 0.600865 -0.584147 0.041395 -0.449217 -0.083464 -0.228168 -0.062409 0.341406 -0.264108 0.403887 -0.421101 0.647760 -0.275723 0.088381 -0.036011 -0.598367
spent -0.602662 0.357091 -0.218020 -0.576161 0.149590 -0.276424 -0.408741 -0.031049 -0.723182 -0.150081 -0.334149 -0.613981 -0.057777 -0.085132 -0.351464 -0.029188 0.679458 0.520786 -0.291622 -0.506619 0.103076 -0.150538 -0.050854 -0.047887 0.161253 -0.694545 0.238177 0.068079 0.130562 0.326781 0.076659 -0.597769 -0.659050 -0.246962 -0.341450 -0.320773 -0.463392 0.563259 0.238749 0.094301 -0.212972 0.124809 -0.394680 0.513024 -0.342137 0.016844 -0.398056 0.004024 0.320773 -0.238280
so -0.576691 0.153509 0.848148 -0.449601 0.313908 -0.227508 0.046183 0.126293 -0.076377 -0.916658 -0.088944 -0.418153 -0.002204 -0.266387 0.026973 0.502378 1.027144 0.353952 0.080017 0.614463 0.397625 0.178580 -1.016901 0.559810 0.099192 -0.681390 0.247105 0.404318 0.109793 0.461828 -0.400341 -1.081903 -0.916669 0.004643 -0.062734 -0.370557 0.186941 0.036159 0.380764 0.461639 -0.822190 0.248559 -0.414497 0.365014 -0.009760 -0.146725 -0.214897 -0.556048 -0.605065 0.149355
her -0.254888 -0.487967 0.724695 -0.612059 -0.051047 -0.520764 -0.465271 -0.157113 -0.619144 -0.302732 -0.194480 -0.433033 -0.117043 -0.654756 -0.061207 0.123240 1.119414 0.584387 0.350154 0.126034 -0.769265 0.307793 0.512887 0.470439 0.211510 -0.165227 0.267680 -0.045596 0.048654 1.162815 0.216677 0.033861 -0.957895 0.173652 0.560330 0.270989 -0.041729 -0.339192 -0.675954 1.165017 -0.420562 0.331629 -0.754761 0.538537 0.191853 0.355659 0.514943 -0.299966 -0.623699 0.311059
time -0.012340 -0.632632 0.574617 -0.332573 0.072976 -0.062837 -0.458481 -0.468695 -0.352163 -0.231327 0.097207 -0.434577 -0.276658 -0.246643 0.067244 0.275442 0.983393 0.258739 -0.631106 0.402228 -0.342046 -0.129109 -0.632510 0.468721 -0.408682 -0.929916 0.527102 0.477526 0.090259 0.542459 -0.332776 -0.103427 -0.173260 0.171522 0.451362 -0.607429 0.285695 -0.255844 0.039993 1.476538 0.282277 -0.621707 -0.753643 0.302872 -0.041515 -0.235017 -0.028041 -0.167799 0.059650 -0.186338
craning -0.691710 -0.475170 0.480933 -0.340559 0.178485 -0.008085 0.238480 -0.327327 -0.254801 0.049026 -0.222315 -0.668274 -0.051697 0.102941 0.227242 0.031493 0.169726 0.282428 -0.221955 0.119709 -0.117749 -0.127835 0.415772 -0.182822 0.286696 -0.655764 -0.025138 -0.033893 0.217338 0.296778 0.240185 -0.092286 -0.232804 0.193732 -0.031062 -0.643612 -0.009884 -0.107420 -0.126017 -0.140706 -0.153398 0.060329 -0.640510 0.508514 -0.153764 0.166916 -0.223736 0.232109 0.093566 -0.495723
over 0.593321 -0.032650 1.091276 -0.507549 0.224031 -0.156611 -0.247193 0.358598 -0.376135 -0.282814 0.073628 -0.624061 0.075129 -0.688434 -0.049111 -0.301423 0.198146 0.433967 0.053736 0.328939 0.071178 0.456047 0.235566 0.405200 -0.207673 -0.737253 0.152881 0.342209 0.137011 1.036707 0.223732 -0.695471 -0.034864 -0.287813 0.080759 -0.268609 -0.247811 -0.411705 0.195971 -0.200137 -0.225104 -0.025541 -0.744824 0.652284 -0.036070 0.747613 0.357698 -0.726066 0.052372 0.084973
garden -0.382404 -0.156218 0.705666 -0.103460 -0.163162 0.002083 -0.369914 -0.285714 -0.225445 0.460552 0.250150 -0.474402 -0.369014 -0.484247 -0.010335 -0.133869 0.275256 0.464987 -0.355260 0.309345 -0.333744 -0.325356 -0.011915 0.357708 0.223245 -0.767866 0.475797 -0.029588 -0.033814 0.186139 -0.447666 0.136267 -0.269016 -0.216811 -0.277591 -0.235452 -0.639974 -0.068227 0.071598 0.342332 0.464584 0.108867 -0.344159 0.442729 -0.504091 0.099532 -0.257175 -0.525053 0.001652 0.304655
fences -0.034383 -0.121651 0.223814 -0.243640 0.014198 0.027941 0.109456 0.108515 -0.051705 -0.251182 -0.256836 0.018425 0.013259 -0.585728 -0.250185 0.048145 0.246585 -0.019046 0.168518 0.654298 -0.291791 0.533131 0.129929 0.001908 -0.359203 -0.115808 0.313949 0.060767 0.176415 0.002627 -0.260341 0.218724 -0.106470 0.283739 0.030324 -0.205525 -0.092602 -0.071674 -0.330017 -0.109469 -0.324380 0.010913 -0.016653 -0.006205 -0.590777 -0.144615 -0.361909 -0.417895 -0.021475 0.226190
spying -0.395712 0.152398 0.421223 -0.191463 0.267464 -0.266800 -0.116876 0.153592 0.001998 -0.175674 0.353753 -0.051107 0.324771 -0.027884 -0.039651 -0.120018 0.558655 0.391212 0.231516 0.446961 -0.169489 -0.105337 -0.058035 0.318447 -0.100551 -0.263327 -0.192929 -0.119280 0.483345 0.491906 -0.531557 -0.382197 -0.563853 0.107223 -0.076338 -0.518301 -0.041871 0.441043 -0.026539 0.268003 -0.105783 0.259510 -0.273189 -0.023875 -0.014214 0.273464 -0.238643 -0.290136 -0.098155 -0.150958
on -0.443917 -0.272046 1.083830 -0.612471 -0.120016 0.134629 -0.859832 0.007766 -0.351846 -0.426268 0.085139 -0.745198 0.320092 0.046334 -0.230238 -0.480112 0.485280 0.364193 0.302722 -0.034224 -0.038050 0.351776 0.350155 0.178656 -0.511614 -0.162156 -0.430329 -0.186882 0.350455 0.495539 -0.240328 -0.233631 -0.129753 -0.569191 0.242097 0.014067 -0.643540 -0.109359 0.059740 -0.023173 0.125150 -0.256846 -1.176108 0.802825 -0.061325 0.632348 -0.314849 -0.729360 0.034154 -0.065912
neighbors -0.223039 -0.353829 0.438602 -0.112906 -0.196893 0.125369 -0.633033 0.011169 -0.506472 0.307918 0.005432 -0.192329 0.178216 -0.094016 -0.046081 0.214792 0.230966 0.370456 -0.208887 0.606287 -0.090344 0.084531 -0.063156 -0.059689 -0.088264 -0.699045 0.076957 0.319949 -0.146881 0.397408 -0.343434 -0.312583 -0.427062 -0.076543 -0.026475 -0.525855 -0.136615 0.018465 0.022075 0.270165 0.169800 0.139991 -0.558246 0.006238 -0.386300 -0.123415 0.124138 -0.202253 0.395650 0.504503
The -0.412785 -0.242630 0.377283 -0.227011 -0.254615 -0.146945 -0.234762 0.008537 -0.544565 -0.267854 -0.117658 -0.683817 0.828879 0.855914 0.521427 -0.517467 0.518520 -0.279083 -0.253397 0.215817 -0.217287 0.258013 0.023769 0.305416 -0.473111 -0.785799 0.244269 -0.264406 0.505728 1.121973 0.213298 -0.657197 -0.822144 -0.241058 0.727974 -0.213842 -0.051814 -0.518232 0.122144 0.133114 -0.304277 0.566934 0.116929 -0.411092 0.068628 0.132662 -0.186307 -0.705882 0.176567 -0.470308
Dursleys -0.310409 0.003414 0.705534 -0.420050 -0.218545 -0.819410 -0.438787 -0.287106 -0.037890 0.333284 0.595440 -0.068628 -0.131117 0.242970 0.376483 0.004220 0.663019 0.722209 -0.160231 -0.032640 -0.297734 -0.085327 -0.781866 0.198954 -0.287362 -0.491038 0.396248 0.434234 0.043726 0.527835 -0.094478 -0.450795 -0.186898 0.135232 -0.052232 -0.772795 0.109713 -0.008443 0.286026 0.033275 0.087568 -0.121260 -0.740026 0.640214 -0.234025 0.585127 -0.659189 -0.432781 0.249656 -0.358721
small -0.066774 0.055375 0.160876 -0.545073 0.019298 0.069079 -0.444831 0.135905 -0.172828 -0.274373 0.410174 0.031704 0.661480 0.227398 -0.148935 0.115150 0.168636 0.293629 -0.611772 -0.433646 -0.278064 0.177083 -0.118764 0.732403 0.177021 -0.749093 0.228169 0.210590 0.357754 0.595339 0.248709 0.146299 -0.819912 -0.380835 0.192153 0.051835 -0.333404 0.188515 -0.307793 0.868972 0.389332 -0.278567 -0.906488 0.188252 -0.319632 0.333864 -0.340499 -0.327994 0.289466 -0.394181
son -0.226332 -0.288147 0.575981 -0.845092 -0.250485 -0.044613 -0.304818 -0.058292 -0.317717 -0.219442 -0.177511 -0.019753 -0.169252 -0.160817 -0.174213 0.286323 0.199298 0.110298 -0.211663 0.202290 0.319415 0.158437 -0.038969 0.257495 0.230177 -0.522378 0.401491 0.176160 0.359738 0.221529 0.083564 -0.010839 -0.230689 0.126991 0.485886 -0.311881 -0.525470 -0.394791 0.523737 0.298521 -0.257553 0.266691 -0.250293 0.413351 -0.213995 0.261704 -0.481536 0.190270 -0.277779 -0.404492
Dudley 0.175091 -0.094912 0.368638 -0.240540 -0.104745 -0.267822 -0.218967 -0.052233 -0.070592 -0.659083 0.642067 -0.220437 -0.089404 0.067700 0.153404 0.193567 0.694424 0.802634 -0.471297 0.092209 0.339225 0.018632 -0.612883 -0.121300 0.352914 -0.704833 0.461498 0.150990 0.284372 0.414462 -0.284316 -0.401793 -0.600142 0.272116 0.321293 -0.331775 0.254206 -0.346589 0.277808 0.541964 -0.079838 -0.095162 -0.694177 0.011011 -0.241293 0.854651 -0.486749 -0.414467 0.122974 -0.014953
their 0.110300 -0.399895 0.910082 0.208801 -0.537776 -0.586326 -0.113079 0.292990 -0.289020 -0.770333 -0.365318 -0.083896 -0.120422 0.030979 0.009614 -0.393613 0.520694 -0.105393 -0.577078 0.709703 0.155606 0.385105 0.102238 0.587611 -0.082657 -0.678049 0.783821 0.434325 0.707729 0.692699 0.533104 -0.212029 -0.621625 -0.673675 0.740792 -0.456482 -0.596990 0.066774 -0.735754 -0.158265 -0.131919 -0.213183 -0.641519 -0.046586 0.237956 0.243190 -0.091137 -0.365834 -0.108225 0.313545
opinion -0.418179 -0.384904 0.491847 -0.573979 0.201228 -0.382502 -0.192481 0.097653 -0.152223 -0.185512 0.254274 -0.122648 -0.420912 0.036316 0.334439 0.095954 0.309349 0.220749 -0.024266 0.182844 -0.264043 0.193019 -0.352666 0.747874 0.588706 -0.707195 0.051149 -0.075777 0.011933 0.548817 -0.001246 -0.026639 -0.104405 -0.455736 -0.335940 -0.275753 -0.336426 0.114756 0.274842 0.299311 0.278277 -0.094297 -0.569668 0.403814 -0.469609 0.054541 -0.032331 -0.158770 -0.048551 0.070135
there -0.338489 -0.226692 1.131301 -0.185082 0.434081 -0.125885 -0.555784 0.152909 -0.002450 -0.347198 0.406929 -0.316752 -0.086031 0.086011 -0.009705 -0.185159 0.643881 -0.364938 -0.599635 0.369963 -0.275628 0.292295 -0.807693 0.555230 0.355964 -0.689018 0.424912 0.363721 0.288565 0.977085 -0.222431 -0.529287 -0.497905 -0.567901 -0.141263 -0.834728 -0.157411 -0.046676 0.654187 0.099319 0.258340 0.019621 -0.112278 -0.067556 0.007745 -0.258873 -0.905647 0.318931 0.125490 -0.475734
no -0.140316 -0.443268 0.603722 -0.348192 0.163288 -0.204810 -0.280861 0.101746 0.565569 -0.761101 1.250220 -0.348134 -0.616507 0.100966 0.137982 -0.539244 0.418705 -0.462740 -0.282204 -0.231751 -0.275002 0.539194 -1.278074 -0.119357 0.405377 -0.585399 0.695931 0.488678 0.173207 0.757749 0.264335 -0.220898 -1.263254 -0.275118 0.418126 -0.297613 -0.496634 -0.217309 0.981315 0.732249 0.314725 0.095798 -0.455505 -0.340465 -0.321479 0.171171 -0.291003 -0.791273 0.117351 -0.585289
finer -0.531416 0.151833 -0.326984 -0.133202 -0.292012 -0.182203 -0.122313 -0.333370 0.073230 -0.094708 0.298202 -0.344417 -0.231715 0.051107 0.030009 0.280492 0.482536 0.222353 0.045637 0.184897 -0.186254 -0.073319 -0.052606 -0.424632 0.158770 -0.358333 0.583773 0.234427 0.514483 0.734984 0.104697 -0.125537 -0.244657 -0.197287 -0.076425 -0.712350 -0.154458 -0.272639 0.126544 0.134046 0.157684 -0.042578 -0.188579 -0.097950 -0.214037 0.133060 -0.523330 -0.378136 0.085890 -0.269310
boy -0.000622 -0.449927 0.237258 -0.553518 -0.188085 -0.240250 -0.702061 -0.150190 -0.579476 0.182383 -0.036362 0.129200 -0.050533 -0.210521 -0.261043 -0.276949 0.229742 0.000436 -0.021401 0.357139 0.237792 -0.824000 -0.048647 -0.081398 -0.237074 -0.419430 0.277996 0.382989 0.260756 0.828873 -0.322609 0.080963 -0.066061 -0.025300 0.455022 -0.718433 -0.299219 0.322385 0.599107 0.915568 0.243837 0.218340 -0.491099 0.486453 -0.295796 0.771713 -0.356291 -0.232318 0.286615 -0.632554
anywhere 0.058097 0.036024 0.522489 -0.518860 -0.106540 0.026315 -0.150457 0.006972 0.103167 0.023215 0.393175 -0.525032 -0.296502 -0.091530 0.327667 -0.066648 0.515469 0.279645 0.039599 0.756209 -0.312706 0.593974 -0.472716 -0.053074 0.338912 -0.344407 0.016588 0.143387 0.392002 0.409389 0.330693 -0.495489 -0.179555 -0.092791 0.132058 -0.821803 -0.113153 0.107142 0.326882 0.313891 0.410484 -0.015215 -0.434298 -0.122674 -0.158725 0.154057 -0.529019 -0.301841 -0.006642 -0.170084
everything -0.061428 0.158199 0.529695 -0.403338 -0.315410 -0.762087 -0.224279 0.078406 -0.019105 -0.492631 0.196335 -0.543035 -0.309751 -0.274403 0.160999 0.303731 0.486749 0.306057 -0.119338 0.314546 0.157136 0.318761 -0.298361 0.914944 -0.182321 -0.527370 0.161826 0.500717 0.093490 0.351283 0.385025 0.011051 -0.642887 0.076441 0.031297 -0.574552 -0.713776 -0.247672 0.135854 0.291563 -0.227086 -0.207379 -0.393113 0.257049 -0.778862 0.241833 -0.191341 -0.224883 -0.245677 -0.013872
wanted -0.716016 0.386461 0.965673 -1.453376 0.209963 -0.263065 -0.096172 0.179802 -0.354661 0.137328 0.274162 -0.446917 -0.752567 -0.415056 0.442583 0.134940 0.613449 0.227531 0.005130 -0.083701 -0.138789 0.087879 -0.506157 0.533897 0.018487 -0.525982 0.740714 -0.034725 0.147323 0.045984 0.622304 -0.351934 -0.339329 0.021743 0.291953 -0.884252 -0.931016 0.096628 0.111155 0.937001 -0.115863 0.180812 -0.086602 -0.156365 -0.148878 0.206136 -0.347297 -0.381129 -0.067275 -0.272303
but 0.072464 -0.035915 0.374818 -0.517683 -0.106537 -0.475667 0.238283 0.377399 -0.522312 -0.106010 -0.396830 -0.324393 -0.315809 0.021076 0.062919 0.521930 0.766228 0.101153 0.159012 0.346207 0.328938 0.034452 -0.580875 0.685709 -0.090086 -0.757904 0.224277 0.445387 -0.052869 1.208980 0.030935 -0.704662 -0.372701 -0.576027 0.200388 -0.106827 -0.063895 -0.369710 0.582121 0.152357 0.514949 0.437822 -0.275401 -0.289158 -0.259395 0.006316 -0.624580 -0.206671 -0.705870 -0.305709
also -0.109317 0.048436 0.181987 -0.905746 0.100175 -0.167922 -0.146537 -0.014403 -0.208119 0.006601 0.356456 -0.220343 0.128883 0.019851 0.137143 0.550037 0.646940 0.565002 -0.315499 -0.043829 -0.158642 0.217242 -0.629454 0.550609 -0.153785 -0.643840 0.241172 -0.187781 -0.043949 0.252421 -0.525442 -0.360991 -0.468724 0.115964 0.138694 -0.482538 -0.005170 -0.185245 0.487334 0.295443 0.118859 -0.015828 -0.263990 0.466929 -0.004903 0.746650 -0.374985 -0.500546 0.204049 -0.130685
secret -0.433742 -0.229186 0.760968 -0.751227 0.048624 -0.081318 0.095773 -0.010745 0.083708 0.200785 -0.110616 -0.554236 0.208468 0.090840 0.067538 0.010805 0.480261 0.021663 0.130207 0.403562 -0.356385 0.121522 -0.467733 0.230581 0.162819 -0.616583 0.072302 0.035776 0.139171 0.599206 0.276622 -0.393451 -0.500548 -0.384612 -0.268971 -0.563478 -0.020237 -0.015642 0.487578 0.416643 -0.194184 -0.452349 -0.404032 0.120538 -0.705573 -0.040123 -0.194518 -0.077385 -0.187987 -0.505960
greatest -0.167508 0.322506 0.219399 -0.324120 0.189455 -0.248692 -0.331931 -0.343191 -0.001416 0.248789 0.397321 -0.339861 -0.001668 0.216033 -0.376434 0.110406 0.466803 0.467729 0.363296 0.412849 -0.256909 0.186882 -0.291053 0.073403 0.133595 -0.312737 0.378473 -0.016451 0.484960 0.393254 -0.385227 0.256753 -0.639954 -0.038772 0.290411 -0.403606 -0.007069 -0.241297 0.121487 0.099356 0.101602 0.250031 -0.780194 0.435030 -0.107161 -0.547595 -0.532386 -0.421727 -0.019045 -0.056897
fear 0.366927 0.136982 0.401553 -0.451214 -0.409175 -0.223413 -0.210974 0.133950 -0.113277 0.180578 -0.068801 -0.585212 0.050219 0.234902 0.085941 -0.128984 0.188590 0.288281 -0.354274 0.639636 -0.292681 0.075380 0.092288 -0.111264 0.384455 -0.624512 0.845388 -0.310872 0.176030 0.167219 0.520219 -0.347536 -0.309148 -0.363929 0.371693 -0.743452 -0.608202 -0.217012 -0.151420 0.200949 -0.277697 0.138646 -0.524724 0.746276 -0.741936 -0.005308 -0.320859 -0.149853 0.422358 -0.620159
somebody -0.161164 -0.295329 0.318596 -0.383383 -0.341830 -0.555575 0.122941 0.253689 -0.329786 0.116800 0.063465 -0.256657 -0.046174 -0.242962 -0.226165 -0.022580 -0.076350 -0.184764 0.271401 -0.267994 -0.229263 0.502163 0.027841 0.244654 0.074536 -0.216819 0.497086 0.050849 -0.262630 0.027992 -0.145657 0.035562 -0.502046 -0.077568 -0.061349 -0.226790 -0.247408 0.254274 0.069020 0.032443 0.058919 0.280187 -0.649118 0.099431 -0.690591 0.173307 -0.371238 -0.507725 0.442951 -0.263117
would -0.496550 -0.024669 0.976529 -0.717672 0.210957 -0.793517 0.054848 0.431268 -0.074083 -0.694172 -0.267067 -0.067805 -0.251166 -0.670686 0.150149 0.108452 1.181260 -0.018616 0.275652 0.109468 0.359152 0.039695 0.238036 0.548456 0.361194 -0.487145 0.126314 -0.045114 0.544934 0.584678 -0.114494 -0.464462 0.169563 0.380280 0.298682 -0.748149 -0.410866 -0.240290 0.175980 0.712711 0.159657 -0.019495 -0.137718 -0.171421 -0.790283 -0.060919 -0.322540 -0.177057 -0.723535 -0.248238
discover -0.070593 -0.002140 0.452392 0.137337 -0.186420 0.214112 -0.197696 0.282077 -1.018491 0.143385 0.037927 -0.123885 -0.138505 0.232762 -0.206192 -0.117977 0.143259 -0.043374 -0.290042 -0.238676 -0.110989 0.354378 0.093475 0.113884 -0.223932 -0.416190 0.483019 0.095022 -0.013996 0.189383 0.218999 0.316530 -0.273238 0.126639 0.036358 -0.031004 -0.450415 -0.235226 0.071816 0.061366 -0.022028 0.021030 -0.012469 0.265502 -0.210153 0.025751 -0.515692 -0.020759 -0.294630 -0.303665
it -0.295025 -0.257134 0.636719 -0.842973 0.521077 -0.412444 0.003392 -0.053762 -0.372156 -0.312639 0.172008 0.188301 -0.288670 -0.771052 -0.219021 -0.426313 0.258109 0.575582 -0.269621 0.117758 -0.512893 0.180086 -0.249502 0.011840 0.138631 -0.739444 -0.302269 0.331603 -0.010669 0.953736 0.634057 -0.895575 -0.368870 -0.464598 -0.165416 -0.708621 -0.073871 -0.217933 0.278690 0.478904 0.271473 -0.302038 0.179646 0.122621 -0.695491 0.141632 -1.214364 0.039129 -0.077436 -0.288916
think -0.672973 -0.533167 0.525180 -1.520860 -0.562927 -0.109480 -0.193492 -0.082603 0.322058 0.085813 0.297357 -0.749763 -0.315742 -0.458766 -0.381030 0.071699 0.577710 -0.327324 0.072602 0.434207 0.627306 0.477004 -0.829155 0.408992 -0.205342 -0.266081 0.267408 0.107070 -0.231519 0.396261 0.403091 -0.393714 -0.764984 -0.116264 -0.079734 -1.160902 -0.307874 0.077752 0.983337 0.689508 -0.209181 0.302499 -0.193893 0.557705 -0.955738 -0.506737 -0.829177 -0.628452 0.171965 -0.083320
could -0.702119 -0.411474 1.170550 -0.387043 -0.137753 -0.613787 -0.376509 0.065936 0.026892 -0.282215 -0.674059 -0.500370 -0.450939 -0.662450 0.479493 -0.025792 1.218730 -0.397345 -0.641097 0.345962 0.180039 -0.550285 0.287680 0.186212 0.804692 -0.841872 0.396925 -0.267204 0.011164 0.251001 0.295751 -0.761161 0.093690 -0.069238 -0.286681 -0.989838 -0.671039 0.027767 0.850557 0.535113 0.447346 -0.200605 0.073372 0.080093 -0.321401 0.781488 -0.381505 -0.142402 -0.308118 -0.320469
bear -0.469927 -0.463847 0.625625 -0.044765 -0.080116 -0.051849 -0.131956 0.442364 -0.089009 -0.282042 0.104538 -0.290606 -0.033625 -0.036825 -0.435092 0.071335 0.371513 0.394010 0.244773 0.729233 -0.081813 0.027172 -0.702997 0.170506 -0.007203 -0.493424 0.508073 0.038836 0.221917 0.538103 0.029222 -0.250316 -0.357376 0.011496 -0.118322 -0.220119 -0.134743 0.781693 0.103363 0.100967 -0.095580 -0.085305 -0.249821 -0.306516 -0.332904 -0.164664 -0.077494 -0.215893 0.591037 -0.120787
if -0.058173 0.138488 0.603528 -1.509964 0.112805 -0.620940 -1.090351 0.319497 -0.042012 0.029818 -0.440148 -0.284321 -0.144879 -0.683001 0.382062 0.187161 0.574214 -0.231914 -0.033925 0.502846 -0.135623 0.157323 -0.463321 0.263804 -0.655807 -0.566431 0.859366 -0.145482 0.252618 1.012986 0.316017 -0.321504 -0.880618 0.012547 0.223714 -0.325352 -0.615000 -0.326418 0.873879 -0.046568 -0.435952 -0.224887 0.236470 0.112764 -0.468988 0.216302 -0.779020 -0.508888 -0.273645 0.675168
anyone -0.641646 -0.094118 0.923546 -1.026354 0.337051 -0.073980 -0.218163 -0.588769 -0.312811 -0.628322 0.551714 0.164900 -0.523475 -0.950537 0.253985 -0.076373 0.733072 0.215213 0.307288 0.622023 0.332126 -0.227384 -0.802099 0.545849 0.239387 -0.411228 0.492393 0.250533 0.414292 0.593656 0.617941 -0.985482 -0.910800 0.157331 0.335673 -0.660271 -0.155611 0.107588 0.007371 0.470462 -0.336253 -0.014819 0.002204 0.000938 -0.567826 0.080873 -0.447856 0.035693 -0.191115 0.092697
found -0.229274 -0.139619 0.639599 -0.511453 -0.324497 -0.321234 -0.329757 0.398085 -0.100625 -0.730679 0.177570 -0.962889 0.398370 -0.636424 0.866990 0.232543 0.679518 0.473119 -0.382419 0.492081 -0.160969 -0.236192 -0.271540 0.533135 -0.037344 -0.333316 0.554194 -0.182408 -0.229140 0.141396 -0.059948 -0.307183 -0.830815 0.616486 -0.187280 -0.542479 -0.875726 -0.054990 0.750444 0.469202 -0.146492 0.111012 -0.675265 0.043970 -0.718797 0.098822 -0.667459 -0.119942 0.614751 0.038094
out 0.317860 0.247753 0.707785 -0.720958 0.121532 -0.442829 -0.857430 -0.375705 -0.197637 -0.508056 0.120202 -0.696952 0.044701 -0.404978 0.318345 0.016032 0.515400 0.770131 0.008367 0.481048 0.739296 0.220485 0.215556 1.218463 0.244224 -0.446568 0.295422 0.074204 0.007378 0.084582 0.682248 -0.750508 -0.578943 0.040305 -0.482850 -0.041614 -0.672603 -0.015385 -0.087171 0.632250 -0.062221 0.542645 -0.791515 0.106704 -0.434739 -0.197393 -0.384429 -0.414405 0.677909 0.037607
about 0.168586 -0.539417 0.374215 -0.174432 0.872392 -0.024905 -0.247563 -0.196457 -0.305333 -0.546214 0.082128 -0.674645 0.228565 -0.215023 0.003917 0.139511 0.719670 0.523411 0.224499 0.604834 -0.155121 -0.230184 -0.156022 0.800879 0.155127 -0.781180 -0.215328 0.519101 0.036766 0.020591 0.154848 -0.479079 -0.268824 0.397326 0.311440 -0.656502 -0.851378 -0.580511 1.022813 0.105181 -0.648437 0.264133 -0.124899 0.115112 -0.376196 0.062789 -0.936018 -0.474722 -0.434781 0.120109
Potters -0.318848 -0.213070 0.585562 -0.496852 -0.204637 -0.078579 0.062549 0.060789 -0.602805 0.215392 -0.068186 -0.341261 0.014272 -0.306868 -0.067760 0.371615 0.654870 0.593797 0.184038 0.243430 0.022320 0.221219 -0.186243 0.349699 -0.086241 -0.793259 0.204020 0.149811 -0.034921 0.463195 -0.069607 -0.129217 -0.113536 0.302770 0.162640 0.015814 0.179008 0.176835 0.686326 0.422664 0.133626 0.090474 -0.192368 0.499059 -0.247341 0.092918 -0.309778 -0.255018 0.033709 -0.054931
sister 0.206647 -0.114790 0.598822 -0.520545 -0.313861 -0.248606 -0.308943 -0.074370 0.081705 -0.397559 -0.338521 -0.708270 -0.014835 -0.317950 0.025541 0.297519 0.428672 0.409353 -0.343419 0.080604 -0.069790 -0.428469 -0.115712 0.568516 0.112386 -0.627826 0.169583 -0.094441 0.351920 0.101393 -0.204743 -0.276579 -0.530258 0.184249 0.722910 -0.698151 0.112640 0.687589 -0.018346 0.384794 0.085594 0.238060 -0.417124 0.563825 -0.026228 0.348289 -0.227149 -0.157917 0.063991 -0.141105
hadnt -0.495086 0.515641 1.347579 -1.089870 0.033962 -0.452341 -0.226552 -0.425402 -0.235652 -0.547583 -0.070036 -0.023601 -0.353136 -1.052863 0.141749 0.373696 0.899081 0.604116 -0.618422 -0.213586 -0.361100 -0.008574 -0.295325 0.711757 0.353795 -0.487542 0.612154 0.063444 0.364347 0.387170 -0.061758 -0.253819 -0.504324 0.012609 0.205438 -0.496042 -0.257061 -0.128581 0.670139 -0.568933 0.012951 -0.391442 -0.244579 0.435622 -0.097012 0.332153 -0.468425 -0.257129 -0.627813 -0.673695
met -0.235868 -0.052403 0.809054 -0.358009 -0.073556 -0.057168 0.102537 0.796068 0.192261 -0.520773 -0.149430 -0.452470 0.126595 -0.379458 0.261760 -0.312639 0.729856 0.553931 -0.163943 -0.160170 -0.710905 -0.016968 -0.317350 0.515113 0.147177 -0.649966 0.103777 0.060401 -0.036540 0.385801 0.204223 -0.438848 -0.485484 0.488933 -0.331337 -0.583837 -0.146076 -0.035441 0.434124 0.246550 0.211088 -0.015954 -0.603289 0.356571 -0.987543 0.376254 -0.581341 -0.031649 -0.206256 0.248724
for 0.284907 -0.049371 0.614700 -0.625388 0.322168 0.189057 -0.192113 0.363495 -0.008771 -0.408725 -0.443618 0.302213 0.154922 0.493313 0.125910 -0.199602 0.398605 0.017496 -0.154118 0.164463 -0.504890 -0.462398 -0.197920 0.354511 -0.192397 -0.721212 0.061078 0.603902 0.509530 0.854039 0.197685 -0.827355 -0.121367 0.483759 0.037213 -0.746449 -0.410603 -0.520256 0.580272 0.342230 0.084259 -0.069892 -1.352034 0.258664 0.138577 0.143127 -0.636942 0.130851 0.345106 -0.222311
several -0.094822 -0.359759 0.527483 -0.342493 -0.224714 0.056583 -0.250113 0.210045 -0.594848 0.142981 -0.093504 -0.444681 0.398701 0.448507 -0.076444 -0.195698 0.232430 0.173669 -0.313158 -0.178214 -0.156995 0.559403 -0.270767 0.308511 0.093762 -0.639693 0.351093 0.011847 0.526882 0.752042 0.053832 -0.458758 -0.722041 0.144404 -0.032059 -0.238454 -0.215063 -0.171466 -0.055087 -0.090768 0.253855 -0.266770 -0.389106 0.099617 -0.175975 0.096270 -0.202695 -0.236146 0.208956 0.056602
years 0.602909 -0.760910 0.504257 -0.497734 -0.163544 -0.211414 -0.404739 0.131354 -0.434170 -0.174046 0.410845 -0.233657 0.250462 0.095423 -0.465030 0.233903 1.250749 0.052283 0.011365 0.642908 -0.142998 -0.054959 -0.162601 0.781041 0.070104 -0.264671 0.251743 0.771297 0.214046 0.755249 -0.430073 -0.306763 0.053571 0.300222 -0.192696 -0.373140 -0.085528 0.049575 -0.102900 1.480374 0.141766 -0.299306 -0.425282 0.313317 0.055805 0.186588 -0.625971 -0.020337 0.086394 0.035390
fact -0.523213 -0.245221 0.615600 -0.318944 0.111265 -0.477174 -0.117716 -0.005460 -0.061322 -0.178681 0.402612 -0.474042 0.215102 -0.036053 0.064830 -0.310047 0.911712 0.406711 -0.472073 0.270872 -0.156238 -0.204834 -0.382285 0.428923 0.009773 -0.404348 0.112962 0.038580 0.129363 0.384453 -0.248271 0.035474 -0.595452 -0.432837 -0.074353 -0.777797 -0.075065 0.063356 -0.315324 0.446396 -0.269501 0.158807 -0.312130 0.385201 -0.898877 -0.065369 -0.305334 -0.072075 0.471885 -0.149125
pretended -0.260647 -0.230645 0.681613 -0.642212 0.476655 -0.021888 0.087241 0.505381 0.222653 -0.125719 0.214730 -0.144260 -0.484180 -0.107483 -0.588894 -0.213159 0.622360 -0.045967 -0.158842 0.349211 0.215687 0.057388 -0.150234 0.495294 0.045733 -0.291960 0.342028 -0.092707 0.045984 0.119786 -0.186026 -0.332047 -0.521227 -0.170420 -0.007286 -0.691368 -0.037738 0.149050 0.155969 0.399030 0.194862 0.181893 -0.588853 -0.218274 -0.061892 0.081948 0.148651 0.263112 0.105139 0.214305
goodfornothing 0.417605 0.216504 0.152105 -0.124088 0.211257 0.048200 0.308721 0.134010 0.049680 -0.238278 0.306414 -0.468878 0.098688 0.012498 -0.572622 0.108142 -0.281625 -0.050243 -0.040956 0.344779 0.062613 0.046177 -0.153680 -0.573452 0.298033 -0.563146 0.347934 0.154659 0.006738 0.094365 -0.240807 -0.347760 -0.506533 -0.214459 0.201479 -0.248075 -0.022568 -0.045008 -0.164805 0.009959 -0.136184 -0.174646 -0.151789 0.291052 -0.008836 0.146912 -0.205182 -0.245106 -0.029285 0.202351
husband -0.199053 -0.082523 -0.136034 -0.294211 -0.244940 0.018958 -0.263360 -0.880710 -0.195706 0.343701 0.067461 -0.293789 0.188509 -0.115449 -0.109043 -0.077409 0.108873 0.146779 -0.015933 0.480351 -0.095093 0.372121 0.125157 0.254886 0.604753 -0.376195 0.072152 -0.272263 0.222446 0.353844 -0.227182 0.089775 -0.659641 -0.109903 -0.018931 0.076641 -0.420881 -0.192506 0.253037 -0.003047 -0.461219 -0.442953 0.231239 -0.090047 -0.204194 0.084666 -0.329742 -0.189774 0.017289 0.024842
unDursleyish 0.040647 -0.304710 0.066416 -0.153033 0.123816 -0.373077 -0.093224 0.312464 -0.067280 -0.013060 -0.100748 -0.240974 0.208883 -0.420075 -0.193260 -0.680967 0.321412 -0.317151 0.246746 -0.143534 0.115152 -0.119027 -0.112674 0.130763 -0.204453 -0.457113 -0.160345 0.109952 0.133705 0.281737 0.284674 0.075464 -0.792058 -0.005049 0.271546 -0.461324 0.603112 0.172195 -0.131980 0.562772 0.209991 0.045283 -0.021972 0.397134 -0.007910 0.115433 -0.399938 0.050636 -0.170362 -0.264549
possible -0.404761 0.079896 0.695759 -0.123567 0.193888 -0.517279 -0.109103 -0.305991 -0.705202 0.201485 -0.179125 -0.313788 -0.247862 -0.428797 -0.038208 0.255096 0.465280 0.289063 -0.239987 -0.083305 0.425589 -0.415868 -0.244184 0.217266 -0.209410 -0.752098 0.474297 -0.022173 0.354799 0.817027 0.152166 -0.528248 -0.997069 -0.367461 -0.077400 -0.553368 -0.495379 0.169411 0.083030 0.304571 -0.525438 -0.002038 -0.026934 0.535160 -0.237135 0.505427 -0.186043 -0.334221 0.293665 -0.668105
shuddered 0.112625 -0.014071 0.421422 -0.300650 -0.363969 -0.874104 0.074016 0.035266 -0.340972 -0.085202 0.195224 -0.110393 0.200401 0.327493 -0.216998 0.168804 0.346251 -0.052480 -0.040121 0.123015 0.019993 -0.060789 0.212415 0.322476 0.177194 -0.305961 0.026626 -0.479649 -0.131256 0.149359 -0.224219 -0.428697 -0.073247 0.418313 0.133028 -0.364077 -0.240182 -0.388531 0.073362 0.376925 0.120110 0.069133 -0.822931 -0.190400 -0.359821 -0.111654 -0.166640 -0.432914 -0.088436 -0.499431
what -0.533936 -0.470726 0.429344 -1.021381 -0.108717 -0.582513 -0.926843 -0.427193 -0.465147 -0.128928 -0.031191 -0.359868 -0.330172 -0.443085 -0.077719 -0.028035 0.629389 0.323362 -0.722814 1.031504 -0.188260 0.085733 -1.138057 0.671229 0.053343 -0.590840 0.333856 -0.133406 0.285912 0.537440 -0.049623 0.034797 -0.175760 -0.188461 0.077907 -0.376202 -0.475243 -0.160281 0.571065 -0.089203 0.113502 0.595685 0.343204 -0.005532 -0.507188 -0.529851 -1.097363 -0.185983 -0.520518 0.115484
arrived -0.149265 -0.556743 0.300697 -0.379414 -0.127381 -0.507892 -0.189096 0.027968 -0.374346 -0.539398 -0.192949 -0.240951 -0.086640 0.182347 0.315262 -0.097923 0.634942 0.381346 -0.395550 0.140296 -0.003757 -0.188591 -0.519564 0.704618 -0.239615 0.002504 0.747231 0.825789 0.414856 0.774374 -0.444271 0.154774 -0.429708 0.355242 -0.199688 -0.583819 -0.084585 -0.124493 0.237861 0.654120 -0.012214 -0.200869 -0.430908 0.068011 -0.429352 -0.246660 -0.748648 -0.601722 0.448895 -0.310463
street -0.082869 0.121920 0.751315 -0.023965 -0.106605 -0.043795 -0.300592 -0.161406 -0.101888 0.606065 -0.010530 -0.444964 -0.285869 0.112259 -0.231527 -0.326299 0.657000 0.543620 0.094769 0.581948 -0.530030 -0.095982 -0.486119 0.906708 0.361528 -0.579703 0.194426 0.095781 0.293799 0.266821 -0.003844 -0.193333 -0.391254 -0.281796 0.026476 -0.796265 -0.074107 -0.077268 -0.041729 0.203405 -0.085445 0.162040 -0.560559 0.456332 -0.305991 -0.031060 -0.602451 -0.070946 0.522153 -0.467205
knew -0.599571 -0.235875 0.750372 -1.092394 0.106539 -0.064030 -0.441816 0.481306 -0.335481 -0.369321 0.580210 -0.404270 -0.308702 -0.827463 -0.022573 0.048104 0.868921 0.689071 -0.214853 -0.091018 -0.188925 0.431137 -0.630399 0.523463 0.053140 -0.312624 0.179336 0.172335 0.602128 0.561148 0.069291 -0.650503 -0.541912 0.265884 -0.066586 -0.690375 0.048571 0.104669 1.306594 0.531965 0.472122 0.080665 0.058331 0.361632 -0.559698 0.373404 -0.375858 0.173449 -0.024718 0.062807
too -0.216048 0.341147 0.769515 -0.268071 1.198083 -0.022062 -0.054507 -0.070442 -0.138155 -0.063567 0.017851 -0.086233 -0.024157 -0.226698 0.122898 -0.175196 0.589042 -0.087829 0.434310 0.079158 0.097096 0.569339 -0.361955 0.566044 0.022142 -0.591858 0.514242 0.415176 0.345958 0.519005 -0.358130 -0.109819 -0.819209 -0.185433 0.851081 -0.693463 0.154483 0.214491 0.713865 0.737148 -0.657559 0.490226 0.077005 -0.396906 -0.065008 0.163624 -0.797146 -0.259635 -0.238204 -0.322252
never -0.819800 -0.414303 0.878238 -1.519087 0.075115 -0.313916 -0.194037 -0.522091 0.012593 -0.386519 -0.256805 -0.231965 -0.776248 -0.014453 0.364031 -0.719265 1.286576 0.526797 -0.271466 0.039045 -0.269202 0.264977 -0.361481 0.571469 0.495676 0.014503 0.390127 0.190231 -0.044425 0.536540 -0.396889 -0.826326 -0.400170 0.098416 0.066851 0.076997 -0.069655 -0.040827 0.551695 0.216098 0.102302 0.016033 -0.146686 0.297119 -1.032752 0.059744 -1.014017 -0.579715 -0.465569 -0.140851
even -0.772588 -0.302510 0.264181 -1.194549 -0.066781 -0.299574 -0.200154 -0.219403 -0.116195 -0.382267 0.137651 -0.347269 -0.367416 -0.287626 0.632251 -0.009871 0.275549 0.078587 -0.422745 0.024239 0.114024 0.030307 -0.333148 0.041953 -0.401514 -0.478544 0.241366 0.368051 0.636193 0.455624 0.159343 -0.800406 -0.667465 0.138071 -0.120705 -0.782230 -0.382395 -0.093166 0.400904 0.747931 -0.026478 -0.097372 -0.738243 -0.189312 -0.443581 0.069251 -0.675747 -0.082024 -0.174035 -0.402927
seen -0.468855 -0.069844 0.680760 -0.691050 0.475879 -0.550502 0.045387 -0.020417 -0.137723 -0.541692 0.067229 -0.492820 0.020157 -0.460001 0.572370 -0.244012 0.810712 0.447712 -0.184614 0.143783 -0.532833 -0.165478 -0.741221 0.405280 -0.372749 -0.389599 0.308035 -0.182529 0.078613 0.564150 -0.215812 -0.644843 -0.495599 1.107093 0.225518 -0.643646 -0.112805 -0.120094 0.567161 0.302155 0.243404 -0.129531 -0.381004 0.817238 -1.195382 0.052409 -0.448135 -0.542292 -0.502732 0.546378
him 0.211129 0.142829 0.620999 -0.580699 0.137934 -0.543329 -0.017350 0.354364 0.006194 0.026448 -0.367627 -0.444290 -0.097213 -0.430958 -0.123176 0.605071 1.061833 0.600314 -0.523424 0.622277 -0.356378 0.759269 -0.138190 -0.169124 0.782307 -0.083046 0.288038 -0.086964 -0.187348 0.658941 0.303763 0.081762 -0.985105 -0.374027 -0.025165 -1.327537 0.253220 -0.151185 -0.577559 0.295450 0.256576 0.155732 -0.394412 0.671954 -0.042115 0.179542 -0.457904 -0.127367 -0.642595 -0.034132
This -0.299399 -0.162047 0.749971 0.063134 -0.138261 -0.295134 -0.273604 -0.313436 -1.120892 -0.342223 0.042500 -0.055042 0.242083 -0.200430 -0.003268 -0.214754 0.168543 0.123259 -0.183301 -0.086452 -0.406317 0.198111 -0.735935 0.092180 0.007889 -0.948724 0.212534 0.186606 0.339100 0.530825 0.249255 -1.220952 -0.338983 -0.050462 0.012907 -0.056952 -0.149783 -0.435183 0.812753 0.493166 -0.329068 0.084328 -0.215594 0.375104 -0.598978 -0.435927 -0.460819 -0.261771 0.144875 -0.484381
another 0.513328 -0.190723 1.068831 -0.423137 -0.155554 -0.889031 -0.463011 0.251599 0.040082 -0.207014 -0.348245 0.225569 -0.290314 0.336285 0.608859 -0.903475 0.635670 -0.190258 -0.366275 -0.221491 -0.149553 -0.051592 -0.589740 0.713696 -0.080958 -0.799004 0.636805 -0.196477 0.007029 0.407061 0.291733 0.013831 -0.846710 0.154606 0.054229 -0.471809 -0.386421 -0.252450 0.191164 0.731173 0.092606 -0.299274 -0.585642 0.341395 0.017543 0.742687 -0.127528 -0.266873 0.085237 -0.089913
good -0.321788 -0.402176 0.766267 -0.658556 0.769246 -0.291172 -0.344839 -0.573970 -0.221779 -0.586655 0.023736 -0.218834 0.177472 -0.006665 -0.226195 -0.025452 -0.075204 0.171401 -1.090757 -0.082199 0.407216 -0.264913 -0.631701 0.530236 0.547746 -1.427289 0.329875 0.501699 0.364474 -0.023467 0.444450 -0.093472 -0.214883 -0.165238 0.383270 -0.600340 -0.301407 -0.091492 0.679028 0.799522 -0.208655 -0.123191 -0.373133 0.428712 0.037424 0.184732 -0.471961 -0.112565 0.171207 -0.211160
reason -0.581838 -0.451470 0.797257 -0.480027 0.633200 -0.150866 -0.355585 0.061330 -0.412674 -0.064601 0.049743 -0.557019 -0.261463 0.062893 0.030631 -0.303983 0.450520 -0.039057 -0.215860 0.088099 -0.156388 -0.145523 -0.971756 0.025496 -0.074184 -0.259867 0.344734 0.406408 0.471328 0.337826 -0.154967 -0.001961 -0.623990 -0.043901 0.540355 -0.816562 -0.466325 -0.566015 0.429440 0.765170 -0.065124 -0.098268 -0.919978 -0.149697 -0.226065 -0.098657 -0.586716 -0.055577 -0.152161 -0.625381
keeping -0.469536 -0.137954 0.690133 -0.171837 -0.038745 0.128281 -0.419711 -0.415020 -0.098530 -0.274388 -0.007294 -0.248602 -0.005537 -0.196915 0.324604 0.457603 0.245335 0.102873 0.227563 0.054038 -0.293620 -0.194741 -0.213501 0.438278 -0.237877 -0.598409 0.381525 -0.073075 0.209871 0.652650 0.089258 -0.331991 -0.406269 -0.079442 0.072744 -0.169189 -0.406385 -0.140266 0.201984 -0.065738 0.359437 0.386565 -0.575797 0.439398 -0.095611 0.445295 -0.473810 -0.121474 -0.013492 -0.712731
away -0.178260 -0.405310 0.688357 -0.161019 -0.027464 -0.718253 -0.464338 0.433299 0.652943 0.221187 -0.290929 -0.597799 0.022840 -0.576074 -0.290373 -0.306939 0.537866 -0.137374 -0.051129 0.129187 0.269915 0.080004 0.348116 0.460430 -0.125181 -0.438033 0.113936 0.018095 0.359172 0.817976 -0.190585 -0.498771 -0.312790 -0.259451 0.800932 -0.257319 0.176916 -0.082885 0.567810 0.070011 0.217123 0.001214 -0.608558 0.470907 -0.704523 0.476834 -0.438555 -0.479947 -0.101872 -0.084511
want -0.339646 -0.111339 0.948308 -1.369265 -0.318765 -0.176403 0.026011 -0.163910 -0.279179 0.392328 0.177180 -0.856238 -0.617262 -0.062913 -0.243681 0.021886 1.068563 -0.414724 -0.187872 0.610340 0.228782 -0.084548 -0.701946 0.271783 -0.253024 -0.322163 0.514668 -0.196360 -0.081459 0.541271 0.108925 -0.050261 -0.016397 0.096325 0.360205 -1.647608 -0.422041 0.283436 0.253109 1.134631 -0.253195 0.091591 0.045015 -0.073887 -0.529276 0.293360 -1.031275 -0.486330 -0.278285 -0.413844
mixing 0.187024 0.189838 0.377065 -0.354363 0.033916 0.404088 -0.286978 0.149833 -0.345231 -0.362405 0.473722 -0.432500 -0.501196 0.425840 -0.667334 -0.180077 0.046698 0.214699 0.263948 -0.404310 -0.063526 0.040848 -0.019217 0.240169 -0.119989 -0.294834 0.210377 -0.023291 0.000985 0.563565 0.086008 -0.261392 -0.634019 0.088406 0.417179 -0.460610 -0.355005 0.099388 0.194666 0.081871 0.043875 -0.094726 -0.302051 0.019301 0.058218 0.106770 -0.262248 -0.310037 0.006167 -0.061840
child -0.171813 -0.341680 0.314819 -0.438158 0.144361 0.148979 -0.357224 0.245569 0.102101 -0.040590 -0.134972 -0.184187 -0.023744 -0.298379 -0.116870 -0.169513 0.060697 0.085043 -0.704981 0.386079 -0.089258 -0.197420 0.176712 0.071583 0.260787 -0.402846 0.561949 -0.189271 0.455294 -0.000648 -0.062629 -0.239920 -0.218636 0.135789 0.102061 -0.053234 -0.094731 0.188102 0.155832 0.109496 0.011068 0.105796 -0.663114 0.624394 -0.096888 -0.116995 -0.031614 -0.077609 -0.140096 -0.077171
like -0.488144 0.129839 0.728835 -1.061704 0.453176 0.061979 -0.551399 0.698755 -0.406696 0.116669 -0.086746 -0.342836 0.298420 -0.457764 0.443000 -0.281354 0.435343 0.550758 -0.372464 0.043282 -0.596156 -0.340796 -0.708867 0.112288 -0.243684 -1.038648 -0.043646 1.239183 0.085738 0.544411 0.000996 0.208342 -0.268681 0.350632 0.031783 -0.605285 -0.490954 -0.156124 -0.468269 0.494556 0.544253 0.279421 0.092980 0.176492 -0.094931 -0.188487 -0.203939 -1.003319 -0.950384 -0.024495
When 0.168644 -0.389455 0.283190 -0.511497 -0.395802 -0.158692 -0.029980 0.150575 -0.692954 -0.284984 -0.352703 -0.240620 0.208419 0.053110 0.388720 -0.167362 0.910280 0.551016 -0.295560 0.154161 -0.044750 0.626289 -0.728006 0.730219 -0.078059 -0.253710 0.151652 -0.296667 0.106959 0.615078 -0.063405 -0.331018 -0.529341 0.286741 -0.152452 -0.826945 -0.056591 0.244539 0.488839 -0.057367 -0.150064 -0.168542 -0.207434 0.222722 -0.188656 -0.059351 -0.460383 -0.893523 0.094821 -0.543287
woke -0.275920 -0.067059 0.629916 -0.187400 -0.453783 -0.142478 -0.340803 0.098728 -0.372682 0.061821 0.079476 -0.183968 -0.307614 -0.142173 -0.447311 -0.192525 0.815490 0.483967 -0.324526 0.207568 -0.379924 0.021811 -0.418210 0.292492 0.383636 -0.656020 0.301303 -0.152858 0.139327 0.161237 -0.301487 -0.010330 -0.134768 -0.345150 0.142504 -0.266450 -0.391228 0.008358 0.449747 0.445532 -0.193488 -0.359242 -0.306248 0.088521 -0.349631 0.684529 -0.321187 -0.115661 0.496152 0.066205
up 0.282747 0.213486 0.525942 -0.105052 0.300540 -0.017825 -0.487127 0.358751 -0.675122 -0.084490 -0.293011 -0.060965 0.103954 -0.385024 -0.592750 -0.511187 0.874750 0.378997 -0.329305 0.398161 -0.232119 -0.024287 -0.197188 0.523033 0.109703 -0.504129 0.014120 -0.356545 0.339697 0.958906 -0.147278 -0.237548 -0.306942 0.285722 -0.380076 -0.730255 -0.186913 0.177907 -0.323460 0.824150 -0.313162 0.351050 -0.933085 -0.135442 0.393327 0.263555 -0.398041 -0.232701 -0.429379 -0.412319
dull -0.292071 -0.036644 -0.136409 0.148316 -0.049855 0.012788 -0.491605 0.217637 -0.180668 0.006093 0.102281 0.148179 0.346252 -0.090739 -0.479393 -0.230548 0.111017 -0.262601 -0.049309 -0.057105 -0.154279 -0.043600 0.330423 -0.030602 0.172276 -0.564504 0.223468 -0.088669 0.322594 0.462071 -0.140509 0.479232 -0.362111 -0.229113 0.583609 -0.423136 -0.496162 -0.049243 -0.002665 0.484760 0.057794 0.320133 -0.637001 0.083538 -0.548024 0.220358 -0.808290 -0.390870 -0.083360 -0.248575
gray -0.410538 -0.231701 0.594719 -0.483304 0.205481 -0.651054 -0.107771 0.200256 -0.215373 0.084007 0.426230 0.060792 -0.071881 -0.003731 0.168975 -0.100161 -0.062681 0.285784 0.341541 -0.395956 -0.200417 -0.223216 0.068905 0.141160 0.320750 -0.973249 0.608095 0.217868 0.565362 0.017021 0.055570 -0.371799 -0.436313 -0.026384 0.103557 -0.376811 -0.438849 0.032939 0.199765 0.164672 0.160310 -0.154894 -0.211321 0.528459 0.256381 0.568623 -0.337494 0.267152 0.148528 -0.214257
Tuesday 0.223579 0.203720 0.548875 0.420306 -0.112534 -0.819830 -0.223756 -0.128528 0.259035 0.001004 -0.111783 -0.196077 0.352261 0.036595 0.059436 0.138866 0.296769 -0.186698 -0.010350 0.181315 -0.342263 0.190840 -0.387882 0.330815 0.144309 -0.808137 0.394282 0.480314 -0.296990 0.411894 -0.340070 0.325465 -0.461207 0.292852 -0.006235 -0.501246 -0.051711 0.274727 0.413274 0.499708 0.147657 -0.060603 -0.423338 0.061832 0.048908 0.312666 -0.349888 -0.590005 -0.202411 -0.079422
our -0.234829 0.013182 0.640178 -0.041133 -0.374218 -0.559237 0.014594 -0.012766 -0.002798 0.018222 0.461010 -0.081545 -0.136695 0.139136 -0.199661 -0.464946 0.990100 -0.754963 -0.598691 0.255062 -0.684436 0.549082 0.170743 0.350924 0.032223 -0.793765 0.910198 0.167727 0.283834 0.278468 0.250689 0.212931 -0.276412 0.147024 0.373222 -0.292046 -0.450467 -0.100134 0.193489 0.869670 -0.402101 -0.021448 -0.539890 0.109402 -0.485812 -0.009617 -0.381513 0.140709 -0.433632 -0.071506
story 0.171741 -0.293911 0.288205 -0.226530 0.100762 -0.254491 -0.379686 0.120373 -0.544166 -0.036401 -0.519136 -0.348151 -0.171740 0.119095 -0.290910 -0.296185 0.750476 0.510468 -0.053882 0.112414 -0.113456 -0.273288 -0.360127 0.288930 0.097939 -0.576127 -0.002929 0.537403 -0.321192 0.143787 -0.347864 -0.418381 -0.448379 0.101413 0.147156 -0.847025 -0.287477 -0.059238 0.426142 0.360757 0.348395 -0.103412 -0.720800 0.201618 -0.302522 -0.005632 -0.546261 -0.127984 0.028378 -0.221412
starts -0.658976 -0.318242 0.204450 -0.109157 -0.163862 -0.423652 -0.120581 0.153558 -0.423322 0.029498 0.116443 0.223196 -0.062852 0.224275 -0.174083 -0.013552 0.289164 0.170098 0.172523 0.169722 -0.057184 -0.129126 0.043408 0.329877 -0.135509 -0.500165 0.088798 -0.100640 0.436488 0.542228 -0.067505 -0.076969 -0.470111 -0.160549 0.241645 -0.439779 -0.073158 -0.422736 0.411086 0.322058 0.157252 0.261042 -0.411341 0.256715 -0.636540 -0.065937 -0.086570 -0.265668 0.221620 0.118664
nothing -0.587104 0.226484 0.395713 -0.333087 -0.217295 -0.501865 -0.495948 -0.242723 0.127569 -0.520179 0.384792 -0.154337 -0.110635 -0.520684 0.167746 -0.385549 0.422626 0.338578 0.033775 0.203509 0.012575 0.171346 -0.743842 0.360001 0.197624 -0.491797 0.290510 0.444875 0.672966 0.744115 0.397448 -0.609283 -0.935549 0.173472 0.067099 -0.764353 -0.252158 -0.242322 0.497284 0.776879 -0.054122 0.283778 -0.060006 0.035696 -0.010436 -0.168834 -0.980232 -0.156722 0.031159 -0.242177
cloudy -0.031122 0.058464 0.343147 0.142082 0.006460 0.223886 -0.356770 -0.129219 -0.100232 -0.319593 0.189807 -0.895670 0.060943 0.309972 -0.036026 -0.079367 0.264058 0.068225 0.266040 0.031649 0.122792 0.200583 0.426839 0.780012 0.182991 -0.681221 0.143717 0.138875 0.262562 0.150794 -0.034432 -0.197656 -0.586147 -0.054064 0.338698 -0.263828 0.635871 0.224557 0.161005 0.135310 0.213846 0.517742 -0.150121 -0.162653 -0.533270 0.424287 -0.171474 -0.186230 -0.225704 -0.275500
sky -0.308876 0.238673 0.651843 -0.309533 -0.286229 -0.207974 -0.598052 -0.040238 -0.713312 0.126056 0.487946 -0.281678 0.036259 -0.153085 0.173745 0.402387 0.133645 0.957213 -0.012418 0.317102 0.177374 0.080543 -0.186657 0.163654 0.048095 -0.609615 -0.025558 0.110863 0.530694 0.154832 -0.255900 0.167700 -0.840696 -0.164466 0.313723 -0.558498 -0.141018 0.387273 0.295348 0.269540 0.179101 0.143743 -0.255621 0.353009 -0.383156 0.096877 -0.526890 -0.483972 0.129862 -0.676134
outside -0.290628 -0.094633 1.084066 -0.233772 -0.220269 -0.076463 -0.324296 0.537123 -0.417871 0.182993 -0.000494 -0.117134 0.161752 0.398600 0.229714 -0.429558 0.093443 -0.301772 0.191544 0.006256 -0.058489 -0.200561 -0.402948 0.215429 -0.322250 -0.564370 0.186421 0.023284 0.391358 0.770167 0.207654 -0.449192 -0.061173 -0.244955 0.002314 -0.946090 -0.511173 -0.003703 0.246965 0.335071 0.291369 -0.036024 -0.967541 0.372634 -0.156483 0.493407 -0.015850 -0.200144 0.018985 -0.518523
suggest 0.034940 -0.188564 0.570889 -0.625409 -0.029683 -0.141893 0.038336 0.635937 -0.178124 -0.041224 0.130807 -0.334267 -0.045994 -0.131351 -0.408710 -0.276627 0.345932 0.048268 -0.153649 -0.476826 -0.297661 0.097798 -0.090974 0.307221 -0.073912 -0.712592 0.420405 -0.266052 0.005385 0.087657 -0.098144 -0.392569 -0.104018 0.168498 -0.031137 -0.596711 -0.389737 0.295065 0.612651 0.268745 0.261517 0.302601 -0.111031 -0.019854 0.252930 -0.503941 -0.453232 -0.551610 -0.473355 -0.058371
things -0.228693 -0.596895 0.525508 -0.527877 -0.190438 0.074388 -0.002108 0.326447 -0.565612 0.272662 0.403777 -0.658060 -0.244409 0.358921 0.029981 -0.455794 0.893293 -0.208907 -0.041902 1.023423 0.350397 0.347921 -0.583159 0.190740 0.012381 -0.836600 0.320535 0.152578 0.128844 -0.182601 -0.101683 0.029348 -0.629101 -0.196660 0.312176 -0.351651 -0.618602 -0.287133 0.653427 0.411408 0.198516 -0.095930 -0.301670 0.452245 -0.541155 -0.452118 -0.675112 0.003017 -0.453376 0.512646
soon -0.179212 0.023059 0.635635 -0.867641 0.465285 -0.370588 0.133190 0.095757 -0.260254 0.190367 -0.024792 -0.266247 -0.368557 -0.439835 0.298900 0.179160 0.926529 0.321417 -0.294731 0.247562 -0.040036 0.026775 -0.101561 0.141209 -0.299657 -0.762459 0.237797 -0.075852 -0.048377 -0.079786 0.278680 -0.259343 -1.131672 -0.074723 -0.214615 -0.368048 -0.104814 0.023649 0.291169 0.061026 -0.130834 0.066207 -0.146473 0.312860 -0.316886 0.449945 -0.382444 -0.063032 0.229286 0.179622
happening -0.323915 -0.388207 0.372031 -0.118013 0.119369 -0.064623 -0.014912 -0.055462 -0.353337 -0.167391 0.176461 0.068203 -0.062461 -0.157369 0.184955 -0.133863 0.412490 0.310047 -0.196985 -0.024069 -0.089113 0.170232 -0.230736 0.239407 -0.136010 -0.671644 0.415329 -0.177479 0.343221 0.813692 0.398328 -0.586906 -0.159885 -0.402929 0.249008 -0.340221 0.085774 0.133124 0.052835 0.555818 -0.017857 0.594449 -0.490630 0.098564 -0.449343 -0.063085 -0.126436 -0.029899 0.004735 -0.315014
all -0.309114 -0.487847 0.772099 -0.286843 -0.145917 -0.272382 -0.510197 0.250046 -0.699913 -0.230824 0.399870 -0.440842 -0.667628 -0.148407 -0.246401 -0.257675 0.753679 0.303494 -0.266405 0.459694 0.101832 0.061621 0.402350 0.186194 0.382228 -0.123944 1.169252 0.321828 0.231952 0.860942 0.536737 -0.439126 -0.543304 -0.013961 0.006427 -0.456159 -0.063080 -0.795978 0.659429 0.002168 -0.134891 -0.089924 -0.502153 0.612702 0.287795 -0.830290 -0.940421 0.074062 -0.592009 0.343665
country -0.081729 -0.263874 0.155129 0.053947 -0.157942 -0.219001 0.163248 0.109026 -0.796124 0.232129 -0.468177 -0.003538 0.118092 0.340841 -0.438539 -0.103064 0.111262 0.761388 -0.063930 0.209741 0.011066 -0.099219 0.066221 0.027104 0.330978 -0.509998 0.318055 0.040138 0.227786 0.426704 0.117433 -0.211953 -0.107809 0.283351 0.384595 -0.377538 -0.232653 0.295062 0.345835 0.296928 0.475992 -0.184313 -0.425700 0.599376 0.028343 0.146965 -0.135114 -0.471411 -0.082412 0.351169
hummed -0.027532 0.289699 0.193291 -0.592561 0.319658 0.042584 -0.314248 0.173109 -0.100275 0.092828 0.244745 -0.698226 0.029685 0.114312 0.033857 0.275418 0.371109 0.067040 -0.017380 0.299126 -0.306093 0.223117 -0.063646 0.542346 0.129516 -0.792935 -0.093918 -0.008225 -0.004234 -0.019044 -0.457978 -0.284937 -1.048324 -0.039890 -0.159890 -0.184501 -0.149088 0.004254 0.383460 -0.070569 0.372235 0.403468 0.044487 0.145057 -0.170058 0.396567 -0.058948 -0.356197 0.141162 0.003584
picked 0.297365 0.312474 0.639397 -0.158887 -0.132077 -0.311628 -0.225186 0.071745 -0.132717 0.388665 -0.577032 -0.877381 -0.403109 -0.051294 -0.489513 -0.122771 0.282298 0.318181 -0.080738 0.060873 -0.240896 -0.229252 0.056446 0.312420 0.251583 -0.885637 -0.048168 -0.168325 0.440681 0.887746 -0.155642 -0.227339 -0.413675 -0.064226 0.530984 -0.412386 -0.529476 -0.003197 0.571762 0.556066 -0.294507 -0.068920 -0.916786 0.506483 -0.285083 0.304623 -0.103669 -0.488654 0.213074 0.016379
his -0.397238 0.047469 0.635180 -0.208467 0.386833 -1.073433 -0.179302 0.327807 -0.262651 -0.987885 -0.032745 -0.478797 0.279906 -0.585372 -0.135456 0.031660 0.628271 0.531897 -0.698888 0.250576 -0.813796 0.579753 0.704347 0.393344 0.012190 -0.486131 0.620596 0.100463 0.471431 1.155889 0.824293 -0.245432 -0.290284 -1.049809 0.864768 0.129878 -0.363464 -0.211641 -0.348671 0.544258 -0.010123 0.048318 -0.934955 0.121345 -0.062734 0.579539 -0.237421 -0.098942 0.197738 0.718076
most -0.306780 -0.019581 0.459038 -0.449076 -0.193309 -0.299968 -0.592477 0.000583 -0.625900 -0.000833 -0.009312 -0.861906 -0.145122 0.272781 0.256438 -0.169221 0.216651 0.305809 -0.263064 0.358309 0.244639 0.495984 -0.108249 0.019744 -0.318934 -0.744801 0.617585 0.018841 0.049674 0.337267 -0.300395 -0.205945 -0.386219 -0.171121 -0.338276 -0.347374 -0.368049 0.443527 0.759662 0.053845 0.205354 -0.134123 -0.508865 0.060681 -0.160104 -0.093990 -0.202642 -0.117489 -0.011069 -0.377728
boring -0.155455 -0.211424 0.299452 -0.342909 0.072158 -0.474363 -0.539044 0.391499 -0.565560 0.070241 -0.196273 0.061068 0.086595 -0.270264 0.014731 -0.156615 0.145055 0.183106 -0.271201 -0.145306 -0.126307 0.199141 -0.179551 0.033718 -0.022451 -0.392398 0.465590 0.645526 0.302883 0.635214 -0.133318 -0.205651 -0.456100 -0.044846 0.227395 -0.235957 -0.451445 0.112935 -0.207166 0.089731 0.342911 0.049418 -0.360535 0.412626 -0.661038 0.275455 0.005564 -0.115665 0.102828 -0.271450
tie -0.100097 -0.050602 -0.227538 -0.450868 -0.003058 0.198936 -0.182272 0.157149 0.233448 0.052744 0.155569 -0.397236 0.078269 -0.503283 -0.354046 -0.173173 0.229677 -0.312745 -0.364326 0.422665 0.189560 0.153341 -0.327086 -0.511145 0.180185 -0.458230 0.000652 -0.242534 0.327289 -0.045053 0.118417 -0.018740 -0.239861 -0.033818 0.188037 -0.229102 -0.171627 0.215970 0.029733 0.290876 0.138944 0.129985 -0.376780 0.352348 -0.078826 0.009178 -0.432438 -0.421909 0.233083 0.230087
work -0.311775 -0.121172 0.364909 -0.312762 -0.327886 -0.381722 -0.421453 0.561974 -0.113246 -0.165557 -0.094017 -0.208657 -0.085218 -0.616171 0.291281 -0.077222 0.408335 0.368554 0.451182 0.233414 -0.038899 0.711429 -0.500989 0.735862 0.214627 -0.755789 0.028520 0.249131 0.383407 -0.065483 0.561908 -0.119097 -0.158133 -0.187708 -0.114189 -0.492056 -0.663383 0.223922 0.126562 0.449882 0.060090 -0.077045 -0.235568 0.341138 -0.506725 0.234303 -0.895617 -0.169450 -0.130225 -0.239082
gossiped -0.005238 -0.302372 0.072663 -0.258589 0.087062 0.042213 0.127911 -0.532617 -0.377199 -0.178930 0.117708 0.143407 0.651433 -0.052607 -0.182728 -0.128912 -0.008867 -0.385326 0.428768 0.350529 -0.238914 0.191724 -0.228777 0.062161 -0.385431 -0.447387 0.041726 -0.288268 0.505705 0.671909 -0.086899 -0.145635 -0.350900 0.016597 -0.272224 -0.180097 -0.061651 -0.075435 -0.067894 -0.048823 -0.198980 0.208292 -0.127387 0.193869 -0.137443 0.081177 -0.378301 -0.231681 -0.307989 -0.345684
happily -0.360835 -0.488683 0.458826 -0.547614 -0.221029 -0.361165 -0.085208 0.503580 -0.360000 -0.095731 0.417800 -0.244177 0.046418 0.283591 0.413053 -0.112448 0.433744 0.089849 0.066554 0.111804 0.143778 -0.015367 0.066233 0.640781 0.505861 -0.695455 -0.130213 -0.013169 0.164991 0.304058 -0.082832 -0.024384 -0.447476 -0.211569 0.192289 -0.037316 -0.595859 0.011641 0.282076 0.246391 -0.371800 0.148957 -0.501921 0.325411 -0.158901 0.201304 -0.331190 -0.348559 -0.034643 -0.001641
wrestled 0.071319 -0.431640 -0.133616 -0.702175 -0.040837 -0.264299 -0.123169 -0.266881 -0.411566 -0.095474 -0.219948 0.344151 0.350999 -0.352401 -0.158979 0.335392 0.027024 0.290698 -0.124971 0.067315 -0.096045 -0.447650 0.444457 0.236194 -0.194491 -0.310562 0.249755 0.173464 0.185866 -0.106939 0.125833 -0.481522 -0.198391 0.044495 -0.205008 -0.336663 0.606400 0.078890 0.122885 0.366296 0.111996 0.136937 0.118807 0.453056 0.046618 -0.061468 -0.299825 0.004476 -0.166373 -0.346083
screaming -0.120290 -0.189951 0.198727 -0.317632 0.139696 -0.181149 -0.054889 -0.291904 -0.093760 -0.310171 -0.006971 -0.297996 0.102839 -0.160539 -0.743833 0.102881 0.174658 0.223830 -0.391176 0.159844 -0.653696 -0.013742 -0.466951 0.521904 0.280161 0.024856 0.262233 0.647677 0.497657 0.354080 -0.070846 -0.352644 -0.463029 0.154730 -0.150897 -0.699689 0.092304 -0.084625 0.052856 0.057267 0.127454 0.257079 -0.654780 0.382716 -0.174012 0.293681 0.113046 -0.309524 0.021180 -0.362914
into 0.162400 0.192718 1.003387 -0.395630 0.100978 0.043683 -0.488113 0.330642 -0.289576 -0.379046 -0.211125 -0.521685 0.816557 -0.184034 0.248485 0.020225 0.130456 0.108166 0.193510 -0.262877 0.453461 0.175742 0.872633 0.462133 0.349198 -0.377495 0.473854 0.159046 0.553606 0.827745 0.047597 -0.613396 -0.246263 0.074837 0.234068 -0.511148 -0.384985 0.586162 -0.113382 -0.273328 0.622335 -0.239842 -1.047935 -0.317342 0.386560 0.309456 -0.719555 -1.221881 0.195114 0.263103
high -0.175037 0.038128 0.642527 -0.041227 0.336360 -0.542724 -0.290892 -0.305464 -0.383726 0.218668 -0.055105 -0.336921 0.354235 -0.071754 -0.350854 0.138791 0.239100 0.392399 0.015440 -0.282883 0.043861 -0.156792 0.472998 0.374842 -0.389799 -0.647295 0.955643 0.100573 0.138050 0.819391 -0.050447 0.047109 -0.429729 -0.633101 0.443997 0.050304 -1.044995 0.388834 -0.315096 0.552548 0.116488 0.290750 -0.235307 0.481844 -0.090218 0.847689 -0.703147 -0.129418 0.339029 -0.143918
chair -0.327078 0.114628 0.115019 -0.185810 -0.208697 -0.620894 -0.592664 -0.089443 -0.410026 0.258955 -0.137930 -0.281633 0.119529 0.506332 -0.231443 -0.276182 0.188711 0.415987 -0.243659 0.050566 -0.419163 0.096993 -0.148342 0.393100 0.021583 -0.714780 -0.032753 -0.059049 0.113033 0.381026 -0.293064 0.135501 -0.220444 -0.003673 0.142973 -0.227120 -0.518494 0.222540 0.221813 -0.060543 0.354372 0.252788 -0.811859 0.046396 -0.519972 0.544689 -0.103907 -0.523092 0.050659 -0.234609
None -0.273107 0.134641 0.315971 -0.076906 -0.001360 -0.030402 -0.454353 -0.119191 0.108558 -0.024836 0.130055 -0.345111 0.318154 -0.032078 -0.118773 0.000504 -0.044556 -0.176028 0.021991 -0.457748 -0.050999 0.165517 -0.101077 0.493533 0.217412 -0.592391 0.568541 0.225851 0.368722 0.312146 -0.435028 0.188650 -0.598059 -0.024836 -0.135577 -0.644082 -0.362394 -0.356170 0.068885 0.272069 -0.204871 0.332681 0.074131 -0.318612 0.014240 -0.054510 0.055233 0.026447 -0.047760 0.186333
them 0.089448 0.133251 0.836730 -0.340086 0.247420 -0.399147 0.241367 -0.218439 -0.196420 0.087604 -0.283988 -0.337639 -0.147484 -0.217159 -0.348210 0.275738 0.757776 0.048590 -0.227084 0.579073 -0.550407 0.413918 -0.610501 0.497248 0.451379 -0.268919 0.590509 0.805107 -0.037979 0.796221 0.637012 0.049910 -0.848880 -0.429889 0.054563 -1.053267 -0.776832 -0.146775 0.097276 0.092694 -0.102582 0.163557 -0.402697 0.204253 0.119374 0.317306 0.106007 0.103980 -0.838202 -0.048202
noticed -0.351024 -0.140093 0.835154 -0.732597 0.253438 -0.335764 -0.000320 0.319537 -0.564767 -0.385262 -0.141520 -0.454697 0.103030 -0.100255 0.153603 -0.033414 0.925464 0.816398 -0.530578 0.151428 0.080431 -0.306929 -0.471634 0.391130 0.292385 -0.664387 -0.071233 0.279464 0.121862 0.419670 0.134964 0.065744 -0.774409 0.132483 0.609681 -0.756557 -0.273190 0.251853 0.819158 0.699492 0.257687 -0.466817 -0.198645 0.619048 -0.294112 -0.056485 -0.140006 -0.162952 -0.222230 0.198694
tawny 0.175974 -0.043125 -0.007026 -0.295130 -0.293008 -0.278855 -0.093958 0.127826 -0.091302 -0.143554 0.168688 -0.236717 0.008942 -0.507702 -0.054276 0.225561 0.445826 0.264882 -0.243223 0.052865 0.141459 0.248090 0.145479 0.344502 0.267106 -0.272052 0.095149 0.800402 0.268345 -0.100217 -0.061948 -0.337535 -0.200035 0.425383 -0.165605 -0.234681 0.049722 -0.034845 -0.404088 -0.088426 0.084503 0.118036 -0.233759 0.046003 0.432863 -0.019199 0.118065 -0.294725 -0.000357 -0.325492
owl 0.143299 -0.483639 0.284691 -0.354649 -0.086342 0.084553 -0.488470 -0.179070 -0.320789 -0.137266 0.182835 -0.420734 -0.612969 0.100574 0.235223 -0.279996 0.240400 -0.243033 -0.117084 0.112685 -0.024278 -0.296704 -0.111476 0.466453 0.116821 -0.791507 0.112498 0.067312 0.101558 0.573892 -0.328769 -0.202806 -0.327329 0.080251 0.000680 -0.484981 -0.588074 -0.029931 0.079618 0.207034 0.183537 0.132453 -0.764794 0.895199 -0.457114 -0.170979 -1.098945 -0.260787 0.336427 -0.345882
flutter -0.250588 0.321370 0.226111 -0.412708 0.428212 -0.122113 -0.209828 0.249296 -0.079318 -0.043980 -0.207813 -0.230558 -0.115678 0.497678 -0.297712 -0.064192 0.245829 0.674893 0.155796 0.081323 -0.262351 -0.149475 0.003373 0.132573 0.257015 -0.847671 0.133423 -0.060661 0.226817 0.043253 -0.237295 -0.218872 -0.224228 0.239661 0.072474 -0.594924 -0.337717 0.006546 -0.222467 0.060874 0.028755 -0.327554 -0.127594 0.260534 -0.163487 -0.403312 -0.666616 -0.315971 0.336320 -0.325588
past -0.327682 0.011698 0.840317 -0.937342 -0.163181 0.448093 -0.550946 0.143704 -0.336829 -0.571185 -0.156270 -0.408562 -0.246033 -0.342946 -0.312246 0.387761 0.611443 0.394201 -0.311425 -0.080622 0.336035 0.342328 0.024251 0.916172 0.273765 -0.720577 0.388051 0.148970 -0.149851 0.761222 -0.076064 -0.438777 -0.278195 0.316437 0.233601 -1.088482 0.192789 0.067634 -0.606218 0.097045 -0.228692 0.132561 -0.517296 -0.458989 0.307770 0.188375 -0.726950 -0.628789 0.007772 -0.324911
window -0.567009 0.170148 1.031389 -0.285443 0.154320 -0.341229 -0.536137 -0.262936 -0.252885 0.502233 0.060793 -0.196125 0.023911 -0.091539 0.015861 -0.034402 0.534325 1.010670 0.423610 -0.114564 -0.317286 -0.072600 -0.556433 0.320121 0.563068 -0.370029 0.364973 -0.205935 0.366188 0.212872 -0.084126 -0.190626 -0.540408 -0.180904 0.121550 -0.855521 -0.296841 -0.259657 0.000708 0.598415 0.051364 -0.281686 -0.379551 0.183197 -0.038899 0.218420 -0.517184 -0.492185 0.053826 -0.301157
At -0.667743 0.392690 1.253322 -0.450139 -0.033179 -0.149813 -0.557574 0.230666 -0.463949 -0.241567 0.092148 -0.326207 0.934577 0.009527 -0.662263 -0.098057 0.651696 0.540834 -0.264470 0.125529 -0.108862 -0.009197 -0.301930 0.447852 -0.389412 -0.283614 0.203266 1.107247 0.207109 0.415537 -0.174163 0.047471 -0.384347 -0.140663 0.316113 -0.556659 0.133007 -0.399271 0.603763 0.506979 0.510361 0.152490 -0.714935 0.078480 0.051306 0.495834 0.306578 -0.513079 -0.052799 0.059381
half 0.665420 -0.250673 0.086896 -1.155496 0.011019 -0.021761 -0.380253 0.135962 -0.246530 -0.190385 -0.068824 -0.469822 -0.294584 -0.195917 0.182018 0.222864 0.729774 0.790405 -0.271974 -0.215000 -0.543452 0.015116 0.254989 0.598778 -0.194334 -0.833614 -0.155825 0.258312 0.539084 -0.028391 0.065207 -0.609124 -0.402927 0.398274 0.163781 0.037163 -0.174941 -0.028244 -0.111988 0.215716 0.204730 0.381285 -0.338734 0.583234 0.064898 0.183573 -1.172414 -0.240891 0.532020 0.127612
eight -0.278902 -0.294075 0.275586 -0.389309 0.222723 -0.635247 -0.271524 0.053154 0.153854 -0.301577 0.023645 -0.544447 0.208706 -0.007221 -0.169929 -0.307905 -0.068898 -0.001403 0.601130 -0.106773 -0.348193 0.281040 0.052207 0.203759 -0.104056 -0.488824 0.001519 0.103565 0.175514 0.640281 -0.474291 0.034726 -0.218578 0.016989 0.100795 -0.203930 -0.312085 0.109452 -0.060515 0.062820 0.207580 0.176045 -0.174344 -0.025767 -0.801436 -0.047535 -0.586083 -0.194473 -0.084570 -0.352937
briefcase -0.197050 -0.143053 0.277250 -0.092356 0.254101 -0.234424 -0.357525 0.584907 -0.183433 -0.304552 -0.381618 -0.090327 -0.117530 -0.120320 -0.058462 -0.465940 -0.032825 -0.188373 -0.018510 0.565066 -0.077554 0.065248 -0.101591 -0.075522 0.127427 -0.209299 0.019752 -0.139685 0.077503 0.056108 -0.277109 0.041626 -0.118150 -0.101402 0.287788 -0.184855 -0.440282 -0.051313 -0.154485 0.177973 0.053186 0.253211 -0.107941 0.189537 -0.244031 -0.095836 -0.156451 -0.161109 -0.040522 -0.350420
pecked 0.081515 -0.444007 0.271909 -0.259516 -0.328071 -0.072972 0.290100 0.179116 -0.351207 -0.202648 0.173619 0.132831 -0.499587 0.222189 -0.272537 -0.072703 0.032330 0.237460 0.080041 0.400524 0.113543 -0.012411 -0.235224 0.055312 0.289954 -0.378042 0.160991 -0.030783 0.129760 0.327807 -0.024333 0.105273 -0.365946 -0.145753 -0.189248 -0.262800 -0.161516 0.132337 -0.153869 0.041908 0.094629 0.278062 -0.391714 0.184250 -0.250821 -0.197366 0.279809 -0.251707 -0.185153 -0.037773
cheek 0.147731 -0.087906 0.593317 -0.076811 -0.176805 -0.368790 -0.561078 0.181725 -0.393640 -0.297102 -0.355575 -0.497358 -0.189010 -0.070851 -0.174889 -0.153620 0.052159 0.726397 0.342342 -0.053276 -0.243580 0.111319 -0.104153 0.334669 -0.383999 -0.415805 -0.128695 0.022513 0.467431 0.409159 0.215192 -0.024984 -0.030444 0.030962 0.170451 -0.190539 -0.387356 0.038530 0.689275 0.490893 -0.410063 0.220669 -0.652069 0.235635 -0.052899 0.172696 -0.369777 -0.898052 -0.226039 -0.519339
