6913 50
Harry 0.563423 0.022685 -0.542251 0.476005 0.922797 0.326985 -0.143674 -0.264747 0.421894 -0.611240 0.272248 -0.629563 0.643053 0.275115 -0.714633 -0.108554 -0.397659 0.370072 0.654729 -0.891662 -0.249393 0.021649 0.317567 -0.391557 -1.227193 0.627864 0.263011 -0.340403 -0.229280 0.420521 -0.062930 0.612156 -0.001557 -0.154278 0.306881 0.180349 -0.243667 -0.000704 -0.368087 -0.075072 -0.429949 0.017706 0.038386 0.549613 0.200231 0.689179 0.077240 -0.232976 0.121448 -0.731552
Potter 0.272139 0.620748 -0.856234 -0.297162 0.086133 0.283452 -0.031024 -0.172192 0.452804 -0.394416 0.298784 -0.037087 0.132498 -0.446761 0.337925 0.116413 -0.393895 0.532184 0.534305 -0.313650 -0.592438 -0.043364 0.004638 0.264719 -1.714549 0.355311 0.274527 -0.518187 -0.282239 -0.248602 0.227959 0.526171 0.110157 -0.138702 -0.454092 -0.628206 -0.200371 0.279046 -0.332160 -0.841240 -0.507139 -0.235869 -0.405285 0.357167 0.374090 0.849721 0.681006 0.149404 -0.139092 -1.232429
and 0.175858 -0.090438 0.127163 -0.114787 -0.196126 0.616372 0.187349 -0.303039 0.612224 0.107688 -0.457391 -0.239653 0.854222 0.092699 -0.638095 -0.160422 0.179385 0.485788 0.325695 -0.084897 0.179731 0.277992 0.339562 -0.056014 -0.604176 0.323202 0.095587 -0.439683 -0.190881 -0.153583 0.028561 0.658734 -0.221607 0.527124 0.251630 0.203873 -0.485947 -0.038315 -0.423012 -0.208477 0.144268 -0.042330 -0.366546 0.804618 -0.286826 0.221790 -0.057501 0.159606 -0.254947 -1.113129
the 0.435449 -0.089826 0.383933 -0.102253 0.916604 0.436283 0.283170 0.083621 0.423961 0.019305 0.033787 0.051157 -0.138866 0.289289 0.443235 0.151154 0.411597 0.608094 0.659249 -0.093081 -0.232346 0.110889 0.068127 0.047354 -1.582877 0.546092 -0.051435 -0.104189 -0.378727 0.185612 -0.334234 0.107544 -0.811946 0.332686 -0.134894 0.146009 0.265414 -0.289425 -0.053232 -0.771320 0.524665 -0.032465 0.752504 0.313681 -0.039139 0.309843 0.317902 0.436002 -0.080844 -0.511363
Sorcerers 0.609470 0.792580 -0.142556 -0.463632 0.445294 0.203605 0.135191 -0.144959 0.428948 -0.288179 -0.203745 -0.214017 -0.263057 -0.099558 0.135256 -0.360417 0.257614 0.160565 0.246976 -0.232250 -0.064190 -0.065968 -0.432172 -0.098232 -1.378736 0.524394 0.402456 -0.975901 -0.311290 0.261896 -0.138192 -0.239611 -0.840690 -0.570207 0.209958 0.342605 0.290238 0.794383 0.398560 0.104269 0.064502 -0.164490 -0.085370 -0.047193 0.421449 0.236554 -0.294278 1.032120 -0.383032 -0.657448
Stone 0.309455 0.503112 -0.349903 -0.137128 0.519117 0.448783 -0.224445 0.401099 -0.008537 0.292439 0.138541 -0.618237 0.208230 0.317378 0.265539 0.011044 0.165287 0.436903 0.499618 -0.645520 0.094890 0.986002 -0.034501 -0.156242 -1.622167 1.472736 0.374672 -0.467518 -0.451126 0.392512 -0.011079 -0.290119 -0.323470 -0.581652 0.063478 -0.106969 0.816937 -0.032390 0.270491 -0.306230 0.123595 -0.623746 0.503182 0.217070 0.979972 0.360298 0.212227 0.381317 -0.244557 -0.830614
CHAPTER 0.613971 0.295246 -0.516020 -0.390180 -0.172567 0.120652 0.007306 -0.997921 0.275170 0.030017 0.058275 -0.158491 0.430948 -0.204966 0.138044 -0.476557 -0.052746 0.192621 0.372869 -0.002587 -0.047039 0.032516 0.572740 0.195838 -0.733472 0.341024 0.264740 0.060571 0.471580 0.156754 -0.449140 0.201654 -0.750028 -0.100044 -0.221905 -0.477821 0.324770 0.016093 -0.088568 -0.059965 0.151059 -0.121142 0.011986 0.585663 0.312738 -0.155607 -0.121792 0.147323 0.043536 -0.312706
ONE -0.305221 0.432184 -0.086427 0.242812 0.227851 0.068394 -0.153832 -0.099008 0.259385 0.252445 0.072419 -0.213397 -0.002599 0.151570 -0.186051 -0.298172 0.123032 0.367081 0.829741 0.215372 -0.094816 -0.111901 0.325475 0.056648 0.058999 0.413803 -0.093589 0.040002 -0.228292 -0.083054 0.020829 -0.028960 -0.063350 0.338382 0.428101 0.306320 0.323608 -0.008660 0.132936 0.022196 0.098045 -0.169704 0.199463 0.513230 0.127209 -0.130304 0.008757 -0.398558 0.294641 -0.178734
THE 0.719841 0.656963 -0.297314 -0.113864 0.022185 0.151572 0.131469 -0.344587 0.865975 -0.201098 -0.328616 0.393677 0.282244 -0.065151 -0.493364 -0.763413 -0.022124 0.138322 0.537004 0.392094 -0.132406 0.507698 0.021641 -0.152828 -0.016495 -0.201177 0.484319 -0.125760 0.171291 -0.149611 -0.595365 0.301225 -0.305227 -0.130060 -0.186867 0.216747 0.376140 0.155256 0.573653 -0.165881 0.061214 -0.600822 0.017168 0.408186 -0.043980 -0.246011 -0.431919 0.502831 0.039191 -0.700564
BOY -0.282633 0.826973 -0.369592 0.047845 0.440358 -0.086849 0.022035 -0.263297 0.261270 0.380049 -0.113835 -0.128191 0.175204 0.099900 0.024157 -0.282218 -0.039822 -0.286476 0.411191 -0.061587 0.191654 0.142384 -0.038429 -0.264109 -0.137851 0.304021 -0.178398 -0.455645 0.020287 -0.186859 -0.099417 0.128739 -0.297394 -0.064122 0.239839 -0.111856 0.303471 0.392344 -0.027261 -0.083564 0.137482 -0.036669 -0.094382 -0.209149 0.028445 0.260668 0.213039 0.033295 0.240164 0.017998
WHO 0.286868 0.297748 -0.019105 -0.171064 -0.231930 0.100648 -0.512484 -0.088207 0.174726 -0.166721 -0.079167 0.689829 0.138425 -0.053949 -0.186076 0.109793 0.419491 0.025415 0.248516 0.248052 -0.276383 -0.005934 -0.188469 -0.367643 -0.332770 0.260396 -0.183897 -0.393731 -0.117754 0.487342 0.431585 -0.033462 -0.251380 0.096457 0.275677 -0.007716 0.796407 -0.374122 -0.167532 0.224638 0.039177 -0.295631 -0.001796 0.239898 -0.120509 -0.200815 0.034586 0.166669 0.090239 -0.028184
LIVED 0.339812 0.081696 -0.175418 -0.188793 -0.049180 0.501498 -0.154646 0.207969 0.265584 -0.100878 -0.132798 0.001827 0.252871 -0.006010 -0.400017 0.019466 0.522693 0.058019 -0.185337 0.421466 0.081150 0.261921 0.259601 -0.036931 0.031203 0.124337 -0.118419 -0.193558 0.255687 -0.090375 -0.640963 -0.210154 0.021783 -0.376361 0.195639 0.348912 -0.018684 -0.285478 -0.139639 -0.028564 -0.015813 0.090777 0.122721 -0.033103 -0.227685 0.123133 -0.052627 0.129561 -0.263738 -0.331407
Mr -0.091258 -0.232945 -1.322352 -0.156804 -0.157179 1.064795 0.139182 -0.468979 0.951191 -0.212656 0.029963 -0.375712 0.595955 -0.706822 -0.409857 0.200072 -0.751967 0.141469 0.673220 -0.714211 -0.028142 -0.388321 0.285710 0.131069 -0.860985 0.253525 0.082616 -0.442946 0.418532 0.103793 -0.147437 0.393215 -0.100011 -0.124170 -0.291394 0.511419 0.043326 -0.298299 0.018524 -0.303300 -0.276917 -0.209813 -0.486865 0.351806 -0.510447 0.885647 0.399440 -0.374309 -0.053291 -1.000396
Mrs 0.250823 -0.558114 -0.469473 0.004002 0.173285 0.723982 0.282223 -0.659504 0.477051 0.070702 -0.019832 -0.331712 0.099113 -0.640019 -0.300009 -0.065688 -0.334602 -0.058729 0.628970 -0.091148 0.403551 0.225699 0.506971 -0.156431 -0.680768 0.447717 -0.258714 -0.662789 0.538914 -0.180294 -0.476556 0.434592 -0.653473 -0.007489 0.268247 -0.574448 -0.362859 -0.287452 -0.095136 0.194402 0.036068 -0.308992 -0.383501 0.914027 0.260608 1.155203 0.181833 -0.022274 0.255287 -1.030333
Dursley 0.368821 0.125291 -0.734813 -0.047458 0.415216 0.504094 -0.050284 -0.064015 -0.094467 0.219714 0.314463 -0.034004 0.663693 -0.042701 -0.198345 -0.075277 -0.122369 0.098921 0.190989 -0.437495 0.248956 -0.229012 0.184407 -0.044304 -1.196235 0.056212 0.501676 -0.430756 -0.444378 0.374593 -0.005626 0.105444 -0.427483 -0.103191 0.011166 0.225417 -0.281491 0.112924 -0.080243 -0.306559 0.175090 -0.212026 -0.527716 0.640565 0.006407 0.533969 0.611409 -0.166834 -0.298935 -1.005101
of 0.378242 0.292778 0.682931 0.247253 -0.342210 1.017052 -0.176485 0.932604 0.812576 0.031612 -0.489298 0.428252 0.068518 -0.245877 -0.760558 -0.472382 0.105168 -0.575183 0.739707 0.231129 0.059749 0.359602 -0.467736 -0.108352 -1.455017 0.530534 0.262921 -0.326096 -0.333840 -0.123537 -0.056412 -0.179073 -0.041563 0.694133 -0.788836 0.207511 0.045689 -0.457566 0.010277 0.086300 0.180200 -0.624003 0.680056 0.528342 -0.037089 0.690700 0.201843 1.109203 -0.309369 0.025439
number 0.086159 0.422185 -0.022227 0.238265 0.148828 0.901842 -0.023921 -0.053180 0.239115 0.159726 -0.154556 0.452934 0.288635 -0.436240 -0.162225 -0.207795 0.187468 -0.363552 0.518162 -0.316590 0.241657 0.143142 -0.082953 0.162546 -0.660192 0.353997 0.096517 -0.296116 0.000159 -0.218880 -0.361835 -0.127618 -0.654664 0.558431 -0.306160 0.085606 0.456255 0.122310 -0.254750 -0.207139 -0.144163 -0.296493 0.156980 0.600257 0.001375 0.173331 0.147150 -0.113819 -0.190594 -0.670950
four 0.004625 0.458578 0.065690 0.107457 0.271665 1.274674 -0.007672 -0.032308 0.119050 -0.155728 -0.251526 0.023027 0.134466 -0.105832 -0.729976 -0.226665 -0.044637 -0.087160 0.463823 -0.131493 -0.139249 -0.219734 -0.165588 0.749002 -0.643683 0.042263 0.407057 -0.586926 -0.472776 0.320475 -0.335545 -0.168422 -0.325910 0.391995 -0.084875 0.054282 0.297750 0.000996 -0.017030 -0.285625 0.040993 0.131898 0.365334 1.056503 -0.143586 0.681646 0.201748 0.232138 0.391616 -0.946035
Privet 0.581751 -0.490241 -0.350541 -0.238847 0.318603 0.747050 0.052132 0.371887 0.339988 0.151806 -0.084485 -0.023387 0.187368 -0.540690 -0.227556 0.020382 0.005419 -0.368264 0.689904 -0.294893 -0.194162 0.202770 0.168360 0.279331 -1.272927 0.767526 0.160206 0.091361 0.034292 0.263221 -0.742341 -0.104848 -0.113293 -0.013744 -0.193099 0.097721 0.529265 0.076446 0.063055 -0.614663 0.114456 0.413591 0.102674 0.341046 0.239047 -0.040450 0.619146 0.087003 -0.220718 -0.780030
Drive 0.677928 0.523539 -0.299349 0.124003 -0.475271 0.752382 0.070374 -0.399166 0.480282 -0.245565 0.828075 -0.148457 0.122480 -0.627119 -0.102046 0.209935 -0.303354 -0.193156 0.688212 0.016690 -0.201573 -0.118215 0.384437 0.081571 -0.491469 0.812752 -0.040164 -0.140335 0.224747 0.780706 -0.748838 -0.492321 -0.059375 0.233307 -0.185523 -0.076282 0.081101 0.355883 -0.306038 0.020597 0.659860 -0.057602 0.240504 0.606414 0.083072 0.578506 -0.002998 -0.019218 0.208908 -0.982608
were -0.292641 0.244670 -0.070306 0.230821 -0.115789 0.649770 -0.139341 -0.410914 0.656190 0.226648 -0.032328 -0.992548 0.111764 -0.313190 -0.346445 0.191022 -0.446770 -0.616312 0.934889 -0.844078 0.143843 -0.378127 -0.217179 -0.313815 -0.258983 0.509737 0.217434 0.495288 0.389386 0.404249 -0.549930 0.204172 -0.073856 -0.073307 -0.289270 -0.555544 0.040661 0.145179 -0.479589 -0.677505 0.589577 -0.310497 0.329423 0.899116 -0.619456 0.040212 0.729589 0.594221 0.226662 -1.751900
proud -0.064229 0.224462 -0.246839 -0.024941 0.189210 0.526301 -0.087809 -0.029462 0.326184 0.256974 0.143847 -0.327041 0.296092 -0.414337 -0.424024 0.075076 -0.329618 -0.010582 0.740046 0.084122 0.364040 0.166433 -0.081896 0.043621 -0.778131 0.681672 0.449914 -0.172747 0.021714 0.161853 -0.271841 0.225041 -0.307298 0.357249 0.169984 0.070687 0.300254 0.375659 -0.015981 -0.456650 0.233209 -0.102702 -0.071831 0.574182 0.487076 0.259864 0.455268 0.041087 -0.016276 -0.545895
to 0.554129 0.524147 -0.128540 0.192365 0.141974 0.970688 -0.253110 0.193764 1.045255 0.765884 -0.184188 -0.958848 0.424162 0.052402 0.435204 -0.400752 -0.261516 0.445490 0.017478 -0.200487 -0.464612 -0.076181 0.207211 0.093207 -0.808200 0.753356 0.583282 -0.116456 0.219525 0.386146 -0.146481 0.189438 -0.595371 -0.433497 -0.892742 0.129739 0.137647 0.640025 -0.925224 -0.309339 -0.287137 0.227599 -0.066396 0.119187 0.854692 0.361781 0.524773 -0.004034 -0.060980 -0.628297
say 0.106872 1.185713 -1.051927 0.306480 0.236732 0.370477 0.012521 0.057005 0.547645 0.632367 -0.254027 -0.365099 0.729223 -0.136002 0.071243 -0.005753 -0.100572 -0.043942 0.788768 -0.609931 -0.180810 0.229964 0.101394 -0.343759 -0.675315 1.090198 0.655914 -0.288692 -0.021431 0.193866 0.117623 -0.276068 0.086533 0.056833 -0.083633 -0.358513 -0.160114 0.700782 0.116642 -0.364361 -0.169632 0.151897 -0.422267 0.372758 0.122150 0.944769 -0.252019 0.451225 -0.322608 -0.739710
that 0.192658 0.648120 -0.289445 0.058978 1.006434 -0.021923 -0.375057 0.107763 0.667893 0.109573 0.548329 -0.403427 0.512487 0.196638 0.058740 -0.306262 0.285230 0.293267 0.554530 -0.041500 0.189369 0.427589 0.142989 -0.436367 -0.985163 0.151992 -0.041478 -0.569548 -0.050631 0.105508 -0.296607 0.272364 0.211449 0.679297 0.005454 -0.228020 -0.073666 0.413983 -0.483852 -0.019588 0.161572 -0.168297 -0.023554 -0.016623 0.409691 0.441957 -0.264655 1.030999 0.305623 -1.198324
they 1.000770 1.178421 0.123827 0.393779 0.664045 0.422130 0.175384 -0.491026 -0.120566 0.447445 -0.017989 -0.569600 1.012646 -0.266758 -0.693079 -0.110176 -0.561049 -0.771645 0.560779 -0.376167 0.283536 0.241774 0.239244 -0.751082 -0.723049 0.660919 -0.088907 -0.850572 -0.030409 0.947905 0.041890 0.327890 -0.282365 -0.037342 0.734207 -0.219262 -0.111682 -0.138843 -0.528877 -0.777822 0.513925 0.020176 0.535984 0.299125 0.050452 0.587218 0.568298 -0.240098 -0.086558 -1.017913
perfectly 0.772354 0.257688 -0.630421 0.447431 -0.035055 -0.020421 -0.376070 0.237790 0.362712 0.287193 -0.052277 -0.475085 0.286739 -0.127220 -0.153291 0.256856 -0.034757 -0.284126 0.401980 0.383619 0.378534 -0.166243 -0.157826 -0.522658 -0.799174 0.586757 0.500040 -0.141874 0.155690 0.210948 -0.245510 -0.015924 -0.721931 0.273386 0.045638 0.032754 0.358943 0.262072 -0.049773 -0.026343 0.339121 -0.130193 0.197244 0.348950 -0.087893 0.184488 0.197246 0.437100 0.123623 -0.596901
normal 0.427819 0.536012 -0.047765 0.178741 0.230673 0.507478 0.017558 0.010576 0.201351 0.002155 0.076926 -0.300166 0.962175 0.286112 -0.347179 -0.027995 0.052197 0.030695 0.444316 -0.324336 0.064527 0.139171 0.490936 -0.054354 -1.098359 0.624813 0.110373 -0.354350 -0.237465 0.127027 -0.280473 0.115815 -0.121047 -0.116548 0.259152 -0.144558 0.576896 0.539646 -0.085929 -0.099943 -0.217235 0.337629 -0.187773 0.565572 0.508966 0.078846 -0.353654 -0.335654 0.250130 -0.585784
thank 0.262885 0.227832 -0.397742 -0.068225 0.272761 0.560749 -0.011587 -0.408166 0.174719 0.048040 0.062062 0.264308 -0.206935 -0.345598 -0.270278 -0.088555 0.345595 0.142308 0.423035 -0.599030 0.043726 0.144849 -0.103785 -0.678048 -0.805573 0.098571 0.041942 0.019877 -0.386191 0.226356 -0.091522 0.002904 -0.009377 0.077923 -0.401766 -0.070119 0.347760 0.620860 0.208618 -0.112312 0.268368 0.044865 0.085377 0.320242 0.243287 0.515490 -0.019378 0.488978 -0.081803 -0.615960
you 0.813658 0.656676 -0.454251 0.224135 0.029707 0.520580 0.506735 0.197951 -0.068771 0.132690 0.450309 -0.928017 0.916706 -0.533271 -0.218651 0.061966 -0.069177 0.534582 0.658271 -0.444355 -0.233081 0.015734 0.052237 -0.300876 -0.889876 1.044984 0.940170 -0.667731 -0.222201 0.332176 0.079034 0.458759 -0.135857 -0.388219 -0.250614 -0.473813 0.357889 0.240717 0.479089 -0.796376 -0.539506 -0.354779 -0.074345 0.114543 -0.041514 0.392626 0.546821 0.175857 -0.372441 -0.592870
very 0.403187 -0.040664 -0.408531 -0.011803 0.827811 0.738219 0.305318 0.206244 0.806038 0.312626 1.013524 0.029634 0.849063 -0.308718 -0.189090 -0.347579 -0.386279 -0.199392 0.704595 0.024436 -0.111842 -0.267367 -0.034040 0.137781 -0.693630 -0.097214 0.356313 -0.038073 0.080138 -0.497778 -0.133166 -0.406175 -0.013765 0.340439 0.756909 -0.138038 0.709389 0.114412 -0.965916 -0.120462 0.860201 -0.003784 -0.125598 0.473447 0.251103 0.475393 0.232970 1.057971 -0.567008 -1.041555
much 0.453481 0.556765 -0.412478 0.528249 0.250174 0.999244 0.010834 0.115845 0.759177 0.724384 0.791332 -0.754010 0.854123 -0.682960 -0.325430 0.299828 -0.183426 -0.592159 0.649023 -0.187393 -0.019104 0.686337 0.016552 -0.154137 -0.602588 0.748601 0.016038 -0.512144 0.104699 0.263842 -0.089840 -0.256918 -0.386477 0.640035 0.114737 -0.505769 -0.160483 0.381979 -0.147885 -0.468930 0.376510 0.795296 0.150748 0.649478 1.188465 0.571872 -0.169129 0.020292 0.415189 -0.806408
They 0.578712 0.641691 0.424193 -0.123646 0.219024 0.652786 -0.024272 -0.503004 0.202395 0.278342 0.118879 -0.468091 1.155276 0.692329 0.169164 -0.089081 -0.465277 -0.145639 0.158783 -0.577221 -0.337664 0.367260 -0.137891 -0.891718 -1.098378 0.600905 -0.111625 -0.909158 -0.143510 0.617377 0.004352 0.099597 -0.828385 0.463366 0.195402 0.203055 -0.394813 0.253169 -0.385227 -0.150781 0.130760 0.241978 0.493643 0.872495 -0.261442 0.266051 0.308802 -0.041884 -0.117408 -0.536390
last 0.329102 0.343979 0.348914 0.288534 0.122933 0.405558 0.141142 0.825881 0.735107 -0.041833 0.709556 0.300837 0.578120 -0.271556 0.788099 0.087149 0.003651 0.613386 0.925463 -0.111321 -0.072444 0.572133 -0.109579 0.081782 -0.986668 0.723739 0.039506 -0.750592 0.260085 0.397645 -0.651132 0.138763 -0.436358 -0.000193 0.339445 0.072480 -0.263339 -0.371481 -0.079517 -0.170960 0.756930 0.167493 -0.214460 0.465183 0.109202 0.583558 -0.071900 0.942431 -0.146175 -0.747323
people 0.400548 0.307364 0.059857 0.425843 0.198937 0.664654 -0.053109 0.000035 0.173632 0.134221 0.076817 -0.398970 0.489979 -0.205598 -0.619953 0.465862 -0.391399 -0.081471 0.827623 -0.220831 0.126361 -0.108630 -0.414870 -0.194860 -0.536636 0.527577 0.439581 -0.794516 -0.092751 0.589620 -0.407602 0.193695 -0.136986 0.208138 0.349722 0.001254 0.309982 0.321027 -0.612486 -0.371546 0.258887 -0.362522 0.942335 0.393155 -0.014861 0.253407 0.124509 0.490148 0.301234 -0.834760
youd 0.354779 0.990601 -0.192265 -0.185038 0.172405 0.604156 -0.069312 -0.147369 0.558665 -0.210916 0.366707 -0.376060 0.153884 0.049509 -0.078719 0.681453 -0.238445 -0.328417 0.941970 -0.037411 -0.019920 0.075553 0.472173 -0.572516 -0.832556 0.730582 0.799431 -0.441977 0.040400 0.259814 -0.080037 -0.022970 -0.442283 0.212877 -0.612822 0.511900 -0.110209 0.374802 0.096680 -0.553239 -0.034671 -0.002052 -0.279252 0.344064 0.568835 0.605850 0.248176 -0.162627 -0.245222 -0.628510
expect 0.411606 0.952839 -0.394270 0.416827 0.051260 0.376601 -0.187355 0.030720 0.440887 0.056716 0.139903 -0.587067 0.614370 -0.259780 -0.031313 0.354244 -0.126036 -0.273294 0.953433 0.147167 0.107443 -0.515795 -0.174960 -0.159006 -0.895557 0.803853 0.520330 -0.444678 -0.183726 -0.469546 -0.045627 0.385424 0.018888 0.459838 -0.216727 -0.401263 0.517813 0.399275 0.246983 -0.487881 -0.324576 -0.061328 0.003600 0.203557 0.015321 0.812953 0.095328 -0.069520 0.217904 -0.816510
be 0.642267 1.630685 -0.522939 0.349714 0.090378 1.442713 0.124236 -0.123319 0.320983 -0.231812 0.047997 -0.812044 0.431350 0.382513 -0.337274 -0.278659 -0.209508 0.153439 0.796763 -0.417310 0.035320 -0.229820 0.415394 0.322460 -0.914509 1.540699 -0.253954 0.255953 1.075095 -0.038914 -0.589400 -0.097285 0.215795 -0.376199 -0.505566 0.506383 -0.144551 0.270991 0.333114 -0.099474 -0.101802 0.045448 0.580378 -0.567027 -0.312353 0.006117 0.204089 0.837774 0.350699 -0.713697
involved 0.098443 0.286247 -0.320316 -0.100484 0.058019 0.445642 -0.009350 -0.113917 0.474686 0.000495 0.241344 -0.310659 0.411963 -0.430755 0.068938 -0.176239 -0.136006 0.106475 0.288406 0.005823 0.040523 0.236104 0.396568 0.107043 -1.041471 0.398666 0.543450 -0.534360 0.134357 -0.127596 0.160168 -0.243513 -0.309913 -0.324006 -0.139483 0.050918 0.299941 0.192106 0.116522 -0.225964 0.444178 -0.135036 -0.083520 0.262698 0.071438 0.331939 0.031927 0.148306 0.194997 -0.429831
in 0.414954 0.120417 0.991507 -0.294250 -0.570191 0.715097 -0.053996 -0.350880 0.106759 0.151792 0.024285 0.246234 0.926350 0.157944 0.736967 0.169969 0.162380 -0.399026 0.646744 -0.163712 0.078333 -0.161014 0.735210 -0.061697 -1.286493 0.268828 0.578560 0.017611 -0.227974 0.343526 -0.213906 0.363344 -0.252984 0.143134 -0.004224 0.002730 0.518428 0.270701 -0.738833 0.278970 0.308321 -0.383774 0.340968 0.202160 -0.301669 0.632167 0.479503 1.298447 -0.421168 -0.475813
anything 0.374243 1.350812 -0.653330 0.329885 0.864070 0.517069 -0.176970 -0.237661 0.202493 0.179193 0.447522 -0.432292 -0.042625 -0.055688 -0.055351 0.409732 -0.174514 -0.174090 1.141815 -0.630110 0.113334 0.095111 0.125944 -0.568342 -0.962305 1.280112 0.411476 -0.615871 -0.283971 0.546583 -0.586424 0.202372 0.039628 0.307325 0.173432 -0.078503 -0.097608 0.997420 0.349145 -0.488777 0.328583 0.245397 0.127549 0.087887 0.808437 0.511118 0.176786 0.418365 0.075607 -0.514673
strange 0.284292 0.182259 -0.327670 0.295997 -0.222036 0.494368 0.430983 -0.061495 0.607315 0.140327 0.124854 -0.010619 0.189776 0.256703 -0.271512 -0.512685 -0.259722 0.089816 0.839033 -0.575741 0.265846 0.160636 0.547922 0.265644 -0.797326 0.225511 0.022459 -0.367507 0.095227 0.055100 0.005842 0.034446 0.206636 0.114018 -0.041428 -0.042287 0.221251 0.236615 0.162026 0.147817 0.147814 -0.159394 0.101332 0.556402 0.553716 0.598958 0.109549 0.613185 -0.038671 -0.663271
or 0.620780 0.823078 -0.452674 0.267429 -0.576196 0.151851 0.241946 -0.310849 0.463498 0.573710 -0.659154 -0.109074 0.276921 -0.036884 -0.317679 0.275320 -0.293379 -0.167246 0.718152 -0.394388 0.242264 0.237110 0.120797 0.229736 -0.657864 0.402170 0.193803 -0.506791 0.750504 0.317367 0.006301 -0.161858 -0.427286 0.142499 -0.212764 -0.426107 -0.270576 0.056007 0.656293 -0.603949 0.199917 -0.587341 -0.225284 -0.035567 0.762276 0.688315 0.311325 0.746835 -0.086448 -0.506059
mysterious 0.156146 0.680329 -0.304344 -0.036789 0.363839 0.443758 0.276261 -0.338668 0.325944 -0.184310 -0.057749 -0.423513 0.231801 0.028529 -0.221746 -0.277912 -0.167370 0.149308 0.526050 -0.105667 0.344775 0.034089 0.134835 -0.437625 -0.403557 0.728490 0.047111 -0.422124 -0.256506 0.469138 -0.169840 -0.068489 -0.302251 0.090475 0.230230 -0.524512 0.143353 0.156735 -0.008213 -0.183822 -0.046453 -0.396249 -0.002344 0.802181 -0.165701 0.680581 0.293862 0.417477 -0.161783 -0.583741
because 0.291080 0.271647 -0.227370 -0.104307 0.334991 0.023402 -0.214952 -0.270908 0.353888 0.588403 0.686015 -0.310398 0.699282 0.472392 0.205965 -0.284715 -0.478410 -0.129830 0.785583 -0.317525 0.090952 0.029973 0.457367 -0.468500 -0.992398 0.542756 -0.083424 -0.487618 0.127177 0.210219 -0.141087 -0.621041 -0.066392 0.159159 -0.081243 -0.012831 -0.449621 0.150947 -0.151785 -0.260907 0.348496 -0.101527 -0.428562 0.416340 0.142181 0.849426 -0.236883 0.261263 -0.481430 -1.301798
just 0.393596 0.773007 -0.014669 0.411991 -0.074563 0.545263 -0.047714 -0.023731 0.568222 0.282484 0.717594 -0.412197 0.702994 0.319105 0.310375 -0.118236 -0.035222 -0.233915 0.822161 -0.502662 0.300341 0.162545 0.006033 -0.286465 -1.387355 0.577411 0.121791 -0.137491 -0.490637 0.629970 -0.244572 -0.448703 0.321871 -0.109469 0.109876 -0.118266 -0.081259 0.252476 -0.138598 -0.022628 -0.289389 0.688357 -0.027767 0.000097 0.449744 1.127297 -0.179831 0.762258 0.146380 -0.625589
didnt 0.825693 0.875404 0.080660 0.879948 -0.652711 0.440706 -0.223080 0.470884 0.661955 0.377256 0.485875 -0.764551 0.656187 -0.139862 -0.379776 0.406386 -0.133443 0.041359 0.408266 -0.800301 -0.145984 0.609009 -0.381881 -0.503108 -0.694387 -0.038888 0.514513 -0.123888 -0.143162 -0.666446 0.010383 0.472087 -0.618615 -0.378394 0.112621 -0.713705 -0.152698 0.462884 0.113960 -0.667389 0.360155 0.588549 -0.122243 0.155148 0.968287 0.581495 0.602423 0.601538 -0.299238 -1.600167
hold -0.060028 0.580734 -0.076400 0.152662 0.353681 1.201114 -0.059466 -0.222856 -0.280687 0.206721 -0.421187 -0.247867 0.671537 -0.150881 -0.352154 -0.348456 -0.063364 -0.561931 0.411390 0.102323 0.198130 -0.265009 -0.164078 0.256603 -0.818780 0.545006 0.297783 0.044853 -0.201187 -0.323068 -0.333375 -0.079952 -0.223436 -0.383074 -0.683115 0.224590 0.299013 0.424013 0.056752 -0.051799 0.385251 -0.114115 0.086054 0.413342 0.115219 0.615758 -0.166660 0.799345 -0.092969 -0.856631
with 0.222031 0.368514 0.807212 -0.137184 -0.411140 0.376870 0.017553 0.203986 0.704033 0.024336 -0.160634 -0.402272 0.927779 0.191515 -0.488867 -0.147226 -0.086657 -0.444485 0.294707 -0.272710 -0.373841 0.220875 0.264071 0.242258 -0.657150 0.008880 0.689079 -0.186727 -0.132198 -0.164990 -0.113577 0.187619 -0.650180 0.272152 0.145514 -0.630009 0.127275 0.382712 -0.455841 -0.142262 0.350748 -0.807322 -0.111722 0.329469 0.125901 0.463826 0.162358 0.624442 -0.576065 -0.694286
such 0.477744 0.571471 0.119039 0.324380 -0.326807 0.164576 0.716095 0.037502 0.286809 0.448888 0.471505 0.580874 0.037923 0.368929 -0.531952 -0.348634 -0.188702 0.106315 0.332403 -0.326679 -0.063075 -0.075855 0.419090 -0.640449 -1.271952 0.556148 0.632350 -0.428680 -0.057122 0.169662 -0.003403 -0.540093 -0.460153 -0.032970 0.016665 -0.006004 0.137062 0.801332 0.220545 0.135827 0.054640 0.009349 -0.733069 0.502651 0.318685 0.698034 0.177456 0.877208 0.230872 -0.735684
nonsense 0.525076 0.082854 -0.140270 0.344929 0.086657 0.415627 0.217050 0.073602 0.734661 0.148018 -0.260736 -0.159145 0.604771 -0.344312 0.022468 0.176988 -0.082354 -0.065270 0.913224 -0.326342 -0.001843 -0.137691 -0.210364 -0.261732 -0.595797 0.028690 0.232607 -0.639078 -0.529376 -0.132259 0.041758 -0.214726 0.143001 0.325422 -0.332516 -0.273597 -0.224836 0.280499 0.017200 -0.159430 0.418718 -0.065002 -0.382156 0.380530 -0.367600 0.239850 -0.158097 0.153323 -0.036340 -0.448512
was 0.457607 0.139948 -0.387857 0.714137 0.279056 0.074155 -0.060906 0.001836 1.152751 -0.337503 1.017558 -0.332702 0.682249 -0.401299 -0.327602 0.096207 -0.335816 -0.234164 0.604772 -0.211345 0.388358 0.453005 0.168026 0.433750 -0.567918 0.855689 -0.027393 0.389419 -0.172690 -0.106930 -0.131966 0.066844 -0.387986 -0.158694 -0.773951 0.193799 -0.138955 0.049108 -0.674815 -0.296512 0.869479 -0.669982 -0.184731 0.311175 -0.177636 0.409203 -0.835299 1.019406 0.296882 -0.764721
director 0.513456 0.351566 0.026825 0.262310 0.147853 0.153782 0.038111 -0.290626 -0.122188 0.072511 0.131676 -0.082654 0.196764 -0.242550 0.164937 -0.265686 -0.312421 0.038093 0.665765 0.016693 -0.111491 0.128207 -0.013408 0.422238 -0.500356 0.438246 0.193032 0.040571 -0.452053 0.066393 -0.394567 -0.013291 -0.034906 -0.438373 0.033153 -0.020365 0.167099 0.486515 -0.167918 -0.383390 -0.392629 -0.147295 -0.133854 0.525413 0.137264 -0.010769 0.100439 0.046677 0.092048 -0.218413
a 0.067209 0.423177 0.647529 -0.303982 0.384553 1.011967 0.726237 0.330475 0.579228 0.322057 0.284476 0.182260 0.838994 0.010222 -0.712065 -0.327556 -0.217583 0.412913 0.369119 0.312481 -0.188757 0.126809 0.238177 0.184782 -0.841934 0.516908 0.555212 0.165060 -0.623636 0.247315 -0.264957 -0.771790 -0.105046 0.401517 0.228155 -0.156234 0.848578 -0.017980 -0.141756 0.043258 0.605167 0.214895 -0.224190 0.621769 0.855515 0.996716 0.154381 0.774732 0.694435 -0.816956
firm 0.501809 0.311108 -0.015953 0.343910 0.282370 0.599666 -0.233258 0.327887 0.011617 0.240437 -0.258297 0.593735 0.423197 -0.515179 0.260475 0.072850 -0.271304 -0.394623 0.397583 -0.129895 0.064921 -0.038074 0.022461 -0.386381 -0.378308 0.027246 0.080478 -0.204604 0.108663 0.213446 -0.354941 0.369092 -0.665529 0.378687 0.069336 -0.344463 0.533594 0.311403 0.026744 0.270848 0.279918 -0.105924 -0.031807 -0.085786 0.051662 0.357685 -0.057832 0.280012 -0.062482 -0.910922
called 0.547211 0.319516 0.074697 0.505584 -0.226060 -0.124196 0.134503 0.176367 0.694370 0.045323 0.001391 -0.133231 0.460115 -0.019846 -0.089511 -0.241787 -0.062245 0.614259 0.723338 -0.343308 -0.004432 0.567520 0.264655 0.210875 -0.883972 0.758782 0.361905 -0.210394 -0.411285 -0.045854 -0.008959 -0.194405 -0.164880 -0.080333 -0.236976 0.105126 0.092632 0.412658 -0.372381 -0.474424 -0.227831 -0.042108 -0.329842 0.412076 0.239836 0.780454 -0.135714 0.060185 -0.252864 -0.710864
Grunnings 0.068437 -0.158698 -0.408604 0.044326 -0.281223 0.256248 0.247370 -0.166687 0.828782 0.244815 -0.104136 0.142005 0.296500 -0.353215 0.371918 0.211861 0.257133 0.432567 0.512922 -0.080661 0.161185 -0.100826 -0.279095 -0.323817 -0.553578 0.191108 0.200543 -0.564132 0.011469 -0.049253 -0.413368 -0.577870 -0.202881 -0.250219 0.188483 0.246812 0.455050 -0.069933 -0.263218 0.174241 -0.159170 0.199664 -0.056263 0.077667 0.275884 0.241612 0.199532 0.154874 0.180571 -0.280537
which 0.282416 0.471344 -0.008184 0.212500 0.804270 0.158121 0.159947 -0.219891 0.761688 0.420562 0.082210 -0.581050 0.486938 0.237045 0.237555 -0.886122 -0.364317 -0.261081 0.221075 0.203646 -0.163300 -0.116063 0.504222 0.287973 -0.806320 0.148374 0.128977 -0.539267 -0.527820 0.116864 -0.060936 -0.149826 -0.361464 0.472294 -0.255003 0.206993 0.391219 -0.037483 -0.160308 -0.021181 0.222272 -0.222929 -0.119157 0.460041 0.497598 0.163377 0.709147 0.506108 -0.557639 -0.968180
made 0.028596 0.435156 0.308859 0.445536 -0.241528 0.096057 -0.666520 0.305830 0.634900 -0.066498 0.069614 -0.625606 0.778152 0.212356 -0.670520 -0.286251 -0.412587 -0.047423 1.059999 -0.245665 0.253971 -0.235289 -0.224210 0.190219 -0.704264 0.586747 0.428210 -0.042586 -0.309556 0.108084 -0.104535 0.134730 -0.382548 0.220487 -0.060412 0.306266 0.102668 0.525670 -0.611663 -0.182292 0.303906 0.084719 -0.006694 0.639114 0.061143 0.861376 0.098818 0.685311 -0.180713 -0.649023
drills 0.193894 0.094968 -0.551851 -0.037696 0.143427 0.544028 0.049931 -0.093851 0.261612 0.155550 0.248568 -0.294237 0.474027 -0.169813 -0.076956 -0.351111 0.140275 0.297239 0.471970 -0.369916 0.069063 0.099627 0.226818 0.312983 -0.913935 0.287504 -0.298725 -0.402044 0.409373 0.190482 -0.424745 0.076944 -0.301772 0.063942 -0.246203 0.045800 0.429697 0.324899 0.205352 0.030464 0.155181 0.120411 -0.226856 0.012373 0.063009 0.016922 0.038690 0.146069 -0.135246 -0.741348
He 1.109835 0.262432 0.130569 0.487704 0.333262 0.664886 -0.847940 -0.499398 0.310722 0.034995 0.398842 -0.755165 0.768615 0.823617 -0.304766 -0.135947 -0.370963 -0.197223 0.223705 -0.347891 -0.159412 0.204875 0.204200 -0.543034 -1.167681 0.552151 0.177221 -0.976458 -0.121015 0.493322 0.019653 0.048639 -0.559791 0.199210 -0.133146 0.514773 -0.125230 0.196175 -0.549518 0.629338 0.922090 0.030934 -0.457611 1.019915 -0.145249 0.300885 0.141897 -0.148515 0.027210 -0.467657
big 0.339621 0.719761 -0.294966 0.044383 -0.189583 0.665460 -0.189942 0.123870 0.512114 0.046859 0.285161 -0.265272 0.876689 -0.045154 -0.212422 -0.108043 0.153160 0.001877 0.150754 -0.621998 0.385824 -0.327201 -0.262288 0.064560 -1.058183 0.827988 -0.196955 -0.373348 -0.022413 0.183606 -0.116839 -0.421469 -0.052157 -0.058535 0.378868 0.470756 0.451648 0.311628 -0.375205 0.253054 -0.212744 -0.524284 -0.499568 0.574340 0.210502 0.491556 -0.191762 0.611891 0.032087 -0.431383
beefy 0.066176 -0.104921 0.406033 0.315428 -0.424945 0.629167 -0.048310 -0.067025 0.235377 -0.035756 0.025412 -0.442302 0.182483 -0.254827 -0.596768 0.257105 -0.089118 0.234928 0.094636 0.013227 0.014270 -0.067510 -0.248633 0.326858 -0.225595 -0.285522 -0.453153 -0.524328 0.507886 0.366592 -0.019317 -0.105283 -0.356665 -0.037356 -0.123827 -0.268976 -0.001406 -0.039788 0.167219 0.251841 0.016822 -0.251363 0.399488 0.402029 0.151259 0.519194 -0.041599 0.266070 0.191122 -0.654472
man -0.147150 -0.090238 -0.416611 1.028693 0.274793 0.289474 -0.034929 0.305076 0.558711 0.070662 -0.393779 -0.153987 0.694156 -0.138327 -0.499943 0.259027 -0.129813 0.141347 0.670399 -0.254728 0.009204 0.307105 0.202601 0.221545 -0.988936 0.559874 0.445153 -0.712341 -0.061591 0.063979 -0.230451 -0.625889 -0.352700 -0.248658 0.165361 -0.190535 0.334543 0.133614 -0.237052 0.315223 0.156513 -0.301041 -0.559594 0.771896 -0.100567 0.417774 0.001743 0.345681 -0.152677 -0.494692
hardly 0.483770 0.750347 -0.627185 0.284828 -0.054071 0.484502 0.397096 -0.062018 0.245212 -0.105295 0.006704 0.124024 0.561256 0.108475 -0.267623 -0.644570 -0.454760 -0.152581 0.976424 -0.357970 0.108210 0.216265 -0.009556 -0.419796 -0.354824 0.557434 0.363380 -0.483117 0.051537 0.076204 -0.216996 0.269135 -0.091180 0.499548 0.069369 -0.083900 -0.212246 0.408814 -0.223227 -0.174164 0.274899 -0.245770 -0.381466 0.639835 -0.041875 0.748487 0.043099 0.155943 -0.579640 -0.582481
any 0.118742 0.668050 -0.131657 0.430733 0.505483 0.958612 -0.100317 -0.137749 0.599062 0.700896 -0.017271 -0.490996 0.614848 -0.019737 -0.098676 0.036281 -0.152693 0.573216 1.400462 -0.666932 -0.485525 0.418700 0.271679 -0.514773 -0.841850 0.367310 0.437440 -0.259592 -0.336680 -0.053047 -0.618741 -0.237635 -0.152519 0.457217 0.155474 0.068032 -0.356564 0.017856 -0.258566 -0.304429 0.487796 0.232897 -0.112478 -0.397018 0.442037 0.863550 0.227639 0.059394 0.242756 -0.514316
neck 0.654823 0.148987 0.193767 0.142834 -0.328726 0.457778 -0.233546 -0.650304 0.147175 -0.013428 -0.195455 -0.228418 0.782729 -0.443595 0.086468 -0.355730 -0.248404 0.605185 0.897093 -0.862385 0.807836 -0.019925 -0.025407 0.157551 -0.945430 0.523158 -0.007595 -0.319416 -0.334130 0.040352 -0.177035 -0.507223 -0.330449 -0.074098 -0.568134 0.241125 -0.143996 0.259445 -0.118846 -0.309513 -0.337919 -0.292138 -0.054074 0.426295 -0.147860 -0.307693 0.110702 -0.041389 -0.468989 -0.704155
although 0.635272 0.489548 -0.093919 0.041696 0.404847 0.391257 -0.286011 0.023178 0.582041 -0.032465 0.003980 -0.628251 0.540625 0.322376 -0.567716 0.033006 -0.213767 0.210679 0.524494 -0.173857 0.028307 -0.443228 0.235366 -0.462055 -1.106514 0.895248 0.147862 -0.495402 -0.021746 0.188569 -0.301568 0.220073 0.051209 -0.187149 0.213334 0.013658 -0.092857 0.240894 0.077508 0.285495 0.191094 -0.175848 0.385323 0.185215 0.199153 0.263809 -0.032832 0.352586 -0.235898 -0.585319
he 0.804278 0.739335 -0.546695 0.669223 0.693175 0.187702 -0.686116 0.014095 0.340465 0.295426 0.934910 -0.185157 1.074290 0.170923 -0.160763 -0.215949 -0.129554 -0.582786 0.905820 -0.610304 0.186414 0.544937 0.126931 -0.292915 -0.981364 0.436569 0.191562 -0.548713 -0.711134 0.329580 0.426601 -0.118773 0.085326 -0.122022 0.124219 0.213340 -0.148201 0.277864 0.042247 0.063060 0.094584 0.238223 0.418571 0.049662 0.089656 0.613190 0.308816 0.111496 0.363570 -0.624140
did 0.685064 0.879987 -0.354412 0.752074 -0.458912 0.095828 0.574190 0.072295 0.708398 0.356722 0.131624 -0.462612 0.276485 -0.525566 0.357850 0.041772 -0.316628 -0.304766 0.566979 -0.824430 0.055878 -0.002915 0.094676 -0.765742 -1.041382 0.196928 0.645710 0.350951 -0.396458 0.184674 0.478877 0.258373 0.003833 0.074672 -0.348429 -0.427806 0.500614 0.122573 -0.009414 -0.949560 0.153595 -0.264325 0.135658 0.179412 0.035128 0.283815 0.101362 0.782513 -0.665108 -1.405044
have 0.477917 1.551638 -0.509512 0.068456 0.518970 0.643259 0.130552 0.304502 -0.375605 0.284981 -0.210827 -0.038796 0.506399 0.006955 0.021456 -0.308074 -0.110877 -0.814707 0.781320 -0.489598 0.074670 -0.558890 0.063424 -0.546674 -1.320462 0.493299 0.595546 -0.112753 0.524507 -0.334403 0.013399 0.447926 0.300469 0.265581 -0.129276 -0.161820 -0.618870 0.507403 -0.053946 0.033682 -0.108831 0.693528 0.224863 0.781214 -0.064899 0.454859 -0.430082 0.976970 -0.059434 -1.058572
large 0.398144 -0.130958 0.517608 -0.208872 0.107910 0.684443 -0.019563 -0.357685 0.319841 -0.007042 0.161864 0.692158 0.592976 -0.532203 -0.386469 -0.617994 -0.440421 -0.676513 0.452208 -0.438376 0.401053 -0.366244 0.473857 0.426069 -0.956272 0.507493 0.210971 -0.377474 -0.068097 -0.014316 -0.583611 -0.413393 -0.598055 0.425176 -0.082588 0.070991 0.505464 -0.252021 0.055801 -0.021179 0.377702 0.147657 -0.019845 0.860668 0.398910 0.030486 -0.369444 0.687771 0.685594 -0.462831
mustache 0.522948 -0.076840 0.204652 0.013324 -0.103778 0.436596 -0.043617 -0.208577 0.139810 -0.015379 -0.287017 0.280595 0.503445 -0.243010 -0.087922 -0.111342 -0.096488 -0.509169 0.622744 0.021360 0.404104 0.728137 -0.261780 0.032265 -0.764904 0.518154 0.159848 -0.522864 -0.331991 0.038956 -0.384030 -0.009997 -0.540279 -0.052379 -0.100772 0.153510 0.433736 0.378348 -0.224456 -0.313199 -0.076705 -0.030188 -0.069153 0.069940 0.200431 0.030214 -0.209771 0.473697 0.055779 -0.677383
thin 0.469111 -0.004988 0.089787 0.043903 -0.024127 0.375536 -0.399838 -0.287634 0.010006 0.296538 0.230139 0.218132 0.701799 -0.393695 -0.199380 -0.254654 0.040637 0.407204 0.827601 -0.271023 0.458319 -0.105302 0.196308 0.042708 -0.662917 0.253409 0.256990 -0.504874 0.148083 0.062698 -0.249554 -0.067750 -0.306834 0.291968 0.566338 -0.171025 0.630145 0.276665 0.038118 0.188295 0.199617 -0.123811 -0.101178 0.339188 0.087626 0.303019 -0.330684 0.241221 0.080031 -0.914885
blonde 0.583927 0.034036 0.045081 0.289458 0.300154 0.111809 0.428805 -0.330054 0.400280 0.033638 0.165149 -0.251110 0.559960 0.226787 -0.482078 -0.137485 -0.264380 -0.029658 0.814054 -0.191413 -0.004732 0.185163 -0.253713 -0.098017 -0.316114 -0.001926 0.019408 0.020241 -0.396815 -0.012202 -0.502675 -0.113093 -0.397254 0.005389 -0.175056 -0.449607 0.104091 0.115516 -0.012082 0.037338 0.252343 0.050531 -0.216796 0.204284 -0.142708 0.300189 0.069218 0.147673 -0.037858 -0.529476
had 0.511185 0.377649 0.616123 0.173700 0.465871 0.769836 -0.514939 -0.146568 0.310667 -0.142958 0.200488 -0.361676 0.097896 -0.523180 0.397510 -0.649764 -1.117402 -0.870177 0.347579 -0.642506 0.773251 0.241078 -0.068646 -0.198308 -1.210835 0.255907 0.409563 0.161281 -0.219460 0.202011 -0.606338 0.386427 -0.196808 -0.075238 0.335121 0.333810 -0.759791 0.834257 -0.115026 -0.422539 0.336987 0.218231 -0.322055 0.340049 -0.242858 1.322921 -0.387670 0.614439 -0.277612 -0.832730
nearly 0.627221 0.220574 0.160346 0.303757 0.129242 0.304046 -0.278708 0.307996 -0.016652 -0.047150 0.519885 -0.372043 0.495774 0.173283 0.072795 -0.205044 -0.542432 0.192093 0.516489 -0.137061 0.162140 -0.098518 0.256858 0.166430 -0.699838 0.774255 -0.054160 -0.377228 -0.390995 0.004806 -0.675060 -0.084566 -0.381144 -0.095950 -0.747342 -0.015734 0.141312 0.320660 -0.012269 -0.154263 -0.016226 -0.268366 0.534268 0.706433 -0.225392 0.709024 0.202183 0.063683 -0.099240 -1.116699
twice 0.680473 0.396843 -0.473621 0.446329 0.002475 1.031728 0.280789 -0.053492 0.494344 -0.200337 0.155120 -0.511584 0.159492 -0.387692 0.088780 0.268233 -0.249254 -0.018147 0.664193 0.267517 -0.058263 0.073898 0.255404 -0.355248 -1.022479 0.306999 0.076214 -0.391107 0.080921 0.181190 -0.312872 -0.152775 0.110060 0.092427 0.048263 0.256988 0.272431 0.395400 -0.064896 0.174887 0.128870 0.150723 0.134730 0.454954 0.128695 0.584504 -0.659743 0.833759 -0.430190 -0.393238
usual 0.703823 0.781163 -0.230104 0.321691 -0.153570 -0.198057 -0.455586 -0.274394 0.768487 -0.159089 -0.188590 0.224212 0.376878 -0.440988 -0.015141 0.028721 -0.064792 -0.273030 0.650503 -0.169275 0.670429 0.236718 0.520129 -0.148540 -0.367533 0.770145 -0.304510 -0.341295 -0.281471 0.098544 -0.761805 -0.108857 -0.616066 0.167707 0.173680 -0.437365 0.007487 0.433704 -0.706125 -0.073263 0.025069 0.526976 0.375069 0.131890 -0.055001 0.171451 -0.218652 0.164387 -0.332280 -0.677371
amount 0.155153 0.138225 0.291788 0.189562 -0.069252 -0.047727 -0.128194 -0.195983 0.215216 0.287445 0.574518 0.346696 0.487575 -0.179299 0.018060 -0.037267 -0.072229 -0.086296 0.588940 -0.124775 -0.378091 0.435920 0.179938 -0.410732 -0.611647 -0.071618 0.249577 0.164226 0.059207 0.142758 -0.362396 0.243222 -0.258984 -0.210224 0.121326 -0.082059 -0.448722 0.127646 -0.402203 -0.117970 -0.273687 0.213397 -0.110506 -0.115375 -0.063940 0.283701 -0.148461 0.211579 -0.125121 -0.179016
came 0.573478 0.175626 0.591279 0.248975 0.256866 0.536840 -0.145476 0.302340 0.269011 -0.054740 0.017359 0.173603 0.608724 0.076926 -0.538232 0.047009 0.381370 0.143828 0.547931 -0.885984 -0.036642 0.149432 0.372143 0.343119 -0.487510 0.839859 -0.645189 -0.032769 -0.391506 -0.171468 -0.137890 0.313531 -0.428063 -0.011745 -0.323566 0.288676 0.342418 0.239602 -0.358651 -0.592738 0.231179 -0.138213 0.066072 1.058158 0.237651 0.396399 -0.095737 0.374410 -0.010088 -1.112600
useful 0.334917 0.889195 -0.241329 0.395044 0.553514 0.791746 0.155826 0.011455 0.397934 -0.040038 0.263015 -0.626682 -0.027392 -0.031486 0.055761 -0.251694 0.163596 0.054727 0.487691 -0.249893 -0.364104 0.389624 0.515033 0.014711 -0.373283 0.385390 0.435635 -0.220425 -0.063506 0.098729 -0.082197 -0.047692 -0.265974 -0.302267 -0.027515 -0.072158 -0.035298 0.553492 0.415433 -0.193436 -0.409114 -0.102029 0.342751 0.520606 0.385457 0.006253 0.045473 0.411951 -0.294696 -0.747373
as 1.864340 0.305215 -0.488392 -0.065454 -0.001505 0.377765 0.289370 0.149488 0.366557 -0.069710 0.184800 -0.621491 0.684839 0.135667 -0.068840 -0.085575 -0.264227 -1.165314 0.765711 -0.270985 0.240602 0.711365 1.036353 -0.120202 -0.525241 0.299278 0.169193 -0.080621 -0.432387 0.260242 0.017544 -0.268111 -0.257157 0.591490 0.676207 -0.272319 0.877602 0.251056 -0.472315 -0.203064 0.397499 0.600930 0.354087 0.654026 -0.019123 0.178978 -0.310631 0.120998 -0.743883 -0.438891
she 0.822556 0.221390 -0.749017 0.261653 0.369353 0.454590 -0.059556 -0.360428 0.371058 0.005597 1.267026 -0.081481 1.159450 0.017700 0.251201 -0.360372 0.102074 -0.488314 0.655484 -0.703637 -0.475554 0.263167 -0.010502 -0.163106 -1.112339 0.688760 0.229453 -0.732326 -0.086966 0.069786 -0.098817 0.103011 -0.226858 -0.619044 0.526341 0.329261 -0.740129 -0.388945 -0.386606 0.251623 -0.279347 -0.095435 0.301264 0.555347 0.144330 0.494953 0.311098 -0.269096 0.017917 -0.605687
spent 0.518441 -0.023143 -0.347026 -0.147530 -0.494938 0.371169 -0.129285 -0.368524 0.141560 -0.008769 0.293947 0.023479 0.196415 -0.106326 -0.438145 -0.137769 -0.261695 -0.090296 0.918783 -0.579681 0.415366 -0.120058 -0.119144 0.076348 -1.157586 0.506129 0.347274 -0.124103 -0.417640 0.108990 -0.143027 -0.012788 -0.209310 0.228594 0.293761 0.040656 0.169570 0.506509 -0.111008 -0.336457 0.018181 -0.504998 0.240713 0.287850 0.191643 0.486366 -0.424064 0.147671 -0.085302 -0.458163
so 0.620261 0.641160 -0.740286 0.242091 0.418079 0.670401 -0.285126 0.080987 0.271757 0.692631 0.563428 -0.535442 0.957904 0.007431 -0.345417 0.435427 -0.664800 -0.486479 0.376055 0.202370 0.487198 0.033470 0.324959 -0.290066 -0.872811 0.369671 -0.588391 -0.155262 -0.275625 0.204548 -0.373656 0.314054 -0.208957 0.304238 0.227436 0.277628 -0.100602 0.757371 -0.324008 -0.187338 0.060713 -0.186664 0.216609 0.684850 0.090345 0.346553 0.153624 0.728203 -0.643830 -0.672589
her 1.417733 -0.068841 0.186182 -0.461316 0.256717 0.704412 0.242693 -0.261831 0.044107 0.327414 0.667740 -0.400819 0.968163 -0.615593 -0.061654 -0.064044 0.038544 0.651594 0.711265 -0.714926 -0.125157 -0.317361 0.523269 -0.234859 -0.791777 0.257780 0.031574 -0.191736 -0.596155 0.667242 -0.572731 0.031396 -0.922792 -0.206332 -0.595207 -0.614395 -0.118617 0.316288 -0.429583 0.240471 0.616768 -0.103563 -0.196457 1.010427 -0.176477 0.715714 0.637124 0.094743 -0.623446 0.025416
time 0.131339 0.107984 -0.121207 0.139592 0.075912 1.037228 -0.122107 0.201278 0.190821 0.165715 0.427564 -0.254632 0.824174 -0.277827 0.158956 -0.564746 -0.648365 0.087373 1.006902 -0.472985 -0.079241 0.073026 0.071337 0.103599 -1.268419 0.479271 0.314425 -0.549207 0.057065 0.239435 -0.498863 -0.237056 0.705134 -0.809764 -0.550230 -0.162216 0.268975 0.475425 -0.457381 -0.514690 0.310723 0.954515 -0.003169 0.160116 0.256356 0.633781 0.547503 0.517534 -0.512703 -0.725981
craning 0.416577 0.146411 -0.130196 0.054091 -0.202298 0.097529 0.129100 0.046842 0.777090 0.315481 -0.233024 -0.140353 0.470125 0.160517 0.034290 0.316048 0.104281 0.023732 0.171808 -0.314613 0.054698 0.201677 0.243370 0.102805 -0.448950 0.398874 0.181954 -0.280599 -0.156743 0.095539 0.131196 0.301957 -0.269274 0.332522 0.085061 0.270592 -0.111797 0.052400 0.050246 -0.238480 0.588740 -0.297341 -0.147478 0.812048 0.586864 -0.263891 -0.012480 0.142304 -0.186543 -0.460528
over 0.422860 0.217372 0.598077 0.234021 0.085017 0.233612 -0.305247 -0.079908 1.265740 0.014984 0.261329 -0.683617 0.657713 0.561986 -0.185858 -0.019327 0.022648 0.093330 0.732444 -0.100702 0.167852 0.341847 0.122774 -0.130733 -0.827399 0.106877 0.134571 -0.445928 -0.685437 -0.165494 -0.548009 0.365954 -1.023604 0.175573 -0.221385 0.148028 -0.092012 -0.309129 -0.921554 0.325037 -0.253297 0.009190 0.307300 0.584568 -0.096531 0.530597 0.190487 0.196064 -1.145512 -0.761393
garden 0.251365 0.008517 0.286306 0.319311 0.267832 0.182377 -0.350735 0.352299 0.446492 -0.062931 -0.290584 -0.238292 0.199012 -0.300270 0.026386 -0.158904 -0.337821 -0.319357 0.892968 -0.585749 0.211484 -0.085419 -0.065055 0.512980 -1.084821 0.006931 0.354474 -0.252092 0.045301 0.051434 -0.152232 0.064648 -0.467904 -0.210201 0.043335 -0.188089 0.101018 0.500366 0.029317 0.095303 0.057265 -0.222525 -0.046007 0.798054 -0.067341 0.259950 -0.306158 -0.311409 -0.481920 -0.650140
fences 0.145829 -0.152434 0.116854 0.415271 -0.110610 0.439167 -0.263543 0.063691 0.607784 -0.259960 -0.140637 -0.320549 0.037916 -0.076276 0.187581 0.554981 -0.043539 -0.129418 0.131286 0.408670 0.287926 -0.137775 0.076905 -0.285699 -0.454299 0.025999 0.144664 -0.247875 -0.042239 -0.345772 -0.015066 0.557433 -0.429054 -0.048016 -0.209199 0.063147 0.446266 0.164988 0.006242 -0.012270 0.206421 0.000953 -0.195865 0.023942 0.544344 0.376836 -0.118792 0.020285 0.422265 0.139958
spying 0.561815 0.145830 -0.159066 0.099874 0.431841 0.290734 0.108459 -0.353713 0.164922 -0.062148 -0.368735 -0.121345 0.139056 -0.272168 -0.379159 -0.224493 0.081083 -0.465338 0.729811 0.067633 0.387959 0.028690 0.233097 0.149274 -0.772186 0.442117 0.198990 -0.386100 0.273026 0.100031 -0.242362 -0.075204 0.129809 0.202310 -0.189404 0.106013 0.212290 0.270053 0.406967 -0.313879 0.252626 -0.018525 -0.237654 0.244998 -0.041405 0.522924 0.181424 0.201101 -0.078192 -0.219619
on 0.350400 0.018758 0.387904 -0.584809 0.222249 0.547441 -0.311883 0.038670 0.620082 0.218197 0.541825 -0.512923 0.673297 -0.167852 0.549896 -0.657356 -0.298851 0.063386 0.642571 -0.235134 -0.047517 0.535271 -0.141809 0.166592 -1.265903 0.597914 0.615111 0.120800 -0.201819 0.179947 0.304088 -0.607201 -1.206023 0.153666 -0.378802 -0.074642 -0.327143 -0.065308 -0.560883 0.083979 -0.291461 -0.219091 0.425720 0.858592 -0.098158 0.078518 0.121750 0.471763 -0.667697 -0.572422
neighbors 0.370053 0.033340 -0.096090 -0.005861 0.190413 0.214542 -0.351883 0.219275 0.464697 0.004239 0.138943 -0.130402 0.259441 -0.161918 0.279806 0.058619 0.184052 0.037238 0.394947 -0.215156 0.109764 0.261294 0.077874 -0.073498 -0.589603 0.028918 0.512901 -0.383123 0.532278 0.513576 -0.237995 -0.231615 -0.502392 -0.033215 -0.227966 0.020551 0.210474 0.235318 0.058929 -0.162763 -0.132813 -0.165698 -0.143806 0.409552 0.470731 0.608411 -0.453201 -0.137401 -0.255347 -0.399426
The -0.171172 0.119730 0.310849 0.391224 0.898696 0.641625 0.075470 -0.387337 1.087699 -0.193194 0.455310 0.387799 -0.018498 0.459145 -0.273824 -0.153093 -0.196862 0.196927 -0.056223 0.180564 -0.335737 0.234440 0.848484 -0.182332 -1.807718 -0.309300 0.299036 -0.187893 0.075547 0.557033 0.083378 0.280008 -0.338162 1.108700 0.240936 -0.074267 -0.003954 -0.027634 -0.531518 -0.039148 0.965908 -0.572392 0.301116 0.438472 0.109175 0.618945 0.345114 0.292015 0.032071 -0.876105
Dursleys 0.601126 0.425975 -0.073505 0.420409 0.603609 0.307137 0.085922 -0.223915 0.140967 0.511214 -0.167647 -0.518042 0.109829 0.089517 0.263422 0.156145 -0.427763 0.286884 0.676917 -0.473874 0.378797 0.097051 -0.344737 0.060672 -1.058574 0.605098 -0.030527 -0.920527 -0.134614 0.391932 -0.521589 0.490041 -0.461675 -0.300664 0.083810 0.213009 0.199918 -0.180682 -0.083511 -0.171278 0.372804 -0.041935 -0.123353 0.193447 0.421987 0.582829 -0.066333 0.556560 -0.258685 -0.954406
small 0.517328 -0.014094 0.235080 -0.329124 -0.166792 0.420536 -0.064295 -0.365493 -0.056089 0.099891 -0.131520 0.412986 0.954645 -0.232555 -0.313026 -0.137157 -0.317176 -0.027427 0.344029 -0.165448 0.324868 -0.156415 0.375906 0.083797 -0.888249 0.619410 -0.047005 -0.345818 -0.300626 0.223365 -0.314637 -0.127656 -0.450782 0.507972 0.517759 0.262906 0.536518 0.333107 -0.312662 -0.011717 0.456140 0.080062 -0.249018 0.389583 0.131736 0.240397 -0.096537 1.213040 0.399819 -0.760836
son 0.407650 0.407877 0.081615 0.076188 -0.045627 0.208594 0.511169 -0.041144 0.272750 -0.175004 0.230105 0.092616 0.585798 -0.124485 0.037127 0.022387 -0.406168 -0.257691 0.475391 -0.277036 -0.006526 0.270757 0.029953 0.271139 -1.120420 0.296463 0.626532 -0.196168 0.012069 0.085785 -0.069256 -0.301287 -0.385428 -0.038699 -0.037234 0.056549 -0.161688 0.115978 0.093907 -0.271493 -0.240454 0.067717 0.095412 0.389401 0.269812 0.561592 -0.173007 0.594437 -0.134006 -0.596530
Dudley 0.394034 0.312307 -0.012558 0.852365 0.285780 0.414229 -0.150517 -0.325347 0.605565 0.044165 0.322694 -0.078072 0.407732 -0.449374 0.095697 0.328733 -0.119566 0.035503 0.679500 -0.174337 0.518815 0.092681 0.033635 -0.024623 -0.523852 0.486612 0.296577 -0.916095 -0.352478 0.538763 -0.074370 0.055194 0.074987 -0.323426 0.352011 0.380552 -0.284229 0.326973 -0.493404 -0.083389 0.386274 0.026974 0.001882 0.507394 0.260684 0.687521 0.414200 0.004581 -0.363126 -1.013802
their 0.492297 0.305894 0.745892 0.046270 0.600053 1.030265 0.249989 0.401106 0.358567 -0.191531 -0.177159 0.103429 1.044704 -0.357261 -0.475564 -0.606498 0.194816 0.279211 1.155112 -0.553514 -0.246679 -0.001076 -0.096136 -0.416075 -0.559745 0.280326 -0.420152 -0.064210 0.285898 1.187708 -0.720300 0.431118 -0.625815 0.325303 0.070561 -0.541210 0.394162 -0.492821 -0.419366 0.435323 0.436469 -0.330849 0.259411 0.377934 0.067638 0.881978 0.683456 -0.437032 -0.243410 -0.398740
opinion 0.324903 0.523628 -0.103149 0.199645 -0.180073 -0.003860 0.088598 -0.129944 0.220586 -0.086777 0.031311 -0.291192 0.518363 -0.380244 0.194808 -0.336566 0.285823 -0.074475 0.652183 -0.267377 0.287824 0.016100 0.422913 -0.261992 -0.439284 0.644296 0.017825 -0.173087 -0.113941 0.113426 -0.417070 0.023731 -0.687871 -0.134350 -0.276608 -0.037772 0.680322 -0.056238 -0.221802 -0.156600 -0.435598 -0.361822 0.036992 0.578120 0.388621 0.263740 0.250317 0.228011 -0.354551 -0.724020
there -0.251667 0.705442 -0.139107 0.875389 -0.265162 0.748490 0.192015 0.700335 0.455726 0.121804 0.361489 -0.317073 1.010019 0.068854 -0.075544 0.051526 -0.288393 0.295985 0.562898 -0.037389 0.283633 -0.271859 0.652759 0.038712 -0.957162 1.147087 -0.531682 -1.242318 -0.187310 -0.073427 0.465347 0.217868 -0.137859 -0.227430 -0.039787 0.217298 0.070162 -0.047149 -0.270222 -0.245518 -0.317078 -0.233711 0.407755 0.341630 0.031358 0.789119 0.492246 1.000055 -0.204490 -0.929134
no -0.607730 0.715617 -0.900840 1.215931 0.043674 1.045521 0.601805 0.163353 0.911072 0.228055 0.950671 0.398711 0.179506 0.313695 -1.206586 0.056029 -0.042977 0.269571 0.946932 -0.574512 -0.257612 0.024180 0.083684 0.297649 -0.964550 0.339981 0.130703 -0.069257 -0.230567 0.590132 -0.341716 -0.502978 -0.650509 0.057939 0.069639 0.652769 -0.128994 0.637522 -0.066055 0.542442 -0.448163 -0.518896 -0.028120 -0.283853 0.303609 1.089012 0.147636 0.487658 -0.019855 -0.929349
finer 0.105771 0.044047 -0.242374 0.120334 0.365623 0.185767 -0.124977 -0.351831 0.343371 0.252888 0.132517 0.142708 0.312861 -0.202715 -0.083797 0.028822 -0.479494 0.169721 0.383785 0.124863 -0.255031 -0.380859 -0.104096 0.043414 -0.508457 0.131138 0.238358 -0.548133 -0.392376 0.624283 -0.605622 -0.188386 -0.074032 -0.095333 -0.020645 -0.750940 -0.079835 0.395888 0.283220 0.112153 0.111782 -0.540558 0.515075 0.058477 0.125494 -0.061805 -0.295175 0.086017 -0.460599 -0.595428
boy 0.680012 -0.214152 -0.435894 -0.561687 0.021397 0.237961 -0.403725 -0.557960 0.233972 0.169638 0.231696 -0.694853 0.092291 -0.119195 -0.181036 0.423558 -0.279057 0.140152 0.542434 -0.549829 0.454568 -0.014942 0.164821 -0.192935 -1.391407 0.561311 0.279244 -0.618701 -0.290193 0.115375 -0.043864 0.360591 0.076884 -0.475534 -0.067469 0.047577 0.762252 0.052609 -0.113942 -0.206059 0.199233 -0.126537 -0.022400 0.386265 0.180876 0.333594 -0.151027 -0.014680 -0.485631 -0.934175
anywhere 0.276129 0.522272 0.035721 0.285648 0.121652 0.597534 0.029962 -0.141217 0.083346 -0.178422 0.224083 -0.412947 0.624041 -0.383462 -0.149667 -0.060829 -0.476494 0.122642 0.382415 -0.463933 0.059565 0.233298 0.331196 -0.421895 -0.886377 0.588847 -0.298561 -0.517490 -0.175553 -0.162296 -0.274312 0.098048 -0.329075 0.316695 -0.336279 -0.291244 0.270889 0.337816 -0.156593 -0.195981 -0.434522 -0.394027 0.542152 -0.033931 0.146447 0.591646 -0.071690 0.301200 0.105917 -0.710076
everything 0.663658 0.770344 0.060540 0.149060 0.496123 0.725646 -0.165998 0.074096 0.003613 -0.098136 0.070660 -0.205045 0.526808 -0.298312 -0.112962 0.459435 0.247864 -0.028111 0.862631 -0.564113 0.162968 0.159870 0.479376 0.003042 -0.862168 0.214370 0.045520 -0.495550 -0.208402 0.107869 0.175333 -0.386711 -0.049453 0.325805 -0.140982 0.196637 -0.158436 0.480287 -0.199770 -0.136015 0.140961 0.137585 -0.042557 0.349123 0.815439 0.682354 0.161969 0.511115 0.175528 -0.780547
wanted 0.712164 1.139127 -0.299376 0.375314 0.291266 0.701484 0.349512 0.724394 0.948868 0.346284 -0.148354 -0.592908 0.273824 -0.347862 -0.295827 -0.034914 0.041682 0.179666 0.749663 -0.097526 0.422633 0.085192 -0.254070 -0.219930 -0.724206 0.618210 0.505482 -0.079309 0.024906 -0.036666 0.050104 -0.425819 -0.325409 -0.086634 -0.416819 0.229547 -0.095060 0.901752 0.394819 -0.145421 -0.078832 0.362272 -0.151033 0.143482 0.757646 0.943937 0.040907 0.923612 -0.950499 -0.539323
but 0.151868 -0.008458 -0.424986 0.224964 -0.029189 0.024175 -0.041846 0.050248 0.174903 0.233744 0.052461 -0.456539 1.050382 0.324567 -0.296695 -0.212681 -0.032790 0.051354 0.629160 -0.637949 -0.376400 0.844435 0.237653 -0.624338 -1.088842 0.663355 0.078677 -0.313452 -0.215199 0.144442 -0.160342 -0.302044 -0.227045 -0.033049 0.207157 -0.044679 -0.475939 0.271741 -0.154758 0.396022 0.425243 -0.160705 -0.263537 0.199004 0.269844 0.700226 0.229958 0.214174 -0.587661 -1.277612
also 0.813952 0.302780 -0.399686 0.332694 0.252049 0.409922 0.059243 -0.162301 0.551368 -0.328399 0.206882 0.049277 0.820041 -0.489790 0.207857 -0.154154 -0.769129 -0.210053 0.328118 -0.130213 0.105464 -0.011542 0.133106 0.176685 -0.689338 0.145551 0.184586 -0.185390 -0.399746 0.102122 -0.090732 -0.020067 -0.094716 -0.169393 -0.261545 0.175782 0.292912 0.539067 -0.253279 -0.503110 -0.127700 -0.093805 -0.397191 0.618579 0.353014 0.606474 -0.138526 0.583823 -0.361316 -0.321705
secret 0.867607 0.305859 -0.156720 0.602548 -0.111521 0.774076 -0.285744 -0.110446 0.000377 0.175563 0.231851 -0.106083 0.144485 0.086535 -0.451823 -0.303275 0.118892 -0.481734 0.517906 0.425040 0.176724 0.067285 -0.054380 0.080611 -1.140681 0.544639 -0.192760 -0.656327 -0.169812 -0.226633 -0.224877 -0.118293 0.262114 0.185182 -0.043526 0.299764 0.258614 0.265480 -0.032510 -0.145588 -0.093879 -0.526774 0.090985 0.459630 0.209010 0.626592 0.230250 0.497213 -0.360783 -0.509860
greatest 0.273784 -0.159699 -0.247081 -0.151210 -0.278911 0.231784 -0.078429 0.125222 0.086856 0.535039 0.068761 0.379495 0.087105 -0.179718 -0.204845 -0.297574 -0.001328 0.396035 1.079428 -0.085660 0.161498 0.384763 0.147090 0.540524 -1.078450 0.325780 0.157428 -0.370092 -0.192184 0.434203 -0.243487 -0.101561 -0.474899 -0.341815 0.109911 0.234105 0.083844 0.293676 0.149892 -0.321075 -0.111557 -0.001328 0.254731 0.337045 -0.033290 -0.003993 0.560857 0.872211 -0.191561 -0.588064
fear 0.288822 0.153644 0.194719 0.322313 0.274114 0.787526 0.159670 0.119524 0.252230 -0.053876 -0.508681 -0.006150 0.283991 -0.508297 -0.378728 0.049899 0.144337 0.010803 0.695001 -0.240067 0.220210 0.194231 -0.107709 0.284376 -0.887431 0.638199 0.371404 -0.578726 -0.414389 -0.052692 -0.386988 -0.014011 -0.640084 0.146174 -0.340615 -0.336832 0.492214 0.547467 -0.197688 -0.273175 -0.109574 -0.182141 -0.168819 0.161633 -0.058522 0.054862 0.109616 0.411439 -0.206819 -0.118950
somebody 0.486909 0.251852 -0.441151 0.214917 -0.092047 0.729012 0.360568 -0.016147 0.356970 -0.360409 0.065212 -0.270848 0.513379 -0.335315 -0.053667 -0.384333 0.053603 -0.111567 0.785985 -0.621708 0.029072 -0.068288 0.649121 -0.497284 -0.871125 -0.036485 0.150511 -0.188636 -0.343688 0.310423 0.174769 -0.188865 -0.019232 0.099436 -0.103661 0.060851 0.383107 -0.121117 -0.342718 -0.399671 -0.038898 0.027912 0.154441 -0.032422 0.264464 -0.020994 0.273702 0.782872 0.119734 -0.005475
would 0.696298 0.813330 -0.039685 0.081338 0.003179 0.129657 -0.216438 -0.245638 0.252074 -0.116529 0.293432 -0.588254 0.954880 0.111091 0.204164 0.330593 -0.824219 -0.252931 0.827393 -0.196900 0.266956 0.176391 0.093036 -0.437115 -0.782210 0.676714 0.334684 0.194778 -0.376261 -0.085355 -0.083391 0.510846 -0.937090 -0.295496 -0.114033 0.234182 -0.185060 0.378095 0.577163 -0.582914 -0.039276 -0.384087 0.457857 0.076494 0.894271 0.242629 0.547408 0.839594 0.005753 -0.704348
discover -0.059169 -0.109061 -0.097587 0.277540 -0.338299 0.087170 -0.296719 0.248164 0.073034 -0.172244 -0.112192 -0.107050 0.244228 0.018775 -0.128063 0.264199 0.327690 0.086767 0.232424 -0.470246 0.356932 -0.022625 -0.225723 0.111169 -0.287097 0.187521 0.022792 -0.025864 0.196912 0.023551 -0.266062 -0.293063 -0.356205 -0.084790 -0.347868 0.533847 -0.237066 -0.071598 -0.330028 -0.182233 0.298730 0.053175 -0.067759 0.352250 0.239486 -0.010343 -0.344736 0.369975 -0.152336 -0.450459
it 0.630466 0.390901 -0.665716 0.232268 0.385650 0.558361 0.048174 0.024857 0.448140 -0.305889 0.789084 -0.677760 0.337777 0.290209 0.052649 -0.575417 0.125493 -0.055936 0.699679 -0.536822 0.085161 -0.222309 0.478273 -0.358413 -0.417449 1.089692 0.564330 -0.718912 -0.560974 0.122397 0.187849 -0.177708 -0.462258 0.241813 0.031533 0.374279 0.140541 0.277251 0.201191 0.105990 0.003173 0.510860 -0.315521 0.046141 0.116649 0.593902 -0.117219 0.020719 -0.175030 -1.279826
think 0.396088 0.863531 -1.043224 -0.052025 0.323947 0.694394 0.125056 0.175784 0.017269 0.363374 0.234684 -0.457006 0.352738 -0.644336 -0.298910 0.535998 -0.058607 0.342555 1.177674 0.234280 -0.046145 0.201777 -0.090152 -0.711954 -1.378566 1.077988 0.606897 -0.317185 -0.031917 -0.210489 0.458758 -0.014304 -0.362951 0.519010 -0.141451 0.112998 0.075625 0.925575 0.259460 0.226066 -0.279225 -0.240885 0.641188 -0.246602 0.231318 0.563206 0.104072 0.560509 -0.732240 -1.077956
could 0.995835 1.141912 -0.061984 0.119618 -0.499842 0.338330 -0.480830 0.647194 0.397252 -0.140974 0.291529 -0.603350 0.236220 -0.329697 -0.127160 0.042114 0.053433 -0.337453 0.959726 -0.397147 0.529979 0.454745 0.043211 -0.597736 -0.692261 0.163358 -0.001757 -0.119740 -0.338793 0.143697 -0.464005 -0.189116 -0.458046 -0.490624 -0.001100 -0.111795 -0.522394 -0.029615 -0.149486 -1.189600 -0.199154 0.046906 0.408550 -0.046708 0.981039 0.661678 0.365861 0.405842 -0.481368 -1.076494
bear 0.155087 -0.136417 -0.070503 0.150816 0.206691 0.177361 -0.237924 -0.205517 0.413737 -0.291572 0.015236 -0.135787 0.548362 0.338134 -0.174357 0.125753 -0.007763 -0.288595 0.562379 0.194834 0.365457 0.198239 -0.028382 -0.204666 -0.931180 0.517921 -0.050412 0.052937 0.144245 -0.229978 -0.546926 -0.002902 -0.323130 0.243192 0.023307 -0.229165 0.124200 0.100966 -0.022248 -0.030065 0.347186 -0.279685 0.069674 0.647787 -0.115005 -0.011103 0.446770 0.309218 -0.362465 -0.924437
if 0.863969 1.420799 0.160730 0.409544 0.359366 0.457656 0.395038 -0.007481 0.486091 0.733709 0.053959 -0.435763 0.509836 -0.043547 -0.604354 0.038834 -0.453526 -0.211269 0.608052 -0.382263 -0.252459 0.011926 0.449102 -0.596506 -0.828914 0.380872 -0.466508 -0.668405 -1.138855 -0.375438 0.149982 -0.134167 0.072662 0.191194 -0.030689 0.555164 0.697750 0.523825 0.619797 0.031234 -0.340225 -0.253401 0.608541 0.165265 -0.108992 0.880531 0.249135 0.235690 -0.823226 -1.139419
anyone 1.269149 1.363732 -0.442704 0.026684 0.719008 0.412116 -0.477317 -0.129242 0.070016 0.309977 0.620570 -0.096592 0.405616 -0.268394 -0.088794 0.257249 -0.259019 -0.268061 0.810756 -0.034485 -0.257331 -0.000016 0.485384 -0.527669 -0.350306 1.202506 0.055961 -0.500572 -0.040261 0.288052 -0.120020 -0.131745 -0.400900 -0.169347 0.047644 0.319772 0.135262 0.644405 0.081600 -0.242926 0.142386 -0.331988 0.142150 0.259983 0.597722 1.099582 0.497450 0.577684 0.043969 -0.821403
found 0.692881 0.517660 0.120236 -0.126405 -0.167835 0.454059 -0.610903 0.476013 0.000798 -0.046389 0.302693 -0.576676 0.490496 -0.030105 -0.104804 0.139659 0.017681 -0.390618 0.736227 -0.123208 0.365468 0.046664 -0.100455 -0.052813 -1.016787 0.759584 0.183150 -0.419294 -0.137543 0.027830 -0.535351 -0.454459 0.202716 0.391458 -0.087129 -0.030984 -0.546339 0.524888 0.078116 -0.238971 0.618376 -0.117199 0.201730 0.578274 0.150832 1.054820 0.243144 0.878563 -0.343910 -1.119650
out 1.162136 0.760517 0.910441 -0.678773 0.428781 0.673173 -0.178975 -0.177644 0.180543 0.487123 0.009669 -0.425418 0.121206 -0.589444 -0.408324 0.275286 -0.041661 -0.034199 0.841415 -0.036558 0.170726 0.602057 0.090292 0.515772 -1.111658 0.656307 0.151621 -0.652181 -0.162333 -0.200641 -0.353531 -0.079722 -0.087755 0.311873 0.231854 0.255881 -0.260334 0.454425 -0.395049 0.282539 -0.098859 -0.228606 -0.475880 0.203738 0.614240 0.729026 0.211616 0.529750 -0.776124 -0.559619
about 0.474487 -0.213558 -0.237872 0.147883 0.012559 0.142939 -0.048234 -0.240614 0.677665 0.728665 0.121211 -0.411123 0.500964 0.600931 -0.503846 -0.295641 0.029257 -0.198160 0.071357 -0.394814 0.298784 -0.097328 0.119468 -0.783879 -0.803912 0.469865 0.520077 -0.782039 -0.042950 -0.462481 -0.113852 0.155324 0.412100 0.075416 -0.651227 -0.516790 0.319479 0.410530 -0.002475 -0.696707 0.227094 -0.340828 0.900867 0.728133 0.719758 0.673593 0.015533 0.997203 -0.153021 -1.160744
Potters 0.729399 -0.080418 -0.627516 0.453537 -0.160134 0.437374 0.184251 0.171873 0.383794 -0.261012 -0.232493 -0.372302 0.253367 -0.148866 0.176694 -0.041154 -0.165173 0.043314 0.372024 -0.300517 -0.145751 -0.023559 0.411472 -0.077620 -0.780177 1.346953 0.266863 -0.461903 0.088152 0.213783 0.004704 0.480972 -0.298915 -0.140980 -0.093010 -0.302550 0.036951 0.121644 -0.269449 -0.028496 0.014372 -0.200893 -0.131258 -0.068682 0.123127 0.351671 0.099520 0.623594 -0.088656 -1.102656
sister 0.512156 0.348194 0.024183 0.436295 0.119997 0.623003 -0.326549 -0.460758 0.399281 -0.058116 -0.066924 -0.051469 0.575537 -0.249291 -0.352777 -0.063495 -0.042133 -0.206083 0.650810 -0.190419 0.247516 0.218474 -0.047514 -0.167679 -0.618262 0.563590 -0.023477 -0.223626 0.436294 0.122431 -0.197786 0.243344 -0.209014 0.251585 -0.027523 0.160972 -0.134656 0.318282 0.096245 -0.116657 -0.004396 -0.284581 -0.140931 0.369354 0.299502 0.579641 -0.029719 0.715514 -0.166427 -0.480025
hadnt 0.971261 0.909785 -0.300266 0.593846 0.266573 0.191088 -0.103831 0.010887 0.133152 0.042587 0.713645 -0.625761 0.626616 0.221849 -0.152860 0.249310 -0.819192 -0.179983 0.564348 -0.958296 0.814194 0.192257 -0.150355 -0.685545 -1.031896 0.462396 0.259084 -0.345259 0.109847 -0.045669 -0.052827 0.083805 -0.549968 0.410183 0.066619 -0.055542 -0.462411 0.830966 -0.295078 -0.681006 0.477358 -0.252867 -0.177379 0.596671 0.048921 0.502940 -0.387213 0.456185 -0.393407 -0.868040
met 0.227026 0.409736 -0.139287 0.136102 0.124412 0.171206 -0.273593 -0.555789 -0.067065 0.300152 0.073082 -0.625224 0.899460 -0.238758 -0.356644 0.397447 -0.531963 -0.427462 1.251408 -0.480640 0.357507 0.185462 -0.395558 -0.075939 -0.807094 0.265677 0.218157 0.095603 -0.278044 0.133797 -0.456164 0.179866 -0.136691 -0.093056 -0.285865 0.459620 0.164061 0.300444 0.061861 -0.458869 -0.223797 -0.047381 0.024064 0.514719 0.132141 0.883194 0.018225 0.499710 -0.015471 -0.855468
for 0.261199 0.193411 0.723211 0.124652 0.144888 0.647696 0.082410 -0.516775 0.349467 -0.032790 0.031985 -0.315218 0.397938 0.273723 0.047827 -0.517640 -0.732787 -0.289396 1.343083 0.695857 -0.489564 0.251179 -0.022613 0.449076 -0.631446 1.456720 0.056085 -0.119758 0.271205 -0.082130 -0.070311 0.146874 -0.309560 -0.192711 -0.208654 -0.494969 -0.031770 -0.391661 -0.265773 -0.465793 -0.156796 -0.288492 0.490107 0.209644 -0.091875 0.704178 0.230491 0.528231 -0.339746 -0.930010
several -0.006978 -0.180357 0.013467 0.403693 0.373238 0.483105 -0.160427 -0.163498 0.658515 -0.082306 0.029228 -0.310884 0.124136 -0.025419 -0.059062 -0.155180 -0.045457 -0.079045 0.750699 -0.190097 0.376100 0.430573 0.169502 0.157859 -0.611329 0.269655 0.025389 -0.537030 -0.593579 0.600722 -0.342930 0.071461 -0.375772 -0.002219 -0.115566 -0.321518 0.200920 0.129267 -0.219263 -0.450533 0.291460 0.205234 -0.282124 0.578534 -0.046509 -0.017282 -0.389629 0.768925 0.058757 -0.583899
years -0.141597 -0.079939 0.224243 0.721975 -0.126228 1.102463 -0.362344 -0.462656 -0.085690 -0.695516 -0.428801 -0.543286 0.484696 -0.168461 0.136746 0.131800 -0.280229 -0.182416 0.933018 -0.072124 -0.479804 -0.022678 0.249500 0.180669 -1.205243 0.269336 0.145957 -0.495409 0.026265 0.427766 -0.081258 -0.078548 0.206582 -0.172940 -0.601865 -0.080396 0.435811 -0.122842 0.146788 -0.026241 -0.219635 -0.494836 0.221411 0.088729 0.407354 1.305463 0.492495 0.500542 -0.045424 -1.188729
fact 0.378133 0.356786 -0.362552 0.293155 0.019502 0.650076 0.224653 0.263677 0.004026 -0.297114 0.222235 -0.107513 0.444233 -0.090302 0.271786 -0.066370 -0.242080 0.465295 0.588678 0.046818 0.220313 -0.129193 0.230094 0.173242 -1.145390 0.542339 0.077435 -0.783436 -0.142868 0.005901 -0.215959 0.043818 -0.091483 0.125769 0.166406 0.051881 0.397598 0.726188 -0.410627 -0.336170 0.141706 -0.397864 -0.005634 0.385315 0.303793 0.196428 0.083370 0.320293 0.046682 -0.620376
pretended -0.095612 0.440167 -0.520983 0.400324 0.067847 0.663575 0.486681 0.509443 0.681529 -0.505710 -0.568798 -0.210067 -0.123430 -0.188178 -0.138648 -0.121523 -0.094093 0.101237 0.254474 -0.237414 0.476875 -0.197349 0.331198 0.253210 -0.943378 0.235749 0.576669 -0.007786 0.213296 0.076048 -0.121039 0.073766 -0.288159 0.167572 0.096296 0.148058 -0.162285 0.320075 0.259488 -0.077695 0.012996 0.032070 -0.049259 0.557614 -0.000035 0.015259 -0.179363 -0.124227 -0.188872 -0.414898
goodfornothing -0.063889 -0.010465 -0.286145 0.079624 -0.306764 0.440451 -0.110213 0.029418 -0.281666 -0.108212 -0.190626 -0.090420 -0.003900 -0.101404 0.184517 -0.116227 -0.123084 0.022668 0.256798 0.207570 0.231979 -0.002506 0.250346 0.130749 -0.808333 -0.006490 0.264624 -0.343989 0.108951 0.099572 0.125036 0.046381 -0.059198 -0.023330 -0.160952 0.344013 -0.290928 0.148957 -0.342874 -0.228450 -0.198002 -0.007405 0.076465 -0.050484 0.098386 0.542041 -0.181768 0.232228 0.263164 -0.702077
husband 0.030142 0.099983 0.002771 0.111951 -0.244747 0.038674 -0.127956 0.020675 0.298466 0.261917 0.175888 0.078127 -0.167950 -0.043051 -0.000486 -0.421857 -0.464741 -0.061909 0.368054 -0.039263 0.291956 0.349328 0.123456 0.016154 -0.475318 -0.186902 -0.217239 -0.345581 -0.169570 0.380024 0.123404 0.034741 -0.096274 0.159416 0.116493 -0.317300 0.149921 0.159471 -0.738303 0.362573 -0.291249 -0.252728 0.159734 0.175308 -0.311818 0.121402 -0.188064 0.410249 -0.141357 -0.448410
unDursleyish 0.011803 -0.125897 -0.139437 -0.009913 -0.079596 -0.138245 -0.102398 -0.242868 0.653171 -0.426188 0.209061 0.077343 0.237806 -0.090856 0.037219 0.190241 0.491323 -0.033658 0.602373 -0.128752 0.037911 0.209858 -0.062448 -0.265628 -0.041873 0.423653 0.230194 0.120367 0.320035 0.287528 -0.005962 -0.102546 -0.481396 -0.505622 0.156705 -0.216175 0.097202 0.365255 -0.324847 -0.202156 -0.092853 -0.248991 0.399107 -0.344460 0.225021 0.506090 -0.218765 0.011704 -0.097771 0.071815
possible 0.610734 0.128652 -0.404921 0.220738 -0.260846 0.653154 -0.068930 -0.060079 0.086792 -0.416149 0.734747 -0.379789 0.654085 -0.340257 -0.109434 -0.106625 0.228942 -0.590304 0.678764 0.148079 0.189994 0.595565 0.113099 0.198790 -0.563332 0.679961 -0.190037 -0.215224 -0.076365 -0.083668 -0.588847 -0.122247 -0.616875 0.053778 -0.005367 -0.056356 0.658712 0.325274 -0.315200 -0.548772 0.233540 0.074823 0.386403 0.850188 0.352398 0.211166 -0.104781 -0.085916 -0.670048 -0.858096
shuddered 0.080251 0.269129 -0.415874 -0.072075 0.456336 0.267066 0.013743 0.439617 0.624731 0.076690 0.176462 -0.025238 0.478916 0.117124 -0.004525 -0.259556 0.476999 -0.545887 0.331417 -0.205344 0.109360 0.367127 -0.049880 -0.102254 -0.387961 0.108995 0.278030 -0.550009 -0.201896 -0.114117 -0.415763 -0.173892 -0.244083 0.072154 -0.144299 -0.115305 0.070811 -0.140960 -0.198406 -0.688439 -0.041297 -0.041731 -0.242271 0.696421 -0.265956 0.300483 -0.016984 0.439712 0.237273 -0.502873
what 0.389647 0.941312 -0.923020 0.291225 0.600605 0.377754 -0.475094 -0.108981 0.545880 0.340461 0.708473 -0.460859 0.231958 -0.308927 -0.099763 -0.152473 -0.788801 0.948848 0.974995 -0.222265 0.364310 -0.217793 0.193883 -0.957297 -0.880686 0.305818 0.065426 -0.925729 0.043393 -0.281741 -0.103388 -0.123668 0.408266 -0.177425 -0.229630 -0.178902 0.268969 0.495298 0.194383 0.301056 0.203660 -0.069579 -0.191293 0.632630 0.504931 0.521951 0.648641 0.523619 -0.384636 -1.063327
arrived 0.229009 0.010868 0.082740 0.579949 0.040061 0.409735 0.304643 -0.630849 0.324183 -0.274719 -0.074378 -0.383586 0.371348 -0.259339 0.100411 -0.241413 -0.494509 -0.159827 0.712711 0.009168 0.039812 0.500200 0.517760 -0.394439 -1.240311 0.452016 -0.067559 -0.289523 -0.151069 0.189154 -0.376155 0.129803 -0.010170 -0.289053 -0.137675 0.151470 0.395813 0.238556 -0.084408 -0.371655 -0.154336 0.423610 -0.475786 0.220304 -0.358420 0.939867 0.092794 0.638846 0.045629 -0.684044
street 0.513557 0.539464 0.100175 0.116239 0.208878 0.529170 -0.179483 -0.262913 0.221088 -0.009082 -0.336531 -0.059653 0.530930 -0.351088 0.155238 -0.177079 0.311999 0.083999 0.566006 -0.281823 -0.053245 0.387228 -0.691572 0.391109 -1.034951 0.506820 -0.028015 -0.563529 0.273436 0.088238 -0.230642 0.847172 0.006929 -0.135635 -0.210420 0.148655 0.776366 0.589553 -0.536601 0.106867 0.553886 0.143798 0.271128 0.280670 0.303178 0.349922 -0.199686 0.582296 -0.059678 -1.030127
knew 0.602588 0.714400 -0.781889 0.321097 -0.473468 -0.021837 -0.324525 0.318750 0.402190 -0.270143 0.592432 -0.208365 0.398918 0.028022 0.095556 0.318188 -0.715085 0.015809 1.276827 -0.026215 0.627968 0.094630 -0.275180 -0.429402 -0.566673 0.593658 -0.071534 -0.613012 -0.086547 0.215149 -0.290806 -0.063043 -0.261586 0.112150 -0.594277 0.721287 -0.261622 0.636439 -0.020789 -0.140041 0.313085 0.006573 0.177551 0.429448 -0.105389 1.262964 -0.298944 0.461788 -0.538034 -1.874956
too 0.438010 1.038131 -0.463952 -0.403240 0.537567 0.396505 0.652061 0.000931 0.724675 0.312992 0.263409 -0.297019 0.528277 0.618047 -0.117932 -0.290756 -0.823819 0.143306 0.381477 0.008850 0.478869 -0.604649 0.263978 0.153235 -0.912820 0.351706 -0.513638 -0.330281 0.008388 -0.448569 0.317965 -0.248451 -0.156327 -0.415405 0.202361 -0.088489 0.127978 0.391176 -0.512656 -0.302140 0.038467 -0.106145 0.056593 0.691886 0.130915 0.591284 0.330831 0.297359 -0.094037 -1.244885
never 0.543891 1.048629 -0.728356 0.741373 -0.174729 0.956732 -0.183611 0.142601 0.022432 0.156045 0.890780 -0.444653 0.272139 0.452125 0.210518 -0.038041 -0.768188 -0.274646 1.080311 -0.644005 0.700708 0.187676 -0.131070 -0.570449 -1.538827 0.490227 0.441590 -0.539052 -0.169592 0.459495 -0.516010 0.074923 0.203412 0.437709 -0.692648 0.131582 -0.903222 0.777379 0.427319 -0.498412 0.196584 -0.020785 0.185137 0.394535 0.085315 0.735310 0.329900 0.301601 0.056973 -0.434537
even 0.184850 0.679130 -0.094250 0.154026 0.132395 0.598093 -0.216177 -0.211900 -0.089818 0.353727 0.345395 -0.419021 0.297104 -0.145397 -0.143119 0.113058 -0.433685 -0.429536 1.178480 -0.591437 -0.058369 -0.096415 0.320827 -0.144102 -0.470264 0.878048 -0.052044 -0.391284 0.252895 0.050581 -0.117644 -0.286757 -0.551359 0.393614 0.096811 -0.169106 -0.362656 0.809073 0.122254 -0.502085 0.330837 -0.191494 -0.139508 0.286041 0.597978 0.750295 0.056146 0.683601 0.292739 -0.973108
seen 0.404752 0.865393 0.045808 0.262829 -0.392121 0.572753 -0.183976 -0.102489 -0.394082 0.253584 0.503860 -0.343511 0.610074 0.197463 0.307100 -0.067929 -0.651174 -0.345299 0.735676 -0.424590 0.440528 -0.180451 0.142172 -0.905146 -1.184879 0.496258 0.115969 -0.703403 -0.261178 0.321729 -0.349153 0.026930 -0.175474 -0.223597 -0.202214 0.249373 -0.263566 0.708085 -0.063067 -0.696161 0.105795 -0.441009 0.038507 0.559492 0.595779 1.130555 -0.102302 0.459950 -0.339236 -0.799694
him 1.018212 0.257314 0.120867 0.097940 0.220331 0.666316 0.377151 -0.419839 0.196994 0.300830 0.303823 -0.305931 1.274494 -0.304528 0.155542 0.030101 -0.380547 0.631212 0.826280 -0.518975 0.148075 0.070343 -0.665935 -0.576037 -0.751559 0.611867 -0.481497 -0.662407 -0.435010 0.363285 0.157518 0.458077 -0.505695 -0.257627 -0.118919 0.120628 -0.265011 0.280239 0.005718 0.367410 -0.213460 0.359185 -0.460823 0.849752 0.573762 0.297341 -0.580019 -0.164302 0.172542 -0.440231
This 0.104268 -0.097546 -0.562695 0.339435 0.427188 0.171021 -0.020881 0.139029 0.824849 0.197560 0.209614 0.017898 0.435752 0.208371 0.474063 0.028055 0.171088 -0.430920 1.103115 0.251134 -0.330228 -0.020730 0.257617 0.183685 -0.809163 0.901108 0.461835 -0.994673 -0.153874 0.140505 0.034530 0.247487 -0.606283 0.507095 0.235512 0.054496 -0.011707 0.528705 -0.329958 -0.654205 0.344139 0.086947 0.144059 -0.099027 0.254436 1.034144 0.196759 0.610677 -0.555788 -0.592675
another -0.211335 0.430958 0.437745 0.677414 0.241758 1.178097 0.369290 -0.092183 0.592475 -0.131116 0.542660 -0.630513 0.641312 -0.037989 0.025404 0.055195 -0.391964 0.318482 1.037954 -0.263591 -0.078548 0.403087 -0.003402 0.000952 -0.650811 0.449091 0.314199 -0.039484 -0.459265 0.741416 -0.396977 -0.390858 -0.354266 0.369131 0.224485 0.021937 -0.114484 0.156275 -0.072394 -0.293839 -0.006820 0.130377 0.092957 0.357570 0.213280 0.700355 -0.018815 0.284140 -0.289800 -0.629495
good 0.392646 -0.011642 -0.399137 0.136860 -0.431066 0.573491 0.714147 -0.022292 0.645905 0.316730 0.625544 0.040371 0.809073 0.021042 -0.787401 -0.151320 -0.288631 -0.116652 0.502219 -0.564071 -0.072007 0.083924 0.009568 -0.367331 -0.874534 1.324731 0.556244 -0.698941 0.806402 -0.000286 -0.526664 -0.539125 -0.354680 0.021626 0.454636 -0.251815 0.167093 -0.229940 -0.092954 -0.323671 0.156719 0.075160 -0.369973 -0.077105 0.688882 0.754049 0.292648 0.586287 -0.143628 -0.722418
reason 0.060696 0.113207 -0.569720 0.096019 -0.022874 0.587517 0.233894 0.044576 0.645545 0.213288 0.138725 -0.333757 0.745497 0.181540 -0.276875 -0.344920 -0.527496 0.089087 0.750589 -0.454919 -0.179963 -0.407414 0.144375 -0.145155 -0.798519 1.505985 0.314602 -0.066435 0.068880 0.488993 -0.399095 -0.192289 -0.247336 -0.189141 -0.603345 0.138806 0.385270 0.358262 -0.338890 -0.022735 0.441498 0.078015 -0.001116 0.181127 0.665523 0.726074 -0.501552 0.769725 -0.063560 -0.551266
keeping 0.252091 0.065272 -0.137834 -0.032185 -0.211698 0.509893 0.102417 -0.257990 0.047449 0.164391 0.485991 0.190588 0.799851 0.197130 -0.267554 -0.102060 0.083527 -0.233701 0.975090 0.091436 0.378990 0.071184 0.177626 0.239030 -0.805958 0.528569 0.156529 -0.553782 0.298004 -0.249325 -0.309275 -0.000887 0.036881 0.026071 -0.350799 0.064722 0.222429 0.261014 -0.214540 0.213469 0.208867 0.184011 -0.132979 0.465258 0.246659 0.393049 0.312899 1.119881 -0.333748 -0.457538
away 0.532014 0.218546 0.626476 0.144202 0.487164 0.209754 -0.243245 -0.236747 -0.048070 -0.156751 -0.164099 -0.395645 0.429957 0.746788 -0.060770 -0.324300 -0.219422 -0.041657 1.126162 -0.601362 -0.023616 -0.385284 0.756446 0.082173 -0.840991 0.688032 0.047257 -0.165018 -0.699367 0.077986 -0.326967 0.064344 -0.306592 0.037680 -0.008226 0.173779 0.028205 0.195589 -0.003534 0.072322 -0.456362 -0.390096 0.161167 0.115560 0.058895 0.303998 -0.356730 0.346448 -0.390831 -1.160298
want 0.340160 1.055366 -0.861078 0.113822 0.164329 0.409525 -0.047065 0.638307 0.568981 0.834010 0.095077 -0.694128 0.447621 0.063557 0.194052 0.042150 0.624261 -0.077322 1.037672 -0.556402 -0.227515 -0.245537 0.195441 -0.523660 -1.157319 1.112390 0.801806 0.110266 0.066433 -0.246471 0.456226 0.135279 -0.575940 -0.084814 -0.531797 0.097548 0.528454 0.714884 0.268608 -0.518957 -0.057275 0.020368 -0.263877 0.708638 0.399845 0.873741 0.602212 0.080015 -0.106324 -0.964991
mixing 0.459284 0.285262 -0.349751 -0.039582 -0.190229 0.212115 0.069954 -0.156440 0.520417 0.346051 0.149841 -0.121521 0.546285 -0.184331 -0.196042 -0.262626 -0.290001 0.208792 0.111845 0.017863 -0.251843 -0.385122 -0.054574 0.133051 -0.629983 0.327712 0.092088 0.020680 0.033716 -0.223616 -0.152721 -0.063111 -0.600416 0.085619 -0.174318 0.010350 0.235329 -0.001485 0.164505 -0.360481 0.092256 -0.221512 0.106919 0.361167 0.303011 0.249467 -0.026385 0.025746 0.305839 -0.474929
child 0.449745 0.133449 0.063215 -0.133516 -0.132933 0.157891 -0.362403 -0.041491 0.256078 0.237307 -0.145287 -0.124037 0.346503 -0.194527 -0.078125 0.058681 -0.042284 0.557360 0.397273 0.064272 0.447962 -0.358599 0.261551 0.262152 -0.388607 0.214436 0.304830 0.041361 -0.082001 -0.058029 -0.399440 0.037221 -0.120605 0.296175 0.121476 0.317716 0.298638 0.068622 0.123854 0.379148 0.272896 -0.239851 0.274536 0.018273 0.069431 -0.062889 0.109976 0.435873 -0.094833 -0.960989
like 0.220749 0.987829 -0.171641 0.508350 0.184070 -0.083184 -0.099766 0.651682 0.524330 0.213025 0.273009 -0.081716 1.043335 -0.154663 0.002594 0.062780 -0.783619 -0.031167 0.751539 -0.573986 0.166485 -0.123846 0.207983 -0.336476 -0.789966 0.155538 0.700636 -0.227486 -0.001244 -0.268653 0.160578 -0.160463 -0.155517 0.010188 -0.262091 -0.789137 0.672316 0.186029 0.006151 0.165233 0.890476 0.369797 0.312813 0.957228 0.274283 0.047069 0.073360 0.903919 -0.114111 -0.601139
When 0.340028 0.155787 -0.154452 0.450573 0.279258 0.146649 -0.054992 -0.154470 0.033887 -0.295614 -0.361691 -0.054914 0.595571 -0.330140 0.385739 0.226123 -0.428040 -0.084449 0.669348 -0.701067 -0.086915 0.167766 0.714158 -0.473782 -1.128876 0.395202 -0.166901 -0.415613 -0.454077 0.446935 -0.351863 -0.265411 -0.227780 -0.064863 0.055107 0.087469 -0.033242 0.448920 -0.519341 -0.429107 -0.605722 -0.274044 -0.286483 0.251222 0.352841 1.028880 -0.058947 -0.277592 -0.478743 -0.977952
woke 0.515340 -0.146981 -0.074229 0.072697 0.204285 0.626132 -0.158181 -0.113568 0.306719 -0.312072 0.373646 0.039682 0.511416 0.189177 0.198561 -0.025018 0.016510 0.623828 0.600030 -0.162905 0.608040 0.260748 -0.009347 -0.204794 -1.016093 0.660503 0.024774 -0.143612 0.369142 -0.406718 -0.651256 0.454080 0.013863 -0.246415 -0.070644 -0.054168 0.346384 0.469391 -0.183113 -0.124366 -0.250702 -0.176591 0.230035 0.379010 0.108515 0.496057 0.230365 0.289186 0.168201 -0.686107
up 0.508936 0.137234 0.427794 -0.166729 0.598726 1.228541 0.072941 -0.060543 0.651327 0.235689 -0.185628 -0.225840 0.865877 0.193349 0.602889 0.339816 -0.247371 0.343315 0.926902 -0.265500 -0.371167 -0.589026 0.537817 0.318285 -0.910870 0.462537 -0.108541 -0.009999 -0.662827 -0.682536 0.019875 0.245732 -0.257341 0.012515 0.394591 0.113534 0.107731 0.268816 -0.735072 -0.305858 -0.024617 0.293721 -0.303166 0.834322 0.241813 -0.022168 -0.323711 -0.096689 -0.408000 -0.915030
dull 0.458052 0.113574 -0.374212 0.190432 -0.122874 0.327817 0.180563 0.124159 0.167428 0.003347 -0.154689 -0.387975 0.198342 -0.089853 0.043148 -0.521821 -0.194629 -0.019301 0.165638 -0.441274 -0.033846 -0.188556 -0.144819 0.063112 -0.481039 0.320629 -0.127256 0.059513 -0.123897 0.336407 -0.060317 -0.103256 -0.975481 -0.136303 -0.133291 -0.525526 -0.269399 0.002128 -0.084238 -0.350735 -0.036954 -0.157321 0.064832 0.467221 0.616304 0.463440 -0.117908 0.350664 0.416308 -0.550518
gray 0.272812 0.079736 -0.153980 0.002751 -0.012087 0.085324 -0.073201 -0.142405 0.452634 -0.275440 -0.160427 -0.197082 0.574805 -0.521706 -0.333626 -0.317442 0.187316 -0.058269 0.340081 0.044274 0.242570 0.010370 0.400279 0.234540 -0.574066 0.235930 0.221673 -0.331682 0.204105 0.318468 -0.292965 -0.021639 -0.107575 0.263428 -0.055065 0.082746 0.221471 0.629114 0.328689 -0.281287 0.411734 -0.263705 0.140244 0.699417 0.004047 -0.014355 0.100901 0.616779 0.014982 -0.845151
Tuesday 0.478083 0.184228 -0.320436 0.010865 0.079931 0.196354 -0.316701 -0.026998 0.433847 -0.417159 0.079334 0.025525 0.214392 0.105703 -0.449839 -0.372601 -0.094895 0.185408 0.195257 -0.404241 0.052813 -0.021532 0.293021 0.546583 -0.681386 0.312942 0.232936 -0.404105 0.400548 -0.405416 -0.431683 0.005786 -0.110252 -0.046564 0.269243 -0.114984 0.072776 0.061610 -0.048209 -0.011616 0.240410 -0.323508 -0.030701 0.402504 0.437627 0.418638 0.102340 0.025694 -0.095655 -0.772964
our -0.087518 0.186002 0.138003 0.069777 0.474465 0.884377 0.356695 0.292442 0.928336 0.252252 -0.319909 -0.125816 0.624501 0.059278 -0.182164 -0.210435 0.509108 0.365034 0.767068 -0.574927 0.190692 -0.323565 0.086146 -0.484139 -0.863771 0.525237 0.080386 -0.220115 -0.235597 0.263199 -0.145905 -0.171149 -0.086857 0.230333 -0.606757 0.212444 0.858022 0.344629 -0.047817 -0.352430 0.280438 -0.207784 0.364179 -0.232294 -0.340607 0.980011 0.355014 -0.051074 0.449659 -0.656421
story 0.457216 0.379363 0.106277 0.069306 0.754619 0.291799 -0.472209 -0.422798 0.386813 -0.230823 0.198052 0.111099 0.225661 -0.052698 0.146677 -0.021573 0.052339 0.086097 0.871218 -0.504282 0.062735 0.413884 0.056611 0.286318 -0.645672 0.306335 0.614959 -0.757444 -0.091880 0.152379 0.231048 0.149831 0.310077 -0.505831 -0.041364 -0.088518 0.236086 0.531645 -0.132407 -0.061572 0.395820 0.066485 0.202255 0.223045 0.138703 0.359243 0.096020 0.939099 -0.144773 -0.978971
starts 0.302449 0.196689 0.170627 0.228695 -0.013279 0.617159 0.373005 -0.297535 0.287677 0.441684 -0.369419 0.361063 0.651953 -0.116792 0.004062 0.185718 0.039700 0.346821 0.580846 -0.388927 -0.028120 -0.080783 -0.097011 -0.132201 -0.497579 0.352690 0.103863 -0.643242 0.081736 0.242343 -0.279941 -0.263953 -0.128083 -0.081302 -0.127256 0.002144 0.744980 0.149323 0.073768 -0.501102 0.074973 -0.106385 -0.097239 0.282955 -0.047312 0.144789 -0.008340 0.162736 -0.103550 -0.444979
nothing 0.946028 0.627087 -0.430109 0.433722 0.563457 0.447617 0.126482 0.061963 0.108112 0.352053 0.841824 -0.286819 0.168800 -0.214111 -0.611796 -0.061575 -0.328995 0.180785 0.781302 -0.893267 -0.238980 -0.457894 0.099448 0.058166 -0.566239 0.810493 0.051664 -0.321879 -0.058875 0.724075 -0.022744 0.143733 -0.194858 0.435238 0.331615 -0.031449 0.235905 -0.029406 -0.087420 -0.074327 -0.104231 -0.392049 0.065364 0.422347 0.602871 0.916167 -0.086916 0.734265 -0.215809 -1.061495
cloudy 0.486807 0.051591 -0.162372 -0.257814 -0.233336 0.041883 -0.013766 -0.190189 0.550995 -0.009417 -0.191559 0.035164 0.533129 -0.145710 -0.089930 -0.268993 0.224020 0.016090 0.083339 -0.355773 -0.083926 0.463839 0.202659 0.071888 -0.687493 0.265764 0.021303 -0.453227 0.138891 -0.075216 -0.073631 0.198222 -0.267357 -0.079290 0.270050 0.062544 -0.404512 -0.007086 -0.238383 -0.613115 0.462163 -0.222477 -0.068842 0.156096 0.459690 -0.079858 -0.293071 0.104460 -0.317259 -0.770688
sky 0.413822 -0.245590 -0.380288 0.430553 0.129494 0.593174 -0.301874 -0.324253 0.287301 -0.022775 -0.277798 0.006662 0.331514 0.227478 -0.132367 -0.548467 -0.040335 0.209078 0.477711 -0.014155 0.151136 0.420854 0.210961 0.153629 -0.803990 0.340953 0.345879 -0.558343 0.391112 -0.291280 -0.839252 -0.148706 0.079565 -0.145611 0.102519 -0.429779 0.638799 -0.165590 -0.364386 -0.278352 0.326513 0.224195 -0.363541 0.591835 0.337003 0.281961 -0.441700 0.725647 -0.317151 -1.045762
outside -0.087556 0.551949 0.345195 0.137637 -0.201377 0.026644 0.182195 -0.242082 0.585132 -0.042332 -0.089358 0.033676 0.493749 -0.091669 0.466810 -0.186987 -0.118801 0.271679 0.596195 -0.079774 0.269150 -0.117439 -0.067481 0.821363 -1.016259 0.707206 0.108078 -0.183222 -0.210787 -0.133355 -0.079009 0.426543 -0.416400 0.043649 -0.322478 0.141070 0.556263 0.027594 -0.632227 -0.630608 0.000291 -0.498206 0.519115 0.704705 0.230252 0.357918 -0.210896 0.722708 -0.594604 -0.671631
suggest -0.031595 0.730854 -0.365354 -0.330286 -0.343742 0.734375 0.249840 -0.079733 0.457692 0.216083 -0.275247 -0.048877 0.614099 0.022170 0.007121 0.362336 0.058859 -0.182854 0.520359 -0.136111 0.172392 0.153340 -0.393445 0.113543 -0.678555 0.589371 0.198278 -0.148204 0.013987 -0.116949 -0.472045 -0.238199 0.028070 0.187598 -0.214455 -0.071608 0.405231 0.282374 0.294186 -0.172860 -0.235189 -0.258573 0.116981 0.407233 0.094806 0.691957 0.073067 0.194345 0.054689 -0.811299
things 0.078538 0.797208 -0.422309 -0.147551 -0.204249 0.731044 0.137460 0.858610 0.427164 0.121977 0.345537 -0.274126 0.489379 -0.384370 -0.328901 -0.074472 -0.009510 0.089058 0.632385 -0.413881 -0.096492 0.183621 -0.330062 -0.357052 -0.702309 0.464721 0.549571 -0.704292 -0.082368 0.438616 -0.432194 -0.009153 0.041806 0.026063 -0.400139 -0.191439 0.130039 0.166423 -0.037820 -0.369015 -0.369726 -0.397831 0.298768 0.105296 0.549206 0.216143 -0.214115 0.514715 0.075718 -1.168444
soon 0.504536 0.915678 0.031388 0.359825 0.153865 0.223294 -0.125069 -0.155946 0.537159 -0.105959 -0.101887 -0.897083 0.791419 -0.224399 0.190951 -0.062641 0.047978 -0.173000 1.049694 -0.308268 0.252677 0.128887 0.481826 -0.140555 -0.519694 0.426562 0.141408 0.127634 -0.768234 -0.047178 -0.099413 -0.007681 -0.181900 0.191466 0.251975 -0.149287 0.259756 0.227541 0.285558 -0.066993 0.208830 0.174302 0.332479 0.425298 0.157937 0.490701 0.089702 0.023929 -0.319215 -0.527841
happening 0.174533 -0.153116 -0.106586 0.121630 0.084640 0.431607 -0.140918 0.047027 0.195196 -0.122035 -0.041092 -0.245986 0.441241 0.162791 0.002799 -0.308396 -0.115441 0.191142 0.460554 -0.176774 0.319454 -0.058549 0.370822 0.359908 -1.090365 0.417120 0.367174 -0.375600 -0.133694 -0.166662 -0.232886 -0.333474 -0.065313 0.271697 -0.047546 0.146211 0.214013 0.144902 -0.055494 -0.509464 0.377277 -0.419270 0.375237 0.742980 0.287971 0.235363 0.527935 -0.143041 -0.297844 -0.628131
all 0.439166 -0.073546 0.422729 -0.056351 0.097987 1.126472 -0.180836 0.414007 0.860500 0.264674 0.277113 -0.818074 -0.003203 0.388064 -0.478342 0.337234 -0.303509 -0.096433 1.215799 -0.396956 0.261435 -0.415901 -0.192799 -0.479113 -0.894094 0.388118 -0.235125 -1.141055 0.127070 0.455439 -0.385572 0.297854 -0.322146 0.502330 -0.487107 -0.192597 0.342778 0.318619 -0.140548 -0.173027 -0.468257 0.093828 0.420461 -0.063770 -0.158736 0.543601 0.058301 0.913456 -0.361524 -0.470098
country 0.073432 0.373087 -0.303018 0.115323 0.150165 0.645403 0.129400 0.045178 0.251722 -0.032888 -0.039372 -0.226788 0.321152 -0.151429 0.213555 -0.209311 0.247216 -0.097233 0.766170 0.004890 0.182331 0.259153 -0.156478 -0.020983 -0.840149 0.706279 0.408314 0.112879 -0.449353 -0.359078 -0.361304 -0.126480 -0.503802 -0.049669 0.249970 0.167400 0.077800 0.009402 -0.240161 -0.333974 -0.118185 0.185593 -0.654390 0.140842 -0.099294 0.180695 -0.053388 -0.124329 -0.394741 -0.584472
hummed 0.474115 0.365378 0.302500 0.158251 -0.185816 0.587998 -0.343204 0.102230 0.425306 0.056923 -0.175934 0.285000 0.673646 -0.334405 -0.151599 -0.045506 -0.064064 0.466163 0.277291 0.262159 0.173625 -0.035169 0.458963 0.230079 -0.759094 -0.025783 0.034242 0.122460 -0.111044 0.009002 -0.122282 -0.060675 -0.586445 0.056730 0.059337 -0.462762 -0.272523 0.273001 0.106203 0.079085 -0.114375 -0.031749 -0.624180 0.565832 0.001718 0.021893 0.268863 0.487112 -0.197146 -0.583584
picked 0.839301 0.085758 0.443001 -0.166198 -0.169568 0.410473 -0.628825 -0.469438 0.190491 -0.388031 -0.245400 -0.199873 0.793376 0.153341 -0.028720 -0.279040 0.039726 0.422228 0.517719 -0.423360 0.016883 0.391076 -0.170290 0.310677 -1.127759 0.842844 -0.155238 0.040103 0.268430 -0.154407 -0.747643 0.496604 -0.255281 0.114130 -0.096871 0.123143 0.050132 -0.093832 -0.608209 -0.073155 -0.109571 0.096949 0.121051 0.957321 0.617360 0.433767 0.498771 0.640880 -0.327069 -0.956619
his 0.629075 -0.113452 0.300028 -0.136256 0.060215 1.088966 0.502629 -0.268089 0.592061 -0.717010 0.457008 -0.374373 1.345507 0.216057 -0.619579 -0.315044 -0.254163 0.333771 0.769836 -0.851979 0.345792 -0.257505 0.892946 0.202772 -0.480404 0.098414 -0.236006 -0.424223 -0.597679 0.717568 -0.372386 -0.267484 -0.999482 0.267494 -0.817757 -0.081226 -0.201674 0.470108 -0.358511 0.881662 0.571036 -0.096409 -0.073495 0.093257 -0.059792 0.846447 0.387766 -0.300610 -0.181306 -0.301199
most 0.560362 0.711597 -0.431063 -0.349195 -0.089969 -0.040772 -0.206276 -0.207318 0.478347 -0.160004 -0.144944 -0.266405 0.516424 -0.292166 -0.032396 -0.202587 -0.108961 0.112764 0.534890 -0.195953 -0.055277 -0.182088 -0.162419 0.339551 -1.392823 0.275620 0.360860 -0.456018 -0.246133 -0.427399 -0.390246 -0.176806 -0.259578 0.555365 0.157235 0.451470 0.361169 -0.108142 -0.202857 -0.079016 -0.475997 -0.845857 0.329503 0.679744 0.222274 -0.234359 -0.244308 0.155295 -0.329575 -0.348040
boring 0.151576 -0.033981 -0.032683 -0.084043 0.142616 0.691981 0.267638 -0.488526 0.400970 -0.015887 -0.002697 0.230254 0.359684 -0.024289 0.248906 0.040448 0.092191 0.269880 0.640785 -0.311780 0.330702 -0.252007 0.037456 0.496314 -0.589605 0.273440 0.143316 -0.272914 -0.239480 0.253381 -0.056654 0.102087 -0.585902 -0.086635 0.183053 0.033460 -0.010239 0.056096 0.059484 0.056357 -0.022134 -0.709093 -0.196779 0.215037 0.629002 0.447912 0.278001 -0.151969 -0.107387 -0.460852
tie -0.026514 -0.065586 0.039506 0.072496 0.305707 0.005449 0.245957 0.330146 -0.165939 0.166024 0.353106 0.165392 0.453465 -0.407036 -0.076842 0.116275 -0.049148 0.044896 -0.105809 -0.268323 0.296920 -0.125388 -0.184589 -0.055591 -0.546842 0.044681 0.261770 0.408736 -0.182807 0.188695 -0.473677 -0.176095 -0.176545 0.055985 -0.112286 0.015026 0.320051 0.313079 -0.066155 -0.515854 -0.434048 0.199042 0.160129 0.427844 0.129187 0.070510 0.363487 0.049562 -0.235108 -0.373522
work 0.303557 0.722910 -0.156645 -0.091673 0.655945 0.822354 0.059808 0.475725 0.373667 -0.150939 0.238146 -0.422805 0.452887 0.150515 -0.376819 0.241162 -0.076474 -0.220346 0.696502 -0.248325 0.409517 0.253872 0.373486 0.499555 -1.005760 0.647163 -0.308502 -0.224934 -0.233279 -0.409484 -0.166077 -0.553155 -0.599185 0.123309 0.097404 0.012040 -0.011959 0.195188 0.430003 0.032650 -0.217529 0.353043 0.300937 0.140780 -0.080342 0.208786 0.505810 0.182979 -0.492442 -0.622333
gossiped 0.211156 0.045511 -0.125330 -0.172079 0.160267 0.004620 0.108131 0.322500 -0.176851 0.426622 -0.128622 0.206964 -0.001926 0.292201 -0.208156 0.053492 0.152274 0.297214 0.288042 0.040353 0.093078 -0.272090 0.249450 -0.108215 -0.542389 0.413438 0.328329 -0.414468 -0.108434 0.029629 -0.234855 -0.118334 -0.579629 0.080835 -0.295365 -0.382989 -0.025998 0.455288 0.010869 -0.009593 0.170892 -0.195831 -0.047708 0.099229 -0.366124 0.236216 -0.243819 -0.234737 -0.022980 -0.120795
happily 0.650490 0.059576 -0.008402 0.372557 -0.005774 0.391012 -0.241134 0.275572 0.627990 0.386637 -0.088089 0.070445 0.438197 0.009421 0.048648 0.127765 0.056393 -0.050763 0.661168 0.014229 -0.182593 0.173976 0.465499 0.397029 -0.737745 0.360523 0.177196 0.154339 0.025642 -0.021291 -0.257052 -0.146072 -0.200947 -0.059836 0.396455 -0.123333 0.293600 0.467740 0.310195 -0.488836 0.354915 -0.106856 0.060446 0.750465 -0.094499 0.229487 0.217075 -0.088087 -0.194051 -0.591777
wrestled 0.264678 0.140707 -0.139762 -0.214994 -0.016585 0.023972 0.234864 0.077771 0.205841 0.458382 -0.436838 0.111914 -0.084823 -0.081730 -0.375444 -0.346330 0.140432 -0.109646 0.242155 -0.152718 0.147968 0.231297 -0.115345 -0.257890 -0.659763 -0.179921 -0.073131 0.079255 0.040248 -0.145553 -0.499779 -0.080920 0.252093 -0.111340 -0.096886 0.390727 0.068830 0.082205 -0.227088 0.293458 0.076559 -0.232588 -0.222833 0.142280 -0.073444 0.156978 -0.089749 0.376296 -0.254800 -0.152150
screaming 0.484613 0.224997 -0.208976 0.110846 -0.133643 0.541823 0.385841 -0.081096 0.510557 -0.080075 -0.074791 0.182551 0.296879 -0.167073 0.279995 -0.073617 -0.442402 -0.108901 0.617317 -0.394137 0.306834 -0.160261 -0.099216 0.158730 -0.693916 0.428885 0.202484 -0.464380 -0.362615 0.293470 0.007620 -0.151676 -0.273541 -0.355815 -0.013040 0.114277 0.069547 0.397841 -0.272416 -0.068830 0.089988 0.085247 -0.250750 0.252307 -0.000340 0.468637 -0.065459 0.333208 -0.158759 -0.534345
into 0.881482 0.613309 0.924222 -0.120822 -0.194601 0.732524 -0.007215 -0.397301 0.666101 -0.065227 -1.054257 0.229515 0.704255 0.344930 0.162594 -0.393191 -0.510631 -0.908445 -0.030930 -0.083596 0.008776 -0.342815 0.606570 0.370062 -0.883827 0.311837 0.513769 0.110358 -0.797275 0.257015 0.318253 0.239718 -0.758181 0.332990 0.086269 0.120580 0.159364 -0.431626 -0.968067 0.262678 0.327713 -0.167785 0.003203 0.544016 -0.213653 0.192756 -0.000564 0.327722 -0.667874 -1.085293
high 0.339958 0.477239 0.396877 -0.105675 -0.086081 1.121437 0.275171 0.050870 0.451262 0.172880 -0.037624 -0.037962 0.765546 0.084655 -0.545343 -0.479267 0.087460 0.215177 0.337688 -0.348005 0.253756 -0.221474 0.200193 0.251537 -0.786879 0.877961 -0.396793 -0.066672 -0.566103 0.438685 -0.256514 -0.257392 -0.772887 -0.645493 0.425479 0.065708 0.730895 -0.192885 -0.489473 -0.022203 0.514862 0.317059 0.370029 0.238834 0.270276 -0.233948 -0.292225 0.478857 -0.392171 -0.630938
chair 0.229055 0.024156 0.400772 0.269893 -0.078822 0.491979 0.117777 -0.491527 0.355009 -0.466428 -0.186825 -0.068231 0.399064 0.172046 -0.144165 -0.153457 -0.262571 0.200167 0.783307 -0.045184 -0.025531 0.461187 0.388855 0.207653 -0.812063 0.443718 -0.102697 -0.080878 0.033765 0.224031 -0.630801 -0.385705 -0.367455 -0.180743 -0.043906 -0.072651 0.388286 0.310191 -0.053128 -0.104987 -0.010707 -0.161959 -0.124226 0.519026 0.176906 0.312822 -0.292337 0.194791 0.135669 -0.485850
None 0.139196 0.146233 0.094720 0.249249 -0.105546 0.250692 -0.088413 0.017292 0.942478 -0.244577 -0.441042 0.094967 0.194564 -0.162884 -0.084768 0.024657 0.016354 -0.154819 0.034854 -0.259526 0.044711 -0.277823 -0.023505 -0.165861 -0.401592 0.267343 0.135894 -0.359157 -0.305580 -0.072222 -0.477339 -0.210181 -0.367341 0.271100 0.197183 -0.181356 0.295998 0.251514 -0.351522 0.360308 0.139436 -0.008163 -0.272598 0.022773 -0.084489 0.497506 -0.115288 0.240009 0.196072 -0.084457
them 0.972821 0.164662 0.465403 0.397726 0.338947 0.882939 0.473667 0.197211 0.440487 0.110771 0.076931 -0.420664 0.546444 -0.340855 -0.437394 0.271347 -0.310147 0.587306 1.183654 -0.217441 0.103731 -0.217684 -0.109376 -0.838397 -0.838557 0.758474 -0.121505 -0.339327 -0.511559 0.436917 0.209282 0.322056 -0.084713 -0.104960 -0.308444 0.115633 -0.066949 0.256136 -0.401239 0.029536 0.260574 -0.134249 0.222962 0.878462 0.221632 -0.005780 -0.479199 0.150722 -0.146414 -0.316516
noticed 0.438618 0.572617 -0.610130 0.341227 -0.283883 0.218699 0.139693 0.196153 0.384131 -0.060578 0.280944 0.066597 1.000768 0.251606 0.344967 -0.052442 -0.213353 -0.247116 0.681011 -0.105035 0.336954 0.425090 -0.335167 0.330485 -0.797186 0.662489 0.575191 -0.408434 -0.445625 -0.189585 -0.496225 -0.361236 0.402076 0.107183 0.434602 0.051103 -0.162622 0.825753 -0.625357 -0.471750 0.017980 0.169296 0.014877 0.310654 0.018095 1.075677 -0.384789 0.975687 -0.145693 -1.141374
tawny 0.466510 0.181214 0.054139 -0.101786 -0.206416 0.205818 -0.075037 -0.061584 0.659018 -0.143150 -0.078852 -0.586762 0.266305 0.231893 -0.141165 -0.152848 -0.303738 -0.400948 0.094999 0.059288 0.029736 -0.041654 0.091806 0.326379 -0.254788 -0.029247 0.332406 -0.106109 -0.129076 0.188152 -0.589198 0.275926 0.290864 0.211999 -0.181271 0.162094 0.270034 0.258763 0.107732 0.022568 0.101987 -0.216026 -0.230945 0.133399 0.343017 0.660120 -0.268317 -0.290246 0.093460 -0.494609
owl 0.226103 0.423646 0.103118 0.081216 -0.033523 0.517271 -0.528816 -0.045789 -0.164003 0.091637 0.663083 -0.466865 0.106933 0.032812 -0.269589 -0.376910 0.006853 -0.085070 1.476148 -0.568465 -0.311267 -0.057051 0.288265 0.719784 -0.502683 0.419783 0.665375 -0.868890 0.005102 0.456054 0.005783 -0.084566 -0.065624 -0.144747 -0.130563 -0.235648 0.797556 0.342082 0.326025 -0.024257 0.067183 -0.058265 -0.458104 0.599863 0.049705 0.637744 -0.261206 -0.230962 -0.136309 -1.069295
flutter 0.150578 0.354113 0.053389 0.095703 -0.431203 0.904314 -0.104829 -0.218497 0.176575 -0.187972 -0.102805 0.134898 0.212521 -0.540117 0.328380 0.263010 0.036960 0.059753 0.625438 0.036515 0.105739 0.235146 0.147947 0.414338 -0.200099 0.148015 0.165100 -0.343428 -0.165888 -0.127799 -0.422522 0.261020 -0.337132 -0.188361 -0.120859 0.204350 0.209329 0.102340 0.094708 -0.102857 0.210481 0.068200 0.448538 0.795507 0.064944 0.273040 -0.592327 -0.111449 -0.101487 -1.014363
past 0.824548 1.042804 0.550684 0.379090 -0.698621 0.848732 0.234449 -0.087449 0.621890 0.558858 -0.279135 0.188909 0.589039 -0.080293 0.145257 -0.012513 -0.387698 -0.314635 0.550306 -0.303229 0.469987 0.039253 0.273513 0.352146 -0.553735 0.984917 0.506211 0.224473 -0.495501 -0.601280 -0.273110 0.813782 -0.495042 0.849635 -0.447907 -0.080389 -0.010591 0.416953 -0.347986 -0.367116 -0.010784 0.217513 0.123268 0.326615 0.276475 0.498224 -0.218396 -0.240880 -0.167795 -0.716249
window 0.683508 -0.403906 0.306918 0.540302 0.009591 0.598061 0.261129 -0.398787 0.369148 0.124294 0.209402 -0.406421 -0.151787 -0.610931 0.142741 -0.086994 0.143643 -0.128550 0.787187 -0.182616 0.105881 0.037725 0.025406 0.074712 -1.177084 0.737565 0.032706 -0.563410 0.230417 -0.022345 -0.175758 0.090909 -0.529530 0.540494 0.272979 -0.179961 0.724806 0.444930 -0.595298 -0.323879 0.403515 0.165053 0.054877 0.688704 0.667659 0.463775 -0.299975 0.476740 -0.551355 -0.822781
At 0.837234 0.067560 0.075126 -0.205038 0.547346 0.576508 0.062971 0.219372 0.947340 -0.262241 0.445071 -0.326973 0.783370 0.122823 0.766659 -0.353951 -0.367759 -0.196487 0.738181 -0.157508 -0.281433 0.448175 -0.305192 0.350726 -1.391600 0.507898 -0.175855 -0.291627 0.136051 -0.077747 -0.286949 -0.267812 0.260068 -0.531878 -0.201710 -0.085172 -0.269683 -0.185112 -0.847796 -0.530890 0.504088 -0.122933 -0.067291 0.554178 -0.163645 0.420008 0.085257 1.032824 -0.310837 -0.708044
half -0.006636 0.077778 0.071616 0.229063 0.245835 0.111071 -0.075787 -0.030043 0.092266 0.562688 0.234506 -0.137730 0.948264 -0.120567 -0.319532 0.053691 -0.050462 -0.268510 1.428305 -0.316674 -0.148181 0.050206 0.426540 0.044998 -0.136029 0.359374 0.453283 -0.397588 -0.419402 -0.035952 -0.535158 0.068643 -0.171373 -0.126496 -0.098723 -0.201513 0.447305 0.439136 0.404987 0.089414 0.152557 0.235953 -0.039806 0.879815 -0.135354 0.776176 0.045794 0.364251 -0.278227 -0.568843
eight 0.650584 0.277500 -0.638373 0.087884 -0.142287 0.225910 -0.100229 0.095881 0.266603 0.215189 -0.200081 0.295650 0.613168 -0.292319 -0.216444 -0.319814 -0.030350 0.075301 0.391053 -0.142902 0.336239 -0.416072 0.114032 0.337239 -0.730891 0.376609 0.133247 -0.876148 0.356559 -0.329082 0.148941 -0.175822 -0.311790 -0.071397 -0.367846 0.088865 -0.028487 0.328741 -0.216052 -0.127602 -0.178692 -0.169453 -0.027817 0.049489 0.371926 0.511330 0.232969 0.231446 0.114109 -0.577775
briefcase 0.029271 0.161171 -0.024339 0.481226 0.102932 0.338372 -0.386973 0.347119 -0.270727 -0.020059 0.079245 -0.322522 0.151128 -0.126647 -0.208471 0.063255 -0.383752 0.136256 -0.045654 0.027614 0.234239 0.408909 0.664334 0.141582 -0.128146 0.157125 0.182340 -0.107654 0.185387 -0.210434 -0.510748 -0.004784 -0.512126 0.256195 -0.415565 -0.218308 -0.309894 -0.222736 0.215099 -0.152213 0.181916 0.479027 -0.399658 0.333357 0.065669 0.119067 0.121215 -0.209720 0.134591 -0.783749
pecked 0.206331 0.153093 -0.159068 0.133044 -0.094298 -0.189541 0.164486 -0.051616 0.334168 -0.500765 -0.063891 0.174676 0.090917 -0.046853 -0.439068 0.188009 0.340399 -0.036999 0.167703 0.166385 0.486664 -0.045099 0.084952 0.398675 -0.385805 0.331115 0.286280 -0.071481 -0.271344 -0.129230 -0.156754 0.140427 -0.008082 0.434297 0.282937 -0.064648 0.209037 0.201880 -0.067136 -0.177088 0.612827 -0.316844 -0.165162 -0.137551 0.131502 -0.196453 0.121556 0.236967 0.435827 -0.218095
cheek 0.769582 -0.450765 0.015085 0.363655 0.372062 0.487025 -0.224588 -0.154130 0.547395 0.342014 0.042761 -0.081478 0.189805 -0.200960 -0.069503 -0.021513 0.025090 0.367616 0.688130 -0.583940 0.467525 -0.184929 0.541955 0.270042 -0.565052 1.017057 0.342123 0.010392 -0.133128 0.090989 -0.494355 0.171837 -0.406650 0.085551 -0.162381 0.087835 0.142334 0.189519 0.092735 -0.329831 -0.347941 0.001099 0.294551 0.778102 0.052213 -0.160678 -0.027216 0.532812 0.280500 -0.254104
tried 0.600487 0.362270 0.019060 0.303830 0.129859 1.176484 0.377182 -0.826758 0.441196 0.304861 0.694103 -0.261711 0.675916 0.335526 0.431553 -0.575248 -0.116063 0.621530 0.639454 -0.531833 0.506934 0.048229 0.039047 -0.264314 -0.830319 0.816068 0.164490 -0.042257 -0.219135 -0.203586 -0.561747 0.259896 -0.336271 -0.024024 -0.460075 -0.237592 -0.989645 0.912819 0.045970 -0.016917 0.132590 0.080361 -0.086343 0.275615 0.760413 1.093496 0.122387 -0.083016 -0.407306 -0.878328
kiss 0.150205 -0.044336 0.084202 0.450647 0.253752 0.309288 -0.402902 -0.704815 0.839612 0.104586 0.131850 0.107758 0.335154 -0.111138 -0.555394 -0.210454 -0.344773 0.470035 0.391131 -0.143715 0.179882 0.102244 -0.153147 0.245798 -0.671474 0.607858 -0.312400 -0.184203 0.031042 0.084950 -0.154166 -0.269611 -0.560595 -0.377794 -0.005165 0.426399 -0.042837 -0.150103 0.122295 0.009589 0.002139 0.013848 0.278414 -0.002253 -0.149627 0.103109 0.114438 0.224725 -0.058666 -0.378287
